{"learner":{"attributes":{"go_learning_rate":"0.1"},"feature_names":[],"feature_types":[],"gradient_booster":{"name":"gbtree","model":{"gbtree_model_param":{"num_parallel_tree":"1","num_trees":"50"},"trees":[{"base_weights":[0.011319120622536554,-0.07745634192915347,0.11020244492701621,-0.10245041232092221,-0.0018036256154188729,0.04907000347072521,0.16534741402352104,-0.11349605092287114,0.04723421821414965,0.06231035977459906,-0.034099483429102045,-0.00926527628292341,0.09546742341637093,0.17943423787853244,0.027128905134502286,0.044473646570836044,-0.1233084227282685,0.10034506186083103,-0.0023815572208814705,-0.07328308207705192,0.034169241739957244,-0.04073109650246161,0.04448703031962223,0.10972371707653894,-0.023015548281505715,0.008950490998363354,0.1884380615156959,0.05772239819867956,-0.023015548281505715,-0.12815301310448513,-0.0019081784528488925,0.008950490998363356,-0.0902770954112214,0.0728825695581015,-0.01033679145993081,0.04091653027823243,-0.06284268584351559,0.09405876977554402,-0.05498158756137478,0.1366577420794289,0.0391881438052197,0.1995254927716976,0.04723421821414965,-0.1375943889882257,-0.06284268584351559,-0.05498158756137478,0.04091653027823243,-0.017491004626192217,-0.07725219871642497,0.11735297485020801,0.008950490998363361,0.027907109872915337,0.14978588888276276,-0.03933347636415646,0.08224354965879124,0.2105662325603731,0.027907109872915333,-0.14077844575210807,-0.023015548281505715,-0.01033679145993081,-0.08027627586521567,0.027907109872915337,-0.05498158756137478,0.10484860883797056,0.016537938925838543,-0.05498158756137478,0.04091653027823243],"categories":[],"categories_nodes":[],"categories_segments":[],"categories_sizes":[],"default_left":[1,1,1,1,1,1,1,1,0,1,1,1,1,1,1,0,1,0,0,1,1,1,1,1,0,0,1,0,0,1,0,0,0,0,1,0,1,1,0,1,1,1,0,1,1,0,0,1,0,0,0,0,0,0,1,0,0,0,0,1,0,0,0,0,0,0,0],"id":0,"left_children":[1,3,5,7,9,11,13,15,-1,17,19,21,23,25,27,-1,29,-1,-1,31,33,35,37,39,-1,-1,41,-1,-1,43,-1,-1,-1,-1,45,-1,47,49,-1,51,53,55,-1,57,59,-1,-1,61,-1,-1,-1,-1,-1,-1,63,-1,-1,-1,-1,65,-1,-1,-1,-1,-1,-1,-1],"loss_changes":[84.28650595789105,9.557961909878067,13.657841046659811,7.3725216345695515,3.4557491830295146,6.764985770795746,3.5020871646453813,6.688668055243632,0.0,1.428310739253114,3.4504260673958864,2.4945652256434188,2.8250079352991175,2.81012159513665,0.9533300903177296,0.0,1.9798982682503308,0.0,0.0,1.229501988660327,1.0784904203331958,2.1382865998145912,3.8008047630148103,1.3238634369232187,0.0,0.0,1.148617032615661,0.0,0.0,0.314216961867686,0.0,0.0,0.0,0.0,1.4239330111933257,0.0,0.24387855476921638,0.6785567311626703,0.0,0.35162235707082523,2.772689726635107,2.1112898377102454,0.0,0.3470199605613473,0.5541829592896002,0.0,0.0,1.069764378196787,0.0,0.0,0.0,0.0,0.0,0.0,0.35246872553800124,0.0,0.0,0.0,0.0,1.4239330111933257,0.0,0.0,0.0,0.0,0.0,0.0,0.0],"parents":[2147483647,0,0,1,1,2,2,3,3,4,4,5,5,6,6,7,7,9,9,10,10,11,11,12,12,13,13,14,14,16,16,19,19,20,20,21,21,22,22,23,23,26,26,29,29,34,34,36,36,37,37,39,39,40,40,41,41,43,43,44,44,47,47,54,54,59,59],"right_children":[2,4,6,8,10,12,14,16,-1,18,20,22,24,26,28,-1,30,-1,-1,32,34,36,38,40,-1,-1,42,-1,-1,44,-1,-1,-1,-1,46,-1,48,50,-1,52,54,56,-1,58,60,-1,-1,62,-1,-1,-1,-1,-1,-1,64,-1,-1,-1,-1,66,-1,-1,-1,-1,-1,-1,-1],"split_conditions":[0.14789901673793793,-0.2157929688692093,0.7917404770851135,1.279444932937622,-0.5481573939323425,-0.05015110597014427,0.9863211512565613,-1.6716285943984985,0.0,-0.07273915410041809,0.06940116733312607,0.4027625024318695,0.8708217740058899,-1.3483952283859253,0.4507889747619629,0.0,1.5169353485107422,0.0,0.0,-1.0380200147628784,-0.5063368678092957,-1.1796454191207886,0.37037041783332825,0.10756376385688782,0.0,0.0,1.003664255142212,0.0,0.0,-0.38926801085472107,0.0,0.0,0.0,0.0,0.9802196621894836,0.0,0.35404595732688904,-0.25408777594566345,0.0,0.11519772559404373,0.5524876117706299,1.1663082838058472,0.0,1.627238392829895,0.024539295583963394,0.0,0.0,-0.014459476806223392,0.0,0.0,0.0,0.0,0.0,0.0,0.35404595732688904,0.0,0.0,0.0,0.0,-0.29734185338020325,0.0,0.0,0.0,0.0,0.0,0.0,0.0],"split_indices":[2,2,2,1,8,9,5,1,0,2,9,8,5,1,1,0,8,0,0,1,4,5,1,8,0,0,9,0,0,2,0,0,0,0,4,0,2,5,0,9,8,8,0,4,1,0,0,4,0,0,0,0,0,0,2,0,0,0,0,8,0,0,0,0,0,0,0],"split_type":[0,0,0,0,0,0,0,0,0,0,0,0,0,0,0,0,0,0,0,0,0,0,0,0,0,0,0,0,0,0,0,0,0,0,0,0,0,0,0,0,0,0,0,0,0,0,0,0,0,0,0,0,0,0,0,0,0,0,0,0,0,0,0,0,0,0,0],"sum_hessian":[92.0709119999995,48.743424000000026,43.32748799999998,36.10623999999992,12.637184000000003,22.340735999999957,20.986751999999967,34.075263999999905,2.0309760000000003,3.610624000000001,9.026560000000002,10.606208000000002,11.734528000000003,18.504447999999986,2.4823040000000005,1.5796480000000002,32.49561599999989,1.5796480000000002,2.0309760000000003,5.641600000000001,3.384960000000001,6.995584000000002,3.610624000000001,10.606208000000002,1.12832,1.12832,17.376127999999994,1.353984,1.12832,31.14163199999989,1.353984,1.12832,4.513280000000001,1.12832,2.2566400000000004,1.12832,5.867264000000001,2.4823040000000005,1.12832,6.3185920000000015,4.287616000000001,15.345152000000004,2.0309760000000003,25.274367999999935,5.867264000000001,1.12832,1.12832,2.4823040000000005,3.384960000000001,1.353984,1.12832,1.353984,4.964608000000001,1.5796480000000002,2.7079680000000006,13.991168000000004,1.353984,24.146047999999944,1.12832,2.2566400000000004,3.610624000000001,1.353984,1.12832,1.12832,1.5796480000000002,1.12832,1.12832],"tree_param":{"num_nodes":"67","num_feature":"10","num_deleted":"0","size_leaf_vector":"1"}},{"base_weights":[0.0027161597658348774,-0.07939637122413142,0.07366055520454438,0.034446888975800755,-0.08741546445649584,-0.014464458603294542,0.09508953168496916,0.1030692655079784,-0.056108155328396574,-0.10945489638753253,-0.028441916090443456,0.03807014880933485,-0.06310459835047327,-0.06148923783581248,0.10364497766922379,-0.12393210457696698,0.024301252298369626,0.025373099518561842,-0.074457366773819,0.07670647042979412,-0.03946411174448771,-0.09331150349391554,0.015468419625414129,0.05274619187721209,0.13741765541775205,-0.03345053142365124,0.07080059484888217,-0.03242925004827606,0.059725402610478075,-0.09156906908696638,0.01141019625655153,0.10940350539527555,-0.005543517025886429,0.10811809532447454,0.0006592227568089028,-0.06638506556599152,0.15750159746404926,-0.0530619976552837,0.008782299516007612,0.11753046587355005,-0.03936638084380865,-0.024918410398317034,0.1334658952569255,-0.06290763811197352,0.12071829020937395,0.17400376617649857,-0.03217504675320212,0.15931103605450694,0.013785752132067591,-0.08767294158266851,0.038822039060320446,0.19505726911900878,0.06094443713371061,-0.10560336089104111,0.005909541126915913,0.20284405726350974,0.036324391358671854,-0.03515804533431952,0.1053909205720846],"categories":[],"categories_nodes":[],"categories_segments":[],"categories_sizes":[],"default_left":[1,1,1,1,1,1,1,0,0,1,1,1,1,0,1,0,1,1,1,1,0,0,0,1,1,0,0,1,1,0,0,0,0,1,1,0,1,0,0,0,0,0,1,1,0,1,0,0,0,1,0,1,1,0,0,0,0,0,0],"id":1,"left_children":[1,3,5,7,9,11,13,-1,-1,15,17,19,21,-1,23,-1,25,27,29,31,-1,-1,-1,33,35,-1,-1,37,39,-1,-1,-1,-1,41,43,-1,45,-1,-1,-1,-1,-1,47,49,-1,51,-1,-1,-1,53,-1,55,57,-1,-1,-1,-1,-1,-1],"loss_changes":[54.34655345748756,4.552826851798951,9.719100513283237,3.8176691060557344,4.705276783118727,3.4236582612382533,6.698915111635962,0.0,0.0,6.244666307107849,3.808523083937998,2.6378960397482647,1.8867729234273511,0.0,5.278263706688918,0.0,1.686904732133203,1.9515514216412067,1.380980635200384,1.521812192901704,0.0,0.0,0.0,5.424422442513157,11.211417843734608,0.0,0.0,0.45310763236958224,4.158689862016343,0.0,0.0,0.0,0.0,3.743298160062139,10.470162876328548,0.0,7.654043381663726,0.0,0.0,0.0,0.0,0.0,2.0296643820805578,2.9440157029186125,0.0,2.26813234308063,0.0,0.0,0.0,1.4401027910725404,0.0,0.4476863614007911,3.292269148338131,0.0,0.0,0.0,0.0,0.0,0.0],"parents":[2147483647,0,0,1,1,2,2,3,3,4,4,5,5,6,6,9,9,10,10,11,11,12,12,14,14,16,16,17,17,18,18,19,19,23,23,24,24,27,27,28,28,33,33,34,34,36,36,42,42,43,43,45,45,49,49,51,51,52,52],"right_children":[2,4,6,8,10,12,14,-1,-1,16,18,20,22,-1,24,-1,26,28,30,32,-1,-1,-1,34,36,-1,-1,38,40,-1,-1,-1,-1,42,44,-1,46,-1,-1,-1,-1,-1,48,50,-1,52,-1,-1,-1,54,-1,56,58,-1,-1,-1,-1,-1,-1],"split_conditions":[-0.02876928448677063,-1.6716285943984985,-0.7579485177993774,-0.21710817515850067,-0.3654046654701233,0.04487723112106323,-1.6229389905929565,0.0,0.0,1.279444932937622,0.27585548162460327,0.08457978814840317,0.18697227537631989,0.0,0.5721856951713562,0.0,0.5101544260978699,-0.32396718859672546,0.5543094873428345,0.018206359818577766,0.0,0.0,0.0,-0.15113864839076996,-1.4769508838653564,0.0,0.0,-0.2516809403896332,0.6548185348510742,0.0,0.0,0.0,0.0,-1.2237082719802856,0.4810250997543335,0.0,1.3427855968475342,0.0,0.0,0.0,0.0,0.0,0.43201351165771484,1.1737419366836548,0.0,0.8361862301826477,0.0,0.0,0.0,0.898421049118042,0.0,1.0773429870605469,-0.6754945516586304,0.0,0.0,0.0,0.0,0.0,0.0],"split_indices":[2,1,9,0,2,7,1,0,0,1,8,8,8,0,2,0,0,9,7,0,0,0,0,1,0,0,0,2,9,0,0,0,0,7,0,0,9,0,0,0,0,0,0,8,0,0,0,0,0,6,0,6,8,0,0,0,0,0,0],"split_type":[0,0,0,0,0,0,0,0,0,0,0,0,0,0,0,0,0,0,0,0,0,0,0,0,0,0,0,0,0,0,0,0,0,0,0,0,0,0,0,0,0,0,0,0,0,0,0,0,0,0,0,0,0,0,0,0,0,0,0],"sum_hessian":[89.28413398914519,41.27421805704197,48.00991593210316,2.2822980467056393,38.991920010336315,9.51797732192847,38.49193861017467,1.1411490233528194,1.1411490233528194,27.13798673384756,11.853933276488686,4.784748591070114,4.733228730858361,1.3531303444419371,37.13880826573273,24.62010409637859,2.517882637468972,5.877452106649116,5.9764811698395786,3.207675447761663,1.5770731433084517,3.147888739928856,1.5853399909295045,16.857093087697308,20.281715178035416,1.37339052952853,1.1444921079404418,2.2326612528723735,3.6447908537767444,4.8726591684645,1.1038220013750806,1.822789534237881,1.3848859135237812,7.128053890833304,9.729039196864008,1.4057762125542475,18.875938965481165,1.1045567146119308,1.1281045382604424,2.066908723565853,1.5778821302108905,1.1461947713178002,5.981859119515504,6.983557516027802,2.7454816808362055,17.517175815417435,1.358763150063729,4.374827195364681,1.607031924150825,5.8385599100041485,1.1449976060236542,13.54444789043255,3.9727279249848784,4.684168073931114,1.1543918360730352,12.38128134063857,1.1631665497939814,1.3884887794981857,2.5842391454866926],"tree_param":{"num_nodes":"59","num_feature":"10","num_deleted":"0","size_leaf_vector":"1"}},{"base_weights":[0.003707744524187013,-0.0568322358847653,0.08840561998737317,-0.08256755981098235,0.09071653425182223,-0.0072567090186889255,0.19193439791247088,-0.09519820996455929,-0.0073552333128657325,-0.037816972548168015,0.12466473965431651,-0.05371208927548731,0.050707291176009056,0.20654743206762216,0.02834793871159464,-0.10122766757335144,0.041495269175193084,0.05575880035566451,-0.08519203318322495,0.1423550270657882,0.019859300338142916,0.04296979969469685,-0.06970125865450398,-0.02536603306887676,0.07378251838514148,-0.10691921334584904,0.008792067929410041,0.09359311442261763,-0.03177200523615261,-0.08925391107697284,0.045096321502482425,0.1040946226692524,-0.008471481896088809,-0.12238087002341927,-0.043518597020835104,0.11845312728795886,0.0052913769758142545,-0.019623270726739507,-0.10759000567954094,0.12934772703518235,0.0011633311574589555,-0.05010622760360455,0.03734880373778947,-0.018226245101347807,-0.12506975623410022,0.016864555232299638,-0.07371617782246133,-0.05394171789891592,0.023400863799404953,-0.03799183942654959,0.05860799766312922,-0.08938358894993123,0.0029850017769833975],"categories":[],"categories_nodes":[],"categories_segments":[],"categories_sizes":[],"default_left":[1,1,1,1,1,1,1,1,1,0,1,1,1,0,0,1,0,1,0,0,0,0,1,0,1,1,0,1,0,1,0,1,1,1,1,0,0,1,0,0,0,0,0,0,0,1,1,0,0,0,0,0,0],"id":2,"left_children":[1,3,5,7,9,11,13,15,17,-1,19,21,23,-1,-1,25,-1,27,-1,-1,-1,-1,29,-1,31,33,-1,35,-1,37,-1,39,41,43,45,-1,-1,47,-1,-1,-1,-1,-1,-1,-1,49,51,-1,-1,-1,-1,-1,-1],"loss_changes":[47.422959658011024,22.00644638339207,38.42484536848538,4.328183842586007,4.858737524465964,6.454229592283871,3.2682790641693487,4.145452710291629,5.337212153117504,0.0,0.8370941406658439,2.63238663989891,2.2688258771767567,0.0,0.0,2.6295985749892807,0.0,2.62824293282418,0.0,0.0,0.0,0.0,3.509693821625846,0.0,2.368553566112978,2.583991294466827,0.0,0.9270539151503057,0.0,0.9780183501701512,0.0,1.679027232436603,1.1787860966822163,0.35132435924394656,2.145383591583041,0.0,0.0,0.9511824188805119,0.0,0.0,0.0,0.0,0.0,0.0,0.0,1.6121322972561063,0.9314075248009743,0.0,0.0,0.0,0.0,0.0,0.0],"parents":[2147483647,0,0,1,1,2,2,3,3,4,4,5,5,6,6,7,7,8,8,10,10,11,11,12,12,15,15,17,17,22,22,24,24,25,25,27,27,29,29,31,31,32,32,33,33,34,34,37,37,45,45,46,46],"right_children":[2,4,6,8,10,12,14,16,18,-1,20,22,24,-1,-1,26,-1,28,-1,-1,-1,-1,30,-1,32,34,-1,36,-1,38,-1,40,42,44,46,-1,-1,48,-1,-1,-1,-1,-1,-1,-1,50,52,-1,-1,-1,-1,-1,-1],"split_conditions":[0.1770578920841217,1.2139776945114136,0.13224661350250244,-0.009891881607472897,-0.7533358931541443,-0.39132454991340637,1.0971906185150146,1.8233414888381958,0.09970356523990631,0.0,0.8508746027946472,-1.339271903038025,-0.5953505039215088,0.0,0.0,1.7944585084915161,0.0,0.22187352180480957,0.0,0.0,0.0,0.0,1.1979950666427612,0.0,0.8512707352638245,0.4679490625858307,0.0,0.5875367522239685,0.0,-0.9026411771774292,0.0,0.5329716801643372,0.033632148057222366,-1.70902681350708,-0.4120369255542755,0.0,0.0,-0.9147043228149414,0.0,0.0,0.0,0.0,0.0,0.0,0.0,0.44450315833091736,-0.27727213501930237,0.0,0.0,0.0,0.0,0.0,0.0],"split_indices":[3,2,2,3,9,2,0,9,3,0,9,0,9,0,0,0,0,8,0,0,0,0,9,0,4,2,0,6,0,5,0,8,0,0,6,0,0,2,0,0,0,0,0,0,0,9,3,0,0,0,0,0,0],"split_type":[0,0,0,0,0,0,0,0,0,0,0,0,0,0,0,0,0,0,0,0,0,0,0,0,0,0,0,0,0,0,0,0,0,0,0,0,0,0,0,0,0,0,0,0,0,0,0,0,0,0,0,0,0],"sum_hessian":[88.52584435461485,52.00904526039928,36.51679909421545,45.03490713909866,6.974138121300653,19.946089878130728,16.570709216084737,38.10445069384876,6.9304564452499156,1.4095244077101174,5.564613713590536,11.153666822978781,8.792423055151943,14.729681055427955,1.8410281606567815,36.99168248258443,1.1127682112643313,4.140454765083232,2.7900016801666836,4.147921098571357,1.4166926150191792,1.1038913561359005,10.049775466842883,2.000085176120039,6.792337879031905,35.22574568294421,1.7659367996402358,2.7941801068436707,1.3462746582395617,8.967436972333699,1.0823384945091852,4.575229097824081,2.217108781207823,26.823643281759516,8.402102401184695,1.647448700440189,1.146731406403482,2.7322430854669144,6.235193886866783,3.2617181373107544,1.313510960513327,1.0635943097860772,1.1535144714217462,1.0665690967701023,25.757074184989413,3.0954620021948283,5.306640398989867,1.237574764378361,1.4946683210885539,1.4153072097531307,1.6801547924416975,4.13193225757864,1.1747081414112273],"tree_param":{"num_nodes":"53","num_feature":"10","num_deleted":"0","size_leaf_vector":"1"}},{"base_weights":[0.0012190242912612135,-0.061455984403790624,0.0675640940118719,-0.0939015929989927,0.012049574309875223,-0.02349899602074937,0.15043498400347177,-0.10643044197990997,0.057788862596634495,-0.06414917106158001,0.05017385412273846,-0.058921141478483575,0.056675930448555956,0.16634388518378898,0.025005356719041506,-0.11471005188433676,0.04174549874600328,0.013596594108656044,-0.08528572305029741,0.0937630697970329,-0.0014563246748105858,0.017287954653354556,-0.07510832599481422,0.0866128218482567,-0.035351560421862195,0.18221440699220634,0.04803146948460385,-0.0663838169790798,0.10526266342181197,-0.013286570936773753,-0.12262597767622328,0.11387094763685945,0.00447220890906718,-0.04977544271827944,0.03641407699436811,-0.028865946621324308,0.05027129077888126,-0.0901233572585346,0.03442438891180366,0.10573370808443222,-0.00013422341256516619,0.10229880460229596,-0.03929112039232073,0.04032651478693979,-0.05637789269804701,0.07155854198679239,-0.028492094979979045,-0.09982977444621055,-0.002096484110224351,-0.017135054732744744,-0.10478618537256189],"categories":[],"categories_nodes":[],"categories_segments":[],"categories_sizes":[],"default_left":[1,1,1,1,1,1,1,1,0,1,1,1,1,1,1,1,0,0,0,1,1,1,1,1,0,0,1,0,0,1,0,0,0,0,1,0,0,1,0,0,0,0,0,0,0,0,0,1,0,0,0],"id":3,"left_children":[1,3,5,7,9,11,13,15,-1,17,19,21,23,25,27,29,-1,-1,-1,31,33,35,37,39,-1,-1,41,-1,-1,43,-1,-1,-1,-1,45,-1,-1,47,-1,-1,-1,-1,-1,-1,-1,-1,-1,49,-1,-1,-1],"loss_changes":[37.98463642728025,11.434102600576768,34.18158828693787,7.469569735852247,5.3393043105647875,7.16121661235311,3.856158275730614,4.764559076004424,0.0,1.261924277636246,2.704454433696832,2.336908269697907,2.8234516852500207,2.0979916035270705,5.063600445087903,2.076397226407387,0.0,0.0,0.0,1.061726566524726,1.7193450672274169,0.9868000534959139,2.9661880085357524,1.1034369215719995,0.0,0.0,3.2396210771394545,0.0,0.0,1.473357528730591,0.0,0.0,0.0,0.0,1.6194794804176442,0.0,0.0,1.0771013842686905,0.0,0.0,0.0,0.0,0.0,0.0,0.0,0.0,0.0,0.12259539301006406,0.0,0.0,0.0],"parents":[2147483647,0,0,1,1,2,2,3,3,4,4,5,5,6,6,7,7,9,9,10,10,11,11,12,12,13,13,14,14,15,15,19,19,20,20,21,21,22,22,23,23,26,26,29,29,34,34,37,37,47,47],"right_children":[2,4,6,8,10,12,14,16,-1,18,20,22,24,26,28,30,-1,-1,-1,32,34,36,38,40,-1,-1,42,-1,-1,44,-1,-1,-1,-1,46,-1,-1,48,-1,-1,-1,-1,-1,-1,-1,-1,-1,50,-1,-1,-1],"split_conditions":[0.14789901673793793,0.5187942981719971,-0.009891881607472897,1.6760566234588623,-0.9392158389091492,1.1252654790878296,1.139088749885559,1.5730336904525757,0.0,-0.8284611701965332,-0.10745394974946976,-1.2737492322921753,0.5084332227706909,0.8061954975128174,-0.48871171474456787,-1.7097482681274414,0.0,0.0,0.0,0.5877696871757507,0.7863455414772034,-1.4938571453094482,-0.07027295976877213,0.2887563705444336,0.0,0.0,0.23885583877563477,0.0,0.0,-0.13702328503131866,0.0,0.0,0.0,0.0,1.168265461921692,0.0,0.0,1.5679696798324585,0.0,0.0,0.0,0.0,0.0,0.0,0.0,0.0,0.0,-1.0964069366455078,0.0,0.0,0.0],"split_indices":[2,3,3,0,2,2,0,9,0,1,7,6,9,1,1,1,0,0,0,1,3,6,3,0,0,0,7,0,0,0,0,0,0,0,3,0,0,1,0,0,0,0,0,0,0,0,0,0,0,0,0],"split_type":[0,0,0,0,0,0,0,0,0,0,0,0,0,0,0,0,0,0,0,0,0,0,0,0,0,0,0,0,0,0,0,0,0,0,0,0,0,0,0,0,0,0,0,0,0,0,0,0,0,0,0],"sum_hessian":[87.35210190529314,44.994232936983515,42.35786896830961,30.83056322383475,14.163669713148762,20.86411227402339,21.493756694286233,29.02960904150376,1.800954182330989,4.267993468830587,9.895676244318167,14.838492089846556,6.025620184176831,18.495490250981675,2.998266443304562,27.921166035424257,1.1084430060794996,1.06480698093181,3.203186487898778,4.480702216017546,5.4149740283006205,2.575773261205703,12.262718828640851,4.635386446513197,1.3902337376636347,15.355470574875339,3.1400196761063373,1.563561153933838,1.4347052893707242,2.4092582873109465,25.511907748113313,3.2077662762293233,1.272935939788223,2.10300695474366,3.3119670735569597,1.1776045933295938,1.3981686678761096,11.096046642575278,1.16667218606557,3.439500017436228,1.1958864290769675,1.7249971771695671,1.4150224989367697,1.1307420298311963,1.2785162574797504,2.0156030040243365,1.2963640695326237,9.752505869609012,1.343540772966271,1.0555523618950144,8.696953507713994],"tree_param":{"num_nodes":"51","num_feature":"10","num_deleted":"0","size_leaf_vector":"1"}},{"base_weights":[0.008639195809465606,-0.04320254782115912,0.07955109036592367,-0.07837333561391269,0.045808064657926785,-0.05124886597964319,0.130185002228254,-0.08882934069753866,0.08353926227210928,0.00610096824229767,0.12256831366111065,-0.07571326131804365,0.05916522749311018,0.054712504844196166,0.1543107122982508,-0.013936466259447942,-0.10476981890077904,-0.03311962313636504,0.07247359529632526,0.04141478188521483,-0.09765267830939452,0.0789327823184931,-0.03491097642337001,0.16588253148148607,0.041217872902504865,0.13528735496185118,-0.10057074422749275,-0.11424298359770868,-0.01719402599044649,0.02770693479411602,-0.06706078993352307,3.2768135525066554E-05,0.0928193028110649,-0.10428756055732334,-0.013334581021844037,0.11928342941031729,0.012074883069575404,0.036172633012029436,0.1728402372174317,-0.05221964196123772,0.10092935523721945,-0.11963051873240788,-0.011879768791331315,-0.07225068210260611,0.06664888966460221,0.09439082469419681,-0.058984024094298954,-0.08939531173413154,-0.009650431430516125,-0.051506733192048626,0.07977578752347078],"categories":[],"categories_nodes":[],"categories_segments":[],"categories_sizes":[],"default_left":[1,1,1,1,1,1,1,1,0,1,0,1,0,1,1,1,1,1,1,0,1,1,0,1,1,0,0,1,1,1,1,0,0,0,0,0,1,0,0,0,0,0,0,0,0,0,0,0,0,0,0],"id":4,"left_children":[1,3,5,7,9,11,13,15,-1,17,-1,19,-1,21,23,25,27,29,31,-1,33,35,-1,37,39,-1,-1,41,43,45,47,-1,-1,-1,-1,-1,49,-1,-1,-1,-1,-1,-1,-1,-1,-1,-1,-1,-1,-1,-1],"loss_changes":[33.56270499118506,17.29639625175958,26.813554638451965,8.035178836822432,4.806551313555936,4.1836988526896475,3.4643562571000004,4.163073600823719,0.0,3.8177578194293873,0.0,3.594719715651501,0.0,2.711785744953266,1.2952015576869655,14.169882772358047,2.134323966080018,2.318866313135092,0.7937526145634206,0.0,0.26600964166611973,1.9913744183504827,0.0,0.3556595126098543,3.5925948926977016,0.0,0.0,1.2121720341408206,3.422454664064577,3.884489097898712,0.6786880312742158,0.0,0.0,0.0,0.0,0.0,3.148570155647808,0.0,0.0,0.0,0.0,0.0,0.0,0.0,0.0,0.0,0.0,0.0,0.0,0.0,0.0],"parents":[2147483647,0,0,1,1,2,2,3,3,4,4,5,5,6,6,7,7,9,9,11,11,13,13,14,14,15,15,16,16,17,17,18,18,20,20,21,21,23,23,24,24,27,27,28,28,29,29,30,30,36,36],"right_children":[2,4,6,8,10,12,14,16,-1,18,-1,20,-1,22,24,26,28,30,32,-1,34,36,-1,38,40,-1,-1,42,44,46,48,-1,-1,-1,-1,-1,50,-1,-1,-1,-1,-1,-1,-1,-1,-1,-1,-1,-1,-1,-1],"split_conditions":[0.20923365652561188,0.8079513907432556,-0.38926801085472107,2.024752616882324,-0.21259090304374695,0.8353636264801025,0.12239722907543182,-0.9804947972297668,0.0,1.6185702085494995,0.0,-1.339271903038025,0.0,0.3604952096939087,1.1147234439849854,-0.4731917083263397,1.0971906185150146,-0.5412200689315796,-0.8164986371994019,0.0,0.521591305732727,0.30850720405578613,0.0,0.3019295036792755,0.6783652305603027,0.0,0.0,0.6083952784538269,-0.3014085590839386,-0.492287278175354,-0.134782612323761,0.0,0.0,0.0,0.0,0.0,-0.008022617548704147,0.0,0.0,0.0,0.0,0.0,0.0,0.0,0.0,0.0,0.0,0.0,0.0,0.0,0.0],"split_indices":[3,2,2,1,3,1,2,1,0,2,0,0,0,1,0,0,0,1,5,0,1,0,0,3,2,0,0,2,3,0,0,0,0,0,0,0,1,0,0,0,0,0,0,0,0,0,0,0,0,0,0],"split_type":[0,0,0,0,0,0,0,0,0,0,0,0,0,0,0,0,0,0,0,0,0,0,0,0,0,0,0,0,0,0,0,0,0,0,0,0,0,0,0,0,0,0,0,0,0,0,0,0,0,0,0],"sum_hessian":[87.42760594695827,50.956337914578285,36.47126803238004,36.695748245895736,14.260589668682577,10.171491580115045,26.299776452264975,35.3177454557275,1.3780027901682514,10.82164999862425,3.43893967005832,8.841125793329274,1.3303657867857719,7.953729606899791,18.34604684536519,6.8558037597594454,28.461941695968058,7.431986248278579,3.3896637503456697,1.1146994088205848,7.726426384508691,6.449385916660047,1.5043436902397445,15.79619410749546,2.549852737869734,2.105679034710849,4.750124725048597,25.134146626164032,3.327795069804011,2.793342877587168,4.638643370691411,1.1825213531474037,2.2071423971982664,6.723679071953917,1.0027473125547741,3.043986180667287,3.4053997359927592,1.4353507474160245,14.360843360079432,1.0920030200633313,1.4578497178064025,23.556935275206985,1.5772113509570533,2.1756475172308116,1.1521475525731997,1.478455188329423,1.3148876892577446,2.5372948287887502,2.101348541902662,2.0028331513166697,1.4025665846760893],"tree_param":{"num_nodes":"51","num_feature":"10","num_deleted":"0","size_leaf_vector":"1"}},{"base_weights":[0.005386840611167601,-0.05526615268125865,0.0678036269270209,-0.07171486110670541,0.07897773143951854,-0.06143326641443462,0.11415757937595948,-0.07781008602623572,0.029167150161253687,0.09982561540524908,-0.001201896500259474,-0.08574097698695243,0.004632251286383212,0.0447967781550781,0.13581999727415472,-0.0917575448560432,-0.013542419557217095,0.048282288690850154,-0.05212253802298601,0.09568050755980964,4.4111798862826474E-05,0.14244769664293827,0.0018672650248220688,-0.0963594739805314,0.016427266357218438,-0.036772776004132084,0.053605655972329774,0.046828019008789024,-0.03932799202582057,0.021466905095786276,0.1470545082757531,-0.1009461677555013,0.010404249706537975,0.02399195870511285,-0.06887755246476353,0.0653897561161124,0.0004265558674680449,-0.06565255946683098,0.00900138197429943,0.1518819364127859,0.02415878023204027,-0.02368693586300715,-0.11267691889265237,0.08008863306722891,-0.05083730437742513,-0.08591758154055414,-0.005630330690165755,0.15672701105439663,0.02569746493736228,0.07956990443623502,-0.0831279285319527,-0.11553687237912938,-0.019857178553841854],"categories":[],"categories_nodes":[],"categories_segments":[],"categories_sizes":[],"default_left":[1,1,1,1,1,1,1,1,0,0,0,0,1,1,1,1,1,0,0,0,1,1,0,1,0,1,0,1,1,0,1,1,0,1,1,0,0,0,0,1,0,1,1,0,0,0,0,0,0,0,0,0,0],"id":5,"left_children":[1,3,5,7,9,11,13,15,-1,-1,-1,-1,17,19,21,23,25,-1,-1,-1,27,29,-1,31,-1,33,-1,35,37,-1,39,41,-1,43,45,-1,-1,-1,-1,47,-1,49,51,-1,-1,-1,-1,-1,-1,-1,-1,-1,-1],"loss_changes":[33.78019626038875,11.147129967329032,27.700234629135835,3.0026456304169393,1.0105867883190607,2.1492475173109824,3.7428250603465045,3.3041044930917813,0.0,0.0,0.0,0.0,1.8322153658572975,2.4676321713214677,2.0925230007671516,1.920669665563775,1.8626793034829574,0.0,0.0,0.0,1.799257086033134,0.6506775648026064,0.0,1.7377155618293827,0.0,1.9263608096146392,0.0,0.37881648311890703,0.7931731170034735,0.0,0.5605006912358448,2.1940318480248457,0.0,2.6240225287807877,0.535786530855201,0.0,0.0,0.0,0.0,0.4548129065671489,0.0,5.312348600851516,0.22068477394886798,0.0,0.0,0.0,0.0,0.0,0.0,0.0,0.0,0.0,0.0],"parents":[2147483647,0,0,1,1,2,2,3,3,4,4,5,5,6,6,7,7,12,12,13,13,14,14,15,15,16,16,20,20,21,21,23,23,25,25,27,27,28,28,30,30,31,31,33,33,34,34,39,39,41,41,42,42],"right_children":[2,4,6,8,10,12,14,16,-1,-1,-1,-1,18,20,22,24,26,-1,-1,-1,28,30,-1,32,-1,34,-1,36,38,-1,40,42,-1,44,46,-1,-1,-1,-1,48,-1,50,52,-1,-1,-1,-1,-1,-1,-1,-1,-1,-1],"split_conditions":[-0.009891881607472897,1.6185702085494995,-0.38926801085472107,1.8866547346115112,0.2887563705444336,0.9346036911010742,0.12239722907543182,0.8523190021514893,0.0,0.0,0.0,0.0,-0.32663729786872864,-0.7272785902023315,1.7283300161361694,1.6748164892196655,-0.21803998947143555,0.0,0.0,0.0,-0.0728231891989708,-1.6041723489761353,0.0,1.6760566234588623,0.0,-0.5412200689315796,0.0,-0.4592073857784271,0.7863455414772034,0.0,1.4202362298965454,-0.9804947972297668,0.0,-0.492287278175354,-0.134782612323761,0.0,0.0,0.0,0.0,1.627238392829895,0.0,-0.8650597929954529,1.7267463207244873,0.0,0.0,0.0,0.0,0.0,0.0,0.0,0.0,0.0,0.0],"split_indices":[3,2,2,1,0,3,2,2,0,0,0,0,4,7,0,4,3,0,0,0,4,4,0,0,0,1,0,1,3,0,5,1,0,0,0,0,0,0,0,4,0,0,7,0,0,0,0,0,0,0,0,0,0],"split_type":[0,0,0,0,0,0,0,0,0,0,0,0,0,0,0,0,0,0,0,0,0,0,0,0,0,0,0,0,0,0,0,0,0,0,0,0,0,0,0,0,0,0,0,0,0,0,0,0,0,0,0,0,0],"sum_hessian":[85.24986316767806,43.35202173144172,41.89784143623627,39.449860987172876,3.902160744268824,10.888790432730353,31.00905100350591,37.63347525687579,1.8163857302970763,2.7079932638707542,1.1941674803980706,7.5246029326852355,3.364187500045116,8.840045664813262,22.169005338692642,30.21967771673931,7.41379754013646,2.070405983487104,1.2937815165580115,3.0716332361394105,5.7684124286738525,21.002986501004713,1.1660188376879261,29.1963469581216,1.0233307586177098,6.180377596970879,1.2334199431655806,2.4630051940529847,3.3054072346208683,1.1856603058225743,19.81732619518214,28.09819579022653,1.0981511678950697,2.311256665402858,3.8691209315680224,1.1746720987739718,1.2883330952790129,1.6757573560924919,1.6296498785283764,18.614418755311913,1.2029074398702229,4.499925751025351,23.59827003920118,1.2406318890478218,1.070624776355036,2.4832140593682306,1.3859068721997911,17.459920919361885,1.1544978359500304,1.3965903902810255,3.1033353607443273,22.418038223657557,1.1802318155436282],"tree_param":{"num_nodes":"53","num_feature":"10","num_deleted":"0","size_leaf_vector":"1"}},{"base_weights":[0.0027289989809690823,-0.07228618698654303,0.044948248297272064,-0.09598705146456203,-0.016894129206882293,-0.02891820229657792,0.08818847069083834,-0.007083648802183324,-0.10648805647959705,-0.05541491069180038,0.0716578559321361,-0.062324055165132446,0.06705308787704507,0.09661730459037435,-0.0008374158380784609,-0.0522788146664966,0.047823317205133636,-0.016003149719856023,-0.11015969375597666,0.01855979308509915,-0.06883947244444504,0.09532280891637249,0.004426975417023342,-0.08240130160169673,0.008370380864884047,-0.0016907206038381637,0.10633439192928179,0.04566361396633714,0.1245486166280228,0.03190706797299107,-0.03586581670165071,-0.01760166600338153,-0.11423595247186812,-0.08229399670013018,-0.0012318222709745915,-0.014526286007621406,-0.09020146503296284,-0.03824649512324026,0.06978406533842652,0.030637941191031165,-0.03299779504509727,-0.058797994857087456,0.0632439106061125,0.01765514792284179,0.1384596327421416,0.006395488852633892,-0.05659431065149634,0.015055057074129897,0.09892659323970159,-0.03202529379093094,0.058329978384439096,-0.021551610594436152,0.07860438121586447,0.01739299328548371,0.11742907933255681,0.041833936919449706,-0.06601402097796302],"categories":[],"categories_nodes":[],"categories_segments":[],"categories_sizes":[],"default_left":[1,1,1,1,1,1,1,1,1,1,1,1,1,1,1,0,0,0,1,0,1,0,0,1,1,1,0,1,1,0,0,0,0,0,0,0,0,1,0,0,0,0,1,1,0,0,0,1,1,0,0,1,0,0,0,0,0],"id":6,"left_children":[1,3,5,7,9,11,13,15,17,19,21,23,25,27,29,-1,-1,-1,31,-1,33,-1,-1,35,37,39,-1,41,43,-1,-1,-1,-1,-1,-1,-1,-1,45,-1,-1,-1,-1,47,49,-1,-1,-1,51,53,-1,-1,55,-1,-1,-1,-1,-1],"loss_changes":[27.288361170194857,3.7529985407652653,18.094085422027725,1.8398441620889159,4.796680039626285,7.835754888059587,2.6589918108489137,1.590691256311178,0.2762729563386017,1.179551172489529,0.6202857848470189,2.583885282824368,1.818474366745653,3.4438926064393236,0.8056865852874049,0.0,0.0,0.0,0.271327779089809,0.0,0.7347306977757633,0.0,0.0,0.45827235548187595,2.1448172884909433,0.6443957066261967,0.0,3.4168121760922046,2.430793597231748,0.0,0.0,0.0,0.0,0.0,0.0,0.0,0.0,0.440232025210179,0.0,0.0,0.0,0.0,2.0101277906803627,1.2937140749693015,0.0,0.0,0.0,2.2160416967691696,0.7007551892665109,0.0,0.0,2.4376847062185316,0.0,0.0,0.0,0.0,0.0],"parents":[2147483647,0,0,1,1,2,2,3,3,4,4,5,5,6,6,7,7,8,8,9,9,10,10,11,11,12,12,13,13,14,14,18,18,20,20,23,23,24,24,25,25,27,27,28,28,37,37,42,42,43,43,47,47,48,48,51,51],"right_children":[2,4,6,8,10,12,14,16,18,20,22,24,26,28,30,-1,-1,-1,32,-1,34,-1,-1,36,38,40,-1,42,44,-1,-1,-1,-1,-1,-1,-1,-1,46,-1,-1,-1,-1,48,50,-1,-1,-1,52,54,-1,-1,56,-1,-1,-1,-1,-1],"split_conditions":[-0.2157929688692093,0.43477585911750793,-0.27727213501930237,-1.3503670692443848,0.5043230056762695,1.2139776945114136,1.2473373413085938,0.5101544260978699,-1.339271903038025,-1.127397060394287,-0.11744523793458939,0.3724803328514099,-1.065228819847107,0.3465544879436493,0.252287358045578,0.0,0.0,0.0,-1.1576635837554932,0.0,0.963548481464386,0.0,0.0,-1.0964069366455078,0.6553667187690735,-1.76918625831604,0.0,-1.1840949058532715,-0.02876928448677063,0.0,0.0,0.0,0.0,0.0,0.0,0.0,0.0,-0.9413105845451355,0.0,0.0,0.0,0.0,0.5791783332824707,0.9215309023857117,0.0,0.0,0.0,0.45900648832321167,-1.0315217971801758,0.0,0.0,-0.456046462059021,0.0,0.0,0.0,0.0,0.0],"split_indices":[2,3,3,6,9,2,0,0,0,0,7,9,3,3,9,0,0,0,9,0,0,0,0,0,0,3,0,7,2,0,0,0,0,0,0,0,0,0,0,0,0,0,2,3,0,0,0,0,0,0,0,0,0,0,0,0,0],"split_type":[0,0,0,0,0,0,0,0,0,0,0,0,0,0,0,0,0,0,0,0,0,0,0,0,0,0,0,0,0,0,0,0,0,0,0,0,0,0,0,0,0,0,0,0,0,0,0,0,0,0,0,0,0,0,0,0,0],"sum_hessian":[82.11057811593737,29.05727387516446,53.05330424077306,19.32350155255939,9.733772322605077,19.833888667711733,33.21941557306136,2.395120094860709,16.928381457698677,7.304625810968235,2.429146511636842,15.232817082494968,4.601071585216766,30.190483050037802,3.0289325230235415,1.3662554209033761,1.0288646739573324,1.0780392528254996,15.85034220487318,1.0044814116283312,6.300144399339904,1.178599699795999,1.250546811840843,11.60562031049577,3.6271967719991998,2.3690533876865016,2.2320181975302633,12.555614137374867,17.63486891266294,1.6576146776939018,1.37131784532964,1.1172633331983164,14.733078871674865,4.8921123610640445,1.4080320382758604,1.7863008156954103,9.81931949480036,2.490905310771756,1.1362914612274437,1.1865407981436444,1.182512589542857,1.1331847374071395,11.422429399967726,2.553309789365275,15.081559123297657,1.105057089236708,1.3858482215350485,6.069501357339225,5.3529280426285,1.3408682550870294,1.2124415342782453,4.68976571187564,1.379735645463585,1.7077181062549656,3.6452099363735346,1.9821908432935702,2.7075748685820686],"tree_param":{"num_nodes":"57","num_feature":"10","num_deleted":"0","size_leaf_vector":"1"}},{"base_weights":[-0.004272588731698108,-0.05883312733402976,0.050237803278057595,-0.08975879485826802,0.00210376973335055,-0.04267144697582943,0.10442270288152472,-0.10098584709219989,0.04191507234832713,-0.06660472249690495,0.035446124982034255,0.04838289550503112,-0.06821959535950516,0.11490567873245797,0.008009482619373497,-0.022698764651937167,-0.10581102417591975,-0.08501101913163922,0.004354658745264728,-0.03073282294492687,0.08839974270580099,0.07991301177558381,-0.019349091975501283,-0.08372681588491002,0.04004581232770263,0.028524054426456842,0.13434334529618863,-0.04078575424626963,0.057499895292376195,-0.044298884328658625,0.014253029859542257,-0.10872038525623025,-0.016995299714544523,-0.052937566922820124,0.02863470732348715,0.13338009224819225,-0.02228650641279374,-0.017133929628295016,-0.1048705193491518,-0.02740870454697445,0.06218610966483737,0.13956859751718562,0.020342695244604615,0.013884404182614066,-0.08203853726860974,-0.06196367191932736,0.03787311969546918,0.0088012350357616,0.08522907067981744],"categories":[],"categories_nodes":[],"categories_segments":[],"categories_sizes":[],"default_left":[1,1,1,1,1,1,1,1,0,1,1,1,1,1,1,1,1,0,0,1,1,0,0,1,0,1,1,0,0,0,0,0,0,1,0,0,0,1,0,0,1,0,0,0,0,0,0,0,0],"id":7,"left_children":[1,3,5,7,9,11,13,15,-1,17,19,21,23,25,27,29,31,-1,-1,33,35,-1,-1,37,-1,39,41,-1,-1,-1,-1,-1,-1,43,-1,-1,-1,45,-1,-1,47,-1,-1,-1,-1,-1,-1,-1,-1],"loss_changes":[24.66293185215805,7.834269330499096,21.816776991503918,4.910360450530796,4.110575782499978,4.552334333470306,2.5281119796378313,0.49863307885533104,0.0,0.8425049219472691,4.748047664333453,1.3420398587717866,3.0034809455611313,3.27227883130292,1.623706708798574,0.4496005846412283,0.2471318663953781,0.0,0.0,1.2018425739603564,4.169757049493114,0.0,0.0,1.4431217394675446,0.0,1.6508338339026598,0.5696673286011134,0.0,0.0,0.0,0.0,0.0,0.0,1.3291400033087946,0.0,0.0,0.0,1.8196185256253588,0.0,0.0,0.4595420109401751,0.0,0.0,0.0,0.0,0.0,0.0,0.0,0.0],"parents":[2147483647,0,0,1,1,2,2,3,3,4,4,5,5,6,6,7,7,9,9,10,10,11,11,12,12,13,13,14,14,15,15,16,16,19,19,20,20,23,23,25,25,26,26,33,33,37,37,40,40],"right_children":[2,4,6,8,10,12,14,16,-1,18,20,22,24,26,28,30,32,-1,-1,34,36,-1,-1,38,-1,40,42,-1,-1,-1,-1,-1,-1,44,-1,-1,-1,46,-1,-1,48,-1,-1,-1,-1,-1,-1,-1,-1],"split_conditions":[-0.009891881607472897,0.6037182807922363,-0.1484028697013855,1.7283300161361694,-0.6038148999214172,-0.7157167792320251,1.2473373413085938,-1.6081615686416626,0.0,0.5725753903388977,-0.10999754071235657,-0.32663729786872864,1.3888944387435913,0.12239722907543182,-0.32282620668411255,-0.1689944714307785,1.7267463207244873,0.0,0.0,1.0998626947402954,0.8154380321502686,0.0,0.0,-0.4294722378253937,0.0,-0.19226041436195374,1.1856694221496582,0.0,0.0,0.0,0.0,0.0,0.0,-0.17080923914909363,0.0,0.0,0.0,0.6481867432594299,0.0,0.0,-0.315112441778183,0.0,0.0,0.0,0.0,0.0,0.0,0.0,0.0],"split_indices":[3,2,2,0,4,0,0,0,0,7,5,4,0,2,4,9,7,0,0,4,0,0,0,4,0,5,5,0,0,0,0,0,0,6,0,0,0,3,0,0,6,0,0,0,0,0,0,0,0],"split_type":[0,0,0,0,0,0,0,0,0,0,0,0,0,0,0,0,0,0,0,0,0,0,0,0,0,0,0,0,0,0,0,0,0,0,0,0,0,0,0,0,0,0,0,0,0,0,0,0,0],"sum_hessian":[78.93766223078194,39.371420210557595,39.566242020224344,25.48947327559356,13.881946934963999,14.731515555914353,24.83472646430997,23.916386072713347,1.5730872028802152,3.883672517607426,9.998274417356576,2.8360753586336473,11.895440197280706,22.053273376718625,2.7814530875913537,2.050824781458193,21.86556129125516,2.7692927407610806,1.1143797768463453,4.817208357907885,5.181066059448686,1.6897785333598105,1.1462968252738368,10.801595518238774,1.0938446790419336,4.957391154337068,17.095882222381547,1.5776929665402324,1.2037601210511215,1.0433045121767264,1.0075202692814664,20.738016585258357,1.1275447059967973,3.6635694229411486,1.1536389349667362,3.3924110042830264,1.7886550551656604,3.475642257507375,7.3259532607313975,2.002154676433455,2.9552364779036138,15.917730589169638,1.1781516332119117,1.428715126847837,2.234854296093311,1.775613749521454,1.7000285079859214,1.7243166699842685,1.2309198079193453],"tree_param":{"num_nodes":"49","num_feature":"10","num_deleted":"0","size_leaf_vector":"1"}},{"base_weights":[-0.0002292377836269879,-0.05045961008727841,0.04115253518343051,-0.05949314152887088,0.06661934327209278,0.00841742184017564,0.07447851624842518,-0.06775346074645423,0.033192122303166004,0.026414527195471132,-0.0498984369161409,0.12150682415114547,0.04831483429859465,-0.07948826029063542,0.0011039269838250634,0.0010486370276123905,0.04492865068084242,-0.015815819205785932,0.048680611636950415,-0.08676195141849158,0.01732073947568459,-0.007613971358247794,0.0778923450633077,-0.033642383552979736,-0.08808900329806783,-0.05555149654346739,0.05859783701620555,-0.03876578035406618,0.04476744479849261,0.06745056346336052,-0.04147143314421542,0.028477102488250347,-0.04082711592134161,0.0891933067693993,-0.0071018643666121125,-0.07379095919799693,0.012660618439159266,-0.10283462874967988,-0.0421970473017444,0.0024514846562887498,0.07756991629712734,-0.06367443290845069,0.009936901505349623,-0.014372760367915936,0.08221648440083226,-0.018635974465179405,0.061487192194937514,-0.05714934993246628,-0.002340897180791602,0.010823872016436238,0.10232135602959161,0.05096591365766054,-0.047874529358409704,-0.06559167009717741,0.012784938427812571,0.0425612183953725,-0.02775687236921108,0.09799349395309231,0.007616896914964805,0.028089142347945517,0.11420947224924108,0.0028518581731742107,0.06609380869682506,-0.012371027328912189,-0.07768257989673767,-0.019120366179559256,0.03649923098620025,0.01880701175812148,0.10555705896878176,-0.017879303152160787,0.02803080861960478,0.024474379112191722,0.12608504660844122],"categories":[],"categories_nodes":[],"categories_segments":[],"categories_sizes":[],"default_left":[1,1,1,1,0,1,1,1,1,1,1,0,1,1,1,0,0,1,1,0,0,1,1,1,1,0,1,1,0,1,0,1,1,1,0,0,1,0,1,0,0,0,1,0,1,0,0,0,0,0,1,1,0,1,1,0,0,1,1,0,1,0,0,0,0,0,0,0,0,0,0,0,0],"id":8,"left_children":[1,3,5,7,-1,9,11,13,15,17,19,-1,21,23,25,-1,-1,27,29,-1,-1,31,33,35,37,-1,39,41,-1,43,-1,45,47,49,-1,-1,51,-1,53,-1,-1,-1,55,-1,57,-1,-1,-1,-1,-1,59,61,-1,63,65,-1,-1,67,69,-1,71,-1,-1,-1,-1,-1,-1,-1,-1,-1,-1,-1,-1],"loss_changes":[17.133001827598857,4.730015678738798,4.805522826168571,3.1766915300018947,0.0,2.8933335357441843,1.5503818123669433,2.7131798939808167,0.15117154611925743,2.0773878734034934,1.9363458430930478,0.0,3.0213950524867057,0.532276070687729,2.875852601205839,0.0,0.0,1.538824507016831,2.9088073798160803,0.0,0.0,1.1785154703165304,1.2462444842095541,1.62620650084519,0.6742006854143767,0.0,0.4267523102271926,1.0106954124532637,0.0,1.7167146866516125,0.0,1.0005946699454937,0.28303478072529253,0.8521296295310954,0.0,0.0,1.7176238320078034,0.0,1.3167839408496267,0.0,0.0,0.0,0.7522962820242641,0.0,1.107389951949303,0.0,0.0,0.0,0.0,0.0,0.12628413850439024,0.26920316243488074,0.0,0.23204762823067693,0.4679631344364601,0.0,0.0,0.12072168914483505,0.31011604103070445,0.0,0.1125944967419148,0.0,0.0,0.0,0.0,0.0,0.0,0.0,0.0,0.0,0.0,0.0,0.0],"parents":[2147483647,0,0,1,1,2,2,3,3,5,5,6,6,7,7,8,8,9,9,10,10,12,12,13,13,14,14,17,17,18,18,21,21,22,22,23,23,24,24,26,26,27,27,29,29,31,31,32,32,33,33,36,36,38,38,42,42,44,44,50,50,51,51,53,53,54,54,57,57,58,58,60,60],"right_children":[2,4,6,8,-1,10,12,14,16,18,20,-1,22,24,26,-1,-1,28,30,-1,-1,32,34,36,38,-1,40,42,-1,44,-1,46,48,50,-1,-1,52,-1,54,-1,-1,-1,56,-1,58,-1,-1,-1,-1,-1,60,62,-1,64,66,-1,-1,68,70,-1,72,-1,-1,-1,-1,-1,-1,-1,-1,-1,-1,-1,-1],"split_conditions":[-0.052159447222948074,2.024752616882324,0.7122291922569275,1.7495774030685425,0.0,0.5877696871757507,-0.8449172377586365,1.2259266376495361,-0.7215633988380432,-0.5448341369628906,1.1668038368225098,0.0,-0.17080923914909363,-0.6897193789482117,0.050771769136190414,0.0,0.0,0.37215089797973633,1.219465970993042,0.0,0.0,0.06601104885339737,0.949044942855835,-0.05661803483963013,0.48374319076538086,0.0,-0.5946394205093384,0.253510981798172,0.0,-1.0071990489959717,0.0,-0.4073195457458496,-0.4120369255542755,-1.202480673789978,0.0,0.0,0.011727327480912209,0.0,0.45849743485450745,0.0,0.0,0.0,0.9138182401657104,0.0,0.9124550819396973,0.0,0.0,0.0,0.0,0.0,-0.7964714169502258,-1.290262222290039,0.0,-0.17080923914909363,-0.09046044200658798,0.0,0.0,-0.8196109533309937,0.006541520822793245,0.0,-0.651450514793396,0.0,0.0,0.0,0.0,0.0,0.0,0.0,0.0,0.0,0.0,0.0,0.0],"split_indices":[3,1,3,4,0,1,6,7,3,9,1,0,6,6,4,0,0,1,7,0,0,8,5,1,9,0,3,5,0,7,0,8,6,5,0,0,7,0,6,0,0,0,5,0,4,0,0,0,0,0,7,6,0,6,1,0,0,6,7,0,9,0,0,0,0,0,0,0,0,0,0,0,0],"split_type":[0,0,0,0,0,0,0,0,0,0,0,0,0,0,0,0,0,0,0,0,0,0,0,0,0,0,0,0,0,0,0,0,0,0,0,0,0,0,0,0,0,0,0,0,0,0,0,0,0,0,0,0,0,0,0,0,0,0,0,0,0,0,0,0,0,0,0,0,0,0,0,0,0],"sum_hessian":[78.42681524491994,35.22769802210986,43.199117222809974,33.61755692975782,1.6101410923520407,23.056532472643763,20.142584750166208,31.360616719982357,2.2569402097754616,18.455110093050482,4.601422379593293,4.59500960864374,15.547575141522469,26.530467432857083,4.830149287125272,1.1863937427351776,1.0705464670402844,6.571271691195861,11.88383840185462,2.5961883788014406,2.0052340007918525,5.8917945598636035,9.655780581658869,5.742651919288184,20.787815513568916,2.466847477366737,2.3633018097585348,5.288243740202984,1.283027950992877,10.252798600774744,1.6310398010798743,2.9602398426888836,2.9315547171747207,8.435389155086487,1.220391426572385,2.4398179259668176,3.3028339933213666,13.854579111520366,6.933236402048554,1.1672751315302499,1.1960266782282851,3.0920258705894677,2.196217869613514,1.575520494339858,8.677278106434885,1.578395094891279,1.381844747797604,1.377491790423479,1.5540629267512414,1.7338623965585225,6.701526758527963,2.2164612534237795,1.0863727398975866,4.592999658400103,2.340236743648449,1.038834387005988,1.1573834826075255,6.6447905097864295,2.0324875966484557,1.8534885580745981,4.848038200453363,1.09879437698336,1.1176668764404196,1.5993712402961704,2.993628418103932,1.1629877749680282,1.177248968680421,1.1873129974662533,5.457477512320178,1.0141608819247123,1.0183267147237438,1.282081382777244,3.5659568176761187],"tree_param":{"num_nodes":"73","num_feature":"10","num_deleted":"0","size_leaf_vector":"1"}},{"base_weights":[0.0073948150587838145,0.03652593984547036,-0.008661547281172573,0.09911469796726756,-0.07597476674157358,-0.05256613811016875,0.03585314399887445,0.12907861591047584,0.029381734122009864,-0.09893638542714205,0.013598415447397857,-0.06019682123310999,0.041830180836721687,-0.05513552039690224,0.0765421238148622,0.06934707523669359,-0.03246481625629939,0.059824439751620884,-0.043623343565595385,-0.022870368547282798,-0.0716836013389242,0.051804078293955474,-0.10016853950310885,-0.03262442199887557,0.09559456950506257,0.08380525588426074,0.0072778886315857634,-0.05407125741926282,0.008675247417092493,-0.04983864455917278,0.04947694766373417,-0.0011739366814123471,-0.0775365955828735,0.013052044814171155,-0.05434836676696706,0.01729901257484617,0.1051118795663172,-0.005045470426905268,-0.06505721218687908,-0.08188354134346527,-0.003124016554945863,0.050325777306202774,-0.026401043645387718,0.051362357058646974,0.12276025658275667,-0.07547758630718159,-0.010534268606964943,-0.09085136602537816,-0.024315877804864577,0.07117627390884615,0.01139349982419146,-0.045162914563240585,0.0153307131402422,-0.02192696893992121,0.0352443022195766],"categories":[],"categories_nodes":[],"categories_segments":[],"categories_sizes":[],"default_left":[1,1,1,1,1,1,1,0,1,0,1,1,0,1,1,1,1,0,0,1,1,0,0,1,1,0,0,0,0,1,0,0,1,0,0,1,1,0,1,1,0,0,0,1,0,0,0,0,1,0,1,0,0,0,0],"id":9,"left_children":[1,3,5,7,9,11,13,-1,15,-1,17,19,-1,21,23,25,27,-1,-1,29,31,-1,-1,33,35,-1,-1,-1,-1,37,-1,-1,39,-1,-1,41,43,-1,45,47,-1,-1,-1,49,-1,-1,-1,-1,51,-1,53,-1,-1,-1,-1],"loss_changes":[3.9444612431048087,22.53661666190909,11.147610889574771,3.432703007090822,2.697851399554959,2.560526553253129,11.415345960770457,0.0,2.580412755081131,0.0,1.624387802414781,0.8400720036625664,0.0,5.846818952369263,4.901663301501017,0.4050503875706952,0.5156130379556977,0.0,0.0,2.316903470296134,0.8027667567357657,0.0,0.0,0.5930954206046302,0.9791649334694235,0.0,0.0,0.0,0.0,0.4664402186070524,0.0,0.0,0.5419989288185167,0.0,0.0,0.8931358498177596,0.22572714040470387,0.0,0.16243317635176346,0.44851646071939477,0.0,0.0,0.0,0.4169561332246927,0.0,0.0,0.0,0.0,0.5563110728594542,0.0,0.5364170935287055,0.0,0.0,0.0,0.0],"parents":[2147483647,0,0,1,1,2,2,3,3,4,4,5,5,6,6,8,8,10,10,11,11,13,13,14,14,15,15,16,16,19,19,20,20,23,23,24,24,29,29,32,32,35,35,36,36,38,38,39,39,43,43,48,48,50,50],"right_children":[2,4,6,8,10,12,14,-1,16,-1,18,20,-1,22,24,26,28,-1,-1,30,32,-1,-1,34,36,-1,-1,-1,-1,38,-1,-1,40,-1,-1,42,44,-1,46,48,-1,-1,-1,50,-1,-1,-1,-1,52,-1,54,-1,-1,-1,-1],"split_conditions":[-0.3492453396320343,0.18050304055213928,0.02828330732882023,-0.36160513758659363,-0.5546541213989258,1.6822718381881714,0.18828880786895752,0.0,-0.010499333962798119,0.0,-0.8682141304016113,-0.4797954559326172,0.0,-0.5451613664627075,-0.7964027523994446,0.22187352180480957,-1.127397060394287,0.0,0.0,-0.5711968541145325,-1.4413927793502808,0.0,0.0,-1.3233073949813843,0.3200242519378662,0.0,0.0,0.0,0.0,0.43201351165771484,0.0,0.0,1.810497522354126,0.0,0.0,-0.32282620668411255,0.5477278232574463,0.0,-0.48445919156074524,-0.20037871599197388,0.0,0.0,0.0,0.019895106554031372,0.0,0.0,0.0,0.0,0.3457944393157959,0.0,0.8364934921264648,0.0,0.0,0.0,0.0],"split_indices":[0,1,1,1,0,8,0,0,4,0,8,4,0,8,4,8,0,0,0,4,8,0,0,4,0,0,0,0,0,0,0,0,4,0,0,4,1,0,1,1,0,0,0,7,0,0,0,0,4,0,7,0,0,0,0],"split_type":[0,0,0,0,0,0,0,0,0,0,0,0,0,0,0,0,0,0,0,0,0,0,0,0,0,0,0,0,0,0,0,0,0,0,0,0,0,0,0,0,0,0,0,0,0,0,0,0,0,0,0,0,0,0,0],"sum_hessian":[80.97746362996634,27.867545253692086,53.109918376274244,18.05871389454694,9.808831359145154,26.556070924352692,26.55384745192156,11.440642059296735,6.618071835250204,7.641030376691284,2.1678009824538664,25.240321524065042,1.315749400287648,7.985834559396488,18.56801289252506,3.872866495918503,2.7452053393317017,1.1487923676859682,1.0190086147678983,7.347276546588222,17.893044977476823,2.2772794660874407,5.708555093309047,2.547376958446844,16.02063593407822,2.573112622878671,1.2997538730398317,1.3877352243283538,1.3574701150033472,5.805463875354204,1.5418126712340172,1.555495222657158,16.337549754819666,1.078374368221052,1.4690025902257917,2.3471048366445095,13.673531097433715,2.1475617425332882,3.6579021328209147,15.246121543348588,1.0914282114710796,1.1640932080395123,1.1830116286049976,5.313000839409825,8.360530258023893,2.4256584315768954,1.2322437012440202,12.190730270353265,3.0553912729953265,2.508075963082812,2.804924876327014,1.8200793194468676,1.2353119535484585,1.237463754701742,1.5674611216252716],"tree_param":{"num_nodes":"55","num_feature":"10","num_deleted":"0","size_leaf_vector":"1"}},{"base_weights":[-0.0009060188502434995,-0.06426824548299727,0.03705529530462027,-0.08032773690797723,0.040072637969521076,-0.014301744640337575,0.09853394355377164,0.031033214941485095,-0.0934502676538013,-0.04733623226313005,0.08881062800703149,-0.03472787056219099,0.07660840201043433,0.10843081138259965,-0.03057658617189328,-0.0174467916045217,0.05857173525164541,0.006538665989746853,-0.10256723007041596,-0.07587437816909454,-0.015177980944612186,0.12055285266431791,0.003718231861008425,-0.09198457061832725,0.005410661234627724,0.026443054238355718,-0.03570970094684616,0.12679523244701166,0.02479562765424437,-0.04906647274836551,0.05123843148824325,0.08241970894991042,-0.04148841522823501,-0.08006870477095851,0.026222280493473207,0.02584789357477459,0.13206355866144626,0.011806448678348968,0.0958275584660528,-0.06397414715816166,0.013483070607455872,0.005364272534527175,-0.09512467769305792,0.059607275343313185,-0.05344169996920908,-0.002270513052513675,0.0770938987090681],"categories":[],"categories_nodes":[],"categories_segments":[],"categories_sizes":[],"default_left":[1,1,1,1,1,1,1,1,1,0,0,1,0,1,0,0,0,0,0,1,1,1,1,0,0,1,1,1,0,0,0,1,1,1,1,0,0,0,0,0,0,0,0,1,0,0,0],"id":10,"left_children":[1,3,5,7,9,11,13,15,17,-1,-1,19,-1,21,-1,-1,-1,-1,-1,23,25,27,29,-1,-1,31,33,35,-1,-1,-1,37,39,41,43,-1,-1,-1,-1,-1,-1,-1,-1,45,-1,-1,-1],"loss_changes":[18.72258153554287,5.528686401660874,15.660146824671681,4.369157013171048,3.0657584671834135,5.784287736645274,3.5281578039375,0.7697477151262699,2.2941124272440625,0.0,0.0,1.7381620606305233,0.0,2.6096603943441323,0.0,0.0,0.0,0.0,0.0,1.0662086685506011,1.8201349067967854,0.5066728618098892,1.5738886809522503,0.0,0.0,3.5187567142990694,4.165560488794665,0.23983371431420508,0.0,0.0,0.0,0.22408960505848352,0.7532525189903502,1.1873598594868637,2.5511055409465007,0.0,0.0,0.0,0.0,0.0,0.0,0.0,0.0,0.686048988720454,0.0,0.0,0.0],"parents":[2147483647,0,0,1,1,2,2,3,3,4,4,5,5,6,6,7,7,8,8,11,11,13,13,19,19,20,20,21,21,22,22,25,25,26,26,27,27,31,31,32,32,33,33,34,34,43,43],"right_children":[2,4,6,8,10,12,14,16,18,-1,-1,20,-1,22,-1,-1,-1,-1,-1,24,26,28,30,-1,-1,32,34,36,-1,-1,-1,38,40,42,44,-1,-1,-1,-1,-1,-1,-1,-1,46,-1,-1,-1],"split_conditions":[-0.1484028697013855,1.279444932937622,0.1770578920841217,-1.4630290269851685,0.2672897279262543,1.6185702085494995,1.4334218502044678,0.36907440423965454,-1.404447317123413,0.0,0.0,-0.6038148999214172,0.0,1.2929667234420776,0.0,0.0,0.0,0.0,0.0,0.6697325706481934,-0.3192765414714813,0.9509145021438599,-0.8732119798660278,0.0,0.0,-0.6396757960319519,-0.3483056128025055,-0.06280059367418289,0.0,0.0,0.0,-1.124241828918457,0.18828880786895752,-0.8812527656555176,1.2812303304672241,0.0,0.0,0.0,0.0,0.0,0.0,0.0,0.0,-0.7503753900527954,0.0,0.0,0.0],"split_indices":[2,1,3,1,0,2,1,5,4,0,0,4,0,0,0,0,0,0,0,9,6,1,1,0,0,3,3,2,0,0,0,3,0,5,4,0,0,0,0,0,0,0,0,1,0,0,0],"split_type":[0,0,0,0,0,0,0,0,0,0,0,0,0,0,0,0,0,0,0,0,0,0,0,0,0,0,0,0,0,0,0,0,0,0,0,0,0,0,0,0,0,0,0,0,0,0,0],"sum_hessian":[73.85824717326778,27.15205410144866,46.706193071819165,23.929290988638435,3.2227631128102234,26.284125790370155,20.422067281449014,2.2347662720627577,21.694524716575682,1.174279830742451,2.0484832820677727,22.47118773205804,3.812938058312114,19.26561757576493,1.1564497056840861,1.0750749476843964,1.1596913243783613,1.8600714229886044,19.834453293587075,5.381872360997948,17.089315371060092,16.99557847234569,2.270039103419239,4.2719405928257315,1.1099317681722167,5.455114077339584,11.634201293720514,15.346857669294533,1.648720803051157,1.0446165709573343,1.2254225324619048,2.756860687551058,2.6982533897885252,6.43757031917676,5.196630974543754,1.3471147785028104,13.999742890791728,1.040121581891147,1.716739105659911,1.6824987923949377,1.0157545973935875,1.157413675049548,5.280156644127211,4.016822951390889,1.1798080231528647,1.268489093156841,2.7483338582340475],"tree_param":{"num_nodes":"47","num_feature":"10","num_deleted":"0","size_leaf_vector":"1"}},{"base_weights":[0.00632311656915149,-0.0630848980547105,0.04452049172975422,-0.073012788097523,0.06274997960356381,-0.007785898475687185,0.08559570568198596,-0.09227170168946865,0.01664519247691046,-0.029151624850743366,0.07457275121122674,0.10416386299105895,0.0379529758277691,0.006991153974830817,-0.09837921068140805,0.051528352249214676,-0.05021759002113936,0.042591093139491394,-0.0410767739025544,-0.0026217309125955678,0.09622472418233595,0.021064286883614145,0.11237341551223697,0.0693745725601133,-0.02987817561218811,-0.025016915364873434,0.09054482372771333,-0.04971650267407921,0.03376989016829807,-0.01537231058364508,0.044258628772710217,-0.005367033641835831,0.08180716853442618,-0.07369251787898722,0.03964296904735405,-0.07615744264573458,-0.024842505908570886,0.002275787823578538,0.09910085436259658,0.03810181215294492,-0.04526564997481648,-0.008170960833781,-0.07842067434404293],"categories":[],"categories_nodes":[],"categories_segments":[],"categories_sizes":[],"default_left":[1,1,1,1,0,1,1,1,1,1,1,1,1,0,0,1,0,0,1,0,0,1,0,1,1,0,0,1,0,0,0,0,1,0,0,0,1,0,0,0,1,0,0],"id":11,"left_children":[1,3,5,7,-1,9,11,13,15,17,19,21,23,-1,-1,25,-1,-1,27,-1,-1,29,-1,31,33,-1,-1,35,-1,-1,-1,-1,37,-1,-1,-1,39,-1,-1,-1,41,-1,-1],"loss_changes":[21.06996764635348,4.450071037495947,11.105226979155804,4.993896391384215,0.0,4.710073905939592,1.7545937398495113,1.5106300832317388,2.032113225606258,2.1233939541765894,0.9808920612833578,0.8607582775857381,2.8049175973027136,0.0,0.0,2.0223000737465497,0.0,0.0,1.5510421006629844,0.0,0.0,0.4926885741985282,0.0,0.8559823532048911,2.0915889718744802,0.0,0.0,0.7829085893642418,0.0,0.0,0.0,0.0,0.946669795799596,0.0,0.0,0.0,1.8961020705271026,0.0,0.0,0.0,1.104731211582901,0.0,0.0],"parents":[2147483647,0,0,1,1,2,2,3,3,5,5,6,6,7,7,8,8,9,9,10,10,11,11,12,12,15,15,18,18,21,21,23,23,24,24,27,27,32,32,36,36,40,40],"right_children":[2,4,6,8,-1,10,12,14,16,18,20,22,24,-1,-1,26,-1,-1,28,-1,-1,30,-1,32,34,-1,-1,36,-1,-1,-1,-1,38,-1,-1,-1,40,-1,-1,-1,42,-1,-1],"split_conditions":[-0.17222218215465546,1.7840312719345093,-0.052159447222948074,0.983327329158783,0.0,1.6185702085494995,0.23885583877563477,-1.7097482681274414,0.5399537682533264,-1.3291186094284058,-0.8164986371994019,-1.8504011631011963,0.23473793268203735,0.0,0.0,-0.9392158389091492,0.0,0.0,1.7267463207244873,0.0,0.0,-0.2343844473361969,0.0,0.477989137172699,0.6290139555931091,0.0,0.0,-0.09975279867649078,0.0,0.0,0.0,0.0,-0.9041435122489929,0.0,0.0,0.0,-0.6538296937942505,0.0,0.0,0.0,0.22914493083953857,0.0,0.0],"split_indices":[2,1,3,3,0,2,7,1,5,8,5,7,1,0,0,2,0,0,7,0,0,9,0,7,2,0,0,8,0,0,0,0,1,0,0,0,1,0,0,0,7,0,0],"split_type":[0,0,0,0,0,0,0,0,0,0,0,0,0,0,0,0,0,0,0,0,0,0,0,0,0,0,0,0,0,0,0,0,0,0,0,0,0,0,0,0,0,0,0],"sum_hessian":[75.35449144260855,26.286496796742224,49.06799464586629,25.14240351316037,1.1440932835818494,22.29622234507233,26.771772300794,20.648676229345295,4.49372728381507,18.729452891295573,3.566769453776755,17.556599812729214,9.215172488064802,1.1800726530865915,19.468603576258708,3.254498047706736,1.239229236108334,1.9364618095354584,16.792991081760114,1.166334997179792,2.4004344565969626,2.219706946167857,15.336892866561357,6.266717343314005,2.9484551447507954,1.3410852389324375,1.9134128087742976,15.657158496508421,1.1358325852516935,1.125736155400111,1.093970790767746,1.0558477987959178,5.210869544518088,1.7350014151286903,1.2134537296221053,5.590754588828643,10.066403907679776,1.3349238241513515,3.875945720366736,2.041927110618811,8.024476797060965,4.963773896557248,3.0607029005037143],"tree_param":{"num_nodes":"43","num_feature":"10","num_deleted":"0","size_leaf_vector":"1"}},{"base_weights":[0.006328607999163999,-0.0528277484595017,0.03978917224413764,-0.06811848822397458,0.04106265511861653,-0.01588337001342917,0.08733844805990111,-0.09292052157917938,-0.0213073827261763,-0.027907988032285877,0.08475581940074053,-0.03503270501002808,0.057774290350917815,0.04563604653045338,0.11125928153184864,-0.026040448870631318,-0.10108614890175363,0.06369900849474422,-0.05884433340196187,0.009920867182440233,-0.051088301034199216,-0.008528605630522932,0.08783990006820308,0.008950871174367984,0.07459077251140915,0.02511035418923629,0.12440432191535307,-0.048800975878767416,0.016388490193390965,0.004209522037923743,0.07906241229080664,-0.07245333615158557,0.01203584392229601,-0.03777131193207429,0.03840102322023782,0.008587986565942767,-0.06326084901629646,-0.019932772256354245,0.06593266167045737,0.0974017512923607,-0.012366497297423604,0.0631337498717408,-0.034959893729137485,-0.08519624119969316,-0.007911420611525947,0.07216127188260656,-0.01585194359749155,0.06186244069564596,-0.048128020891236564,-0.07936220884365383,-0.0012563030427219651,0.028015854008384262,-0.039530950635193775,0.019145005372355146,-0.09936810574761307,-0.05783780564928708,0.06279847625039753,-0.05921273349608424,0.005473250117578512],"categories":[],"categories_nodes":[],"categories_segments":[],"categories_sizes":[],"default_left":[1,1,1,1,1,1,1,1,1,0,0,1,1,1,1,1,0,1,1,1,1,0,0,1,1,1,0,0,0,0,0,1,0,0,1,1,1,1,0,0,0,0,0,0,0,0,0,0,0,1,1,0,1,0,0,0,0,0,0],"id":12,"left_children":[1,3,5,7,9,11,13,15,17,-1,-1,19,21,23,25,27,-1,29,31,33,35,-1,-1,37,39,41,-1,-1,-1,-1,-1,43,-1,-1,45,47,49,51,-1,-1,-1,-1,-1,-1,-1,-1,-1,-1,-1,53,55,-1,57,-1,-1,-1,-1,-1,-1],"loss_changes":[15.173389307590341,4.548568421764405,13.181492003851336,2.4655640128509084,2.021809574120881,3.8107578172374135,1.6379087676042552,0.3208821822987815,4.301482896374313,0.0,0.0,1.574464063743997,1.2935418696048142,1.2565446998027285,1.131895566769554,0.5831508132411057,0.0,0.33284076766227044,1.0195126239418446,1.247133233985455,1.2247094179564089,0.0,0.0,1.586995717647413,1.6375834131589868,1.482825704696661,0.0,0.0,0.0,0.0,0.0,0.4931240335555911,0.0,0.0,1.2184413271233234,1.9140150972904304,1.2779262964858003,0.8675287009046017,0.0,0.0,0.0,0.0,0.0,0.0,0.0,0.0,0.0,0.0,0.0,2.4079481559201996,2.4342371452893,0.0,0.570558006512497,0.0,0.0,0.0,0.0,0.0,0.0],"parents":[2147483647,0,0,1,1,2,2,3,3,4,4,5,5,6,6,7,7,8,8,11,11,12,12,13,13,14,14,15,15,17,17,18,18,19,19,20,20,23,23,24,24,25,25,31,31,34,34,35,35,36,36,37,37,49,49,50,50,52,52],"right_children":[2,4,6,8,10,12,14,16,18,-1,-1,20,22,24,26,28,-1,30,32,34,36,-1,-1,38,40,42,-1,-1,-1,-1,-1,44,-1,-1,46,48,50,52,-1,-1,-1,-1,-1,-1,-1,-1,-1,-1,-1,54,56,-1,58,-1,-1,-1,-1,-1,-1],"split_conditions":[-0.1484028697013855,1.279444932937622,-0.052159447222948074,0.43477585911750793,0.5101544260978699,1.5094200372695923,0.41393783688545227,-0.9845097064971924,-0.7157167792320251,0.0,0.0,-0.6897193789482117,0.037506505846977234,-0.05015110597014427,-0.9041435122489929,0.22050009667873383,0.0,-0.6326221823692322,0.521591305732727,-0.5271748900413513,-1.0964069366455078,0.0,0.0,1.4023752212524414,0.4041505455970764,0.19255658984184265,0.0,0.0,0.0,0.0,0.0,-0.3130532205104828,0.0,0.0,-0.06568357348442078,-0.2710299491882324,0.7003161311149597,0.07054495811462402,0.0,0.0,0.0,0.0,0.0,0.0,0.0,0.0,0.0,0.0,0.0,-0.5268164277076721,0.02879820205271244,0.0,0.6481867432594299,0.0,0.0,0.0,0.0,0.0,0.0],"split_indices":[2,1,3,3,0,2,2,7,0,0,0,6,5,9,1,4,0,7,1,4,0,0,0,3,1,0,0,0,0,0,0,2,0,0,5,1,1,3,0,0,0,0,0,0,0,0,0,0,0,0,0,0,3,0,0,0,0,0,0],"split_type":[0,0,0,0,0,0,0,0,0,0,0,0,0,0,0,0,0,0,0,0,0,0,0,0,0,0,0,0,0,0,0,0,0,0,0,0,0,0,0,0,0,0,0,0,0,0,0,0,0,0,0,0,0,0,0,0,0,0,0],"sum_hessian":[72.5324698115991,25.786249201596704,46.746220610002375,22.646998367231514,3.139250834365192,22.14726296634434,24.59895764365805,13.515846576715001,9.131151790516519,1.4976784361623348,1.6415723982028574,18.40987823858039,3.7373847277639545,11.086642244424038,13.512315399234007,2.3822486619062238,11.133597914808778,2.370030670296409,6.761121120220112,5.045979719689493,13.36389851889089,1.6129829723392004,2.124401755424754,6.04543691358208,5.041205330841962,2.559377236732366,10.952938162501638,1.3550074115364334,1.0272412503697899,1.009414460944994,1.3606162093514151,5.634841595586798,1.1262795246333128,1.6426958388706758,3.4032838808188184,2.3638771234779865,11.000021395412904,4.874812098466879,1.1706248151152017,3.803290063494261,1.2379152673477014,1.5048418613242334,1.0545353754081326,4.171256613799637,1.4635849817871613,1.690901037029768,1.71238284378905,1.1253412732369283,1.2385358502410582,8.287926501126378,2.712094894286526,1.1651489100820407,3.7096631883848374,1.4135920035273417,6.874334497599039,1.5431227175749953,1.1689721767115306,2.1416287366983173,1.5680344516865206],"tree_param":{"num_nodes":"59","num_feature":"10","num_deleted":"0","size_leaf_vector":"1"}},{"base_weights":[0.006430517934228943,-0.02407296921119978,0.052851157124659515,-0.04892661052572039,0.007686886987217323,0.05873006303133138,-0.03606834273814193,-0.06408464487569795,0.042821211253354974,0.04886167899378047,-0.014546742611465028,0.07864637610562618,0.013481036029085304,-0.07663050512139763,-0.0021016197374173337,-0.007708572989961655,0.06888603836635758,0.11050999244681109,-0.04553633706129076,-0.07358388304520835,0.026415733089664648,0.09173524577352447,0.02130007247209503,-0.049093637189631334,0.05184408333342547,-0.08703084513598089,-0.016300294116718066,-0.0323023753544413,0.036574830736247135,-0.003542389582079537,-0.05579958984615396,-0.02990714788283464,0.07204267495788517,0.029948814526660553,0.09928678485995267,-0.03811336517332455,0.05326099381325766,-0.005723290796222273,-0.0643914890388187,-0.01665229424234454,0.07198604063918171,-0.03738404595114733,0.02260922273868793,0.0068994577255474775,-0.04995600984256428,0.019888520903953957,-0.06464339024063268,0.00799434022386077,0.10014000913043862,0.045541322813820846,-0.005882258437096796,-0.010421991437740943,0.07718074793930874,0.00924292700590043,0.09132378454291531,-0.014305303248785229,0.04140081282437557,-0.014449292822242303,0.02446911696538133],"categories":[],"categories_nodes":[],"categories_segments":[],"categories_sizes":[],"default_left":[1,1,1,1,1,1,0,1,1,1,1,1,1,1,1,0,0,0,1,0,1,1,1,1,1,0,1,1,0,0,0,1,1,1,0,0,1,0,0,0,1,0,0,0,0,1,0,1,0,0,0,0,0,0,0,0,0,0,0],"id":13,"left_children":[1,3,5,7,9,11,-1,13,15,17,19,21,23,25,27,-1,-1,-1,29,-1,31,33,35,37,39,-1,41,43,-1,-1,-1,45,47,49,-1,-1,51,-1,-1,-1,53,-1,-1,-1,-1,55,-1,57,-1,-1,-1,-1,-1,-1,-1,-1,-1,-1,-1],"loss_changes":[10.430017204306543,3.6067463496265444,1.946006662570344,4.077131276001821,2.0984556501927867,2.3182253280759895,0.0,1.7232296807400402,0.7378761344239853,5.6340062725729725,4.11720793333843,1.041504002015646,3.1484092914694575,0.8907297847429323,0.9203569252101647,0.0,0.0,0.0,0.15690870953372626,0.0,3.148226171233756,0.10196276797980808,1.5739733602455623,0.2716985696667362,1.3143300449194397,0.0,0.5967146314482056,0.3700180345033527,0.0,0.0,0.0,1.3201360747431812,0.996716833796774,0.30443191714794143,0.0,0.0,0.8971692774773179,0.0,0.0,0.0,0.6070475288534971,0.0,0.0,0.0,0.0,0.41671620592627795,0.0,0.22355556953999556,0.0,0.0,0.0,0.0,0.0,0.0,0.0,0.0,0.0,0.0,0.0],"parents":[2147483647,0,0,1,1,2,2,3,3,4,4,5,5,7,7,8,8,9,9,10,10,11,11,12,12,13,13,14,14,18,18,20,20,21,21,22,22,23,23,24,24,26,26,27,27,31,31,32,32,33,33,36,36,40,40,45,45,47,47],"right_children":[2,4,6,8,10,12,-1,14,16,18,20,22,24,26,28,-1,-1,-1,30,-1,32,34,36,38,40,-1,42,44,-1,-1,-1,46,48,50,-1,-1,52,-1,-1,-1,54,-1,-1,-1,-1,56,-1,58,-1,-1,-1,-1,-1,-1,-1,-1,-1,-1,-1],"split_conditions":[0.3843546211719513,0.050771769136190414,1.6702117919921875,1.610186219215393,-0.3957851529121399,0.43201351165771484,0.0,1.1458795070648193,0.37037041783332825,-0.36160513758659363,-0.28665199875831604,0.26313045620918274,-0.48445919156074524,-0.052159447222948074,0.29511532187461853,0.0,0.0,0.0,0.8512707352638245,0.0,0.5471746921539307,-0.6677531003952026,0.7185022234916687,-0.06167515739798546,-0.35706576704978943,0.0,0.4523293673992157,-0.30265048146247864,0.0,0.0,0.0,-0.2790457010269165,-0.3014085590839386,-1.2274971008300781,0.0,0.0,0.5136273503303528,0.0,0.0,0.0,-0.2896603047847748,0.0,0.0,0.0,0.0,-0.6611480116844177,0.0,-0.006683825049549341,0.0,0.0,0.0,0.0,0.0,0.0,0.0,0.0,0.0,0.0,0.0],"split_indices":[3,4,1,0,0,0,0,8,1,1,1,1,1,3,0,0,0,0,4,0,0,8,3,6,4,0,0,1,0,0,0,8,3,8,0,0,1,0,0,0,9,0,0,0,0,3,0,5,0,0,0,0,0,0,0,0,0,0,0],"split_type":[0,0,0,0,0,0,0,0,0,0,0,0,0,0,0,0,0,0,0,0,0,0,0,0,0,0,0,0,0,0,0,0,0,0,0,0,0,0,0,0,0,0,0,0,0,0,0,0,0,0,0,0,0,0,0,0,0,0,0],"sum_hessian":[69.86173982620802,42.73980237737167,27.12193744883634,23.370336172873337,19.369466204498362,26.076894087597562,1.0450433612387802,20.57421241037959,2.796123762493746,5.9518503815524015,13.417615822945955,17.082077453906873,8.994816633690702,16.71777269507459,3.856439715304993,1.4308185492607517,1.3653052132329946,3.393985086103471,2.5578652954489294,4.843778067838426,8.573837755107528,12.931268191609151,4.150809262297723,3.2060105435771096,5.7888060901135905,13.504567293691549,3.213205401383045,2.350582421693208,1.5058572936117844,1.0307345701360964,1.527130725312833,4.14554506358408,4.42829269152345,2.490001994322902,10.441266197286252,1.3172054174171235,2.8336038448805994,1.5525849155404947,1.6534256280366153,1.3941734285776706,4.394632661535921,2.1348263618650347,1.078379039518011,1.1081551014676194,1.2424273202255884,2.054799170983152,2.090745892600928,2.133649586501663,2.2946431050217866,1.3573333816985504,1.132668612624351,1.0818683674819687,1.7517354773986311,1.7317511907685945,2.662881470767326,1.0522617816384532,1.002537389344699,1.007296254773383,1.1263533317282806],"tree_param":{"num_nodes":"59","num_feature":"10","num_deleted":"0","size_leaf_vector":"1"}},{"base_weights":[0.006282688565359339,-0.020582728444277273,0.06291533227350815,-0.056774984862298296,0.02568225083713434,0.004840681615068713,0.10147019960633548,-0.07591568150096434,0.005618295085620929,-0.025768956313044412,0.05587643809979398,-0.054098996457165864,0.03314838330622051,0.005240049560894655,0.1096756143270865,0.027671040950267723,-0.09768693828832392,-0.06349159244823008,0.08665553122459636,-0.052171275284493335,0.05573065502732525,0.07298140816674116,-0.034025177842540937,-0.021197598188892438,0.07871270940907078,0.01675089695648648,0.12117271275773225,0.09078066233365925,-0.05331345507212712,-0.10105264831603432,-0.014584464763821834,0.03418234974962014,-0.07520997537185947,0.0007783135041602847,0.0838103437148209,0.01733344407411388,-0.04721471417235771,0.09302564897240374,0.008484510214047336,0.10775294319405532,0.038204815000731814,-0.05245735898409727,0.0722737979013655,0.0955470072395392,-0.012053549121907156],"categories":[],"categories_nodes":[],"categories_segments":[],"categories_sizes":[],"default_left":[1,1,1,1,1,1,1,1,1,1,1,0,1,0,1,1,1,0,0,1,0,1,0,1,1,0,0,0,0,0,0,0,0,0,1,0,0,0,0,0,1,0,1,0,0],"id":14,"left_children":[1,3,5,7,9,11,13,15,17,19,21,-1,23,-1,25,27,29,-1,-1,31,-1,33,-1,35,37,-1,-1,-1,-1,-1,-1,-1,-1,-1,39,-1,-1,-1,-1,-1,41,-1,43,-1,-1],"loss_changes":[10.624421829855832,8.281183492765365,4.920210804728141,3.356927405211861,3.7554824248975303,2.2011212930363655,0.940781427179255,5.2994513224834385,5.745026585957413,2.6522174561034126,2.756689140818329,0.0,2.4880750258314097,0.0,0.8995239711854719,3.637531140480865,0.20529124190266757,0.0,0.0,2.1657414404563857,0.0,1.0021198660286048,0.0,0.7193863840080175,0.3604890411727846,0.0,0.0,0.0,0.0,0.0,0.0,0.0,0.0,0.0,0.4074218460564252,0.0,0.0,0.0,0.0,0.0,2.913909166658496,0.0,1.3909764825847044,0.0,0.0],"parents":[2147483647,0,0,1,1,2,2,3,3,4,4,5,5,6,6,7,7,8,8,9,9,10,10,12,12,14,14,15,15,16,16,19,19,21,21,23,23,24,24,34,34,40,40,42,42],"right_children":[2,4,6,8,10,12,14,16,18,20,22,-1,24,-1,26,28,30,-1,-1,32,-1,34,-1,36,38,-1,-1,-1,-1,-1,-1,-1,-1,-1,40,-1,-1,-1,-1,-1,42,-1,44,-1,-1],"split_conditions":[0.6607138514518738,0.3465544879436493,-0.15721407532691956,0.8299471139907837,-0.38926801085472107,-0.6666316390037537,-1.127397060394287,-0.9804947972297668,0.7003161311149597,0.8353636264801025,0.7168614268302917,0.0,-0.10999754071235657,0.0,0.7917404770851135,-0.4731917083263397,0.5791783332824707,0.0,0.0,-1.245365023612976,0.0,-0.8732119798660278,0.0,-0.42857247591018677,0.7145134806632996,0.0,0.0,0.0,0.0,0.0,0.0,0.0,0.0,0.0,0.03443177789449692,0.0,0.0,0.0,0.0,0.0,0.3207862377166748,0.0,0.2956216037273407,0.0,0.0],"split_indices":[2,3,3,0,2,4,0,1,1,1,1,0,5,0,2,0,2,0,0,0,0,1,0,1,5,0,0,0,0,0,0,0,0,0,4,0,0,0,0,0,4,0,6,0,0],"split_type":[0,0,0,0,0,0,0,0,0,0,0,0,0,0,0,0,0,0,0,0,0,0,0,0,0,0,0,0,0,0,0,0,0,0,0,0,0,0,0,0,0,0,0,0,0],"sum_hessian":[66.12818467889916,45.714998883817685,20.41318579508144,25.394781274024865,20.32021760979284,9.042979683956279,11.370206111125166,19.10147105957005,6.293310214454825,7.623245892844134,12.696971716948706,2.342802526733655,6.700177157222623,1.150835785056229,10.219370326068937,3.2232767756997274,15.878194283870323,3.630330971333431,2.6629792431213963,6.301539254818536,1.3217066380255984,10.983610769313282,1.7133609476354268,3.5434032911904745,3.1567738660321476,1.6662140566820467,8.55315626938689,1.6755931258336565,1.5476836498660713,14.844961670023718,1.0332326138466057,1.1234058104126587,5.178133444405878,1.712053900764627,9.271556868548652,1.6972827916091116,1.8461204995813638,2.083005349927143,1.0737685161050052,4.292558718519649,4.978998150029002,1.0651119895463856,3.9138861604826167,2.858798564189262,1.0550875962933546],"tree_param":{"num_nodes":"45","num_feature":"10","num_deleted":"0","size_leaf_vector":"1"}},{"base_weights":[0.006797614951727298,-0.03129292183857736,0.052901415666319465,-0.0608537088222611,0.037456174676971175,0.01113057816269578,0.0869623259276155,-0.07009624458620645,0.057341033057712903,-0.033647847560813814,0.06048788228074228,-0.055066869848179247,0.030805969371336034,-0.01691547807832448,0.09944067958643177,-0.08088960398118668,-0.003134016352952574,0.010973364507022517,-0.05345740904160578,-0.014094251942299761,0.07197359790171452,0.08138911691074958,-0.0014255042476732079,0.0006571191129444084,0.10688430776438501,-0.006467013018758465,-0.09136781657186643,-0.03302660268095926,0.04436078147000879,0.08393342660357354,-0.0027216840754966257,0.011531569169609835,0.09810532814078661,-0.038627250310529444,0.0715221581882152,0.11340856058117806,0.006790928744831075,0.0546505349507391,-0.05464562531864697,0.0167818694266474,-0.05550432024339517,0.028230385714350933,-0.05869388225475689,0.12015752507626508,0.02187240685285931,0.0038825077005455334,-0.07071158021351655],"categories":[],"categories_nodes":[],"categories_segments":[],"categories_sizes":[],"default_left":[1,1,1,1,1,1,1,1,0,1,1,0,1,0,1,1,1,0,0,0,1,1,1,0,1,1,0,1,0,0,0,0,0,1,0,1,0,0,0,0,0,0,1,0,0,0,0],"id":15,"left_children":[1,3,5,7,9,11,13,15,-1,17,19,-1,21,-1,23,25,27,-1,-1,-1,29,31,33,-1,35,37,-1,39,-1,-1,-1,-1,-1,41,-1,43,-1,-1,-1,-1,-1,-1,45,-1,-1,-1,-1],"loss_changes":[12.424664371958857,8.374942673518639,4.344833649973674,3.8639264554934893,2.5286011984263204,2.504149170462633,2.5759661354045544,1.8920431071848665,0.0,0.5110854259290815,1.1023534565958402,0.0,2.3213048382307306,0.0,1.1415154113393235,1.6807143302066994,1.118151765855353,0.0,0.0,0.0,0.8877883239946032,0.4183886347119179,3.4224048718509326,0.0,0.7995155974760273,2.0693692695657577,0.0,0.7139921864526511,0.0,0.0,0.0,0.0,0.0,1.445212938899495,0.0,0.31336299388256705,0.0,0.0,0.0,0.0,0.0,0.0,0.5839658818673783,0.0,0.0,0.0,0.0],"parents":[2147483647,0,0,1,1,2,2,3,3,4,4,5,5,6,6,7,7,9,9,10,10,12,12,14,14,15,15,16,16,20,20,21,21,22,22,24,24,25,25,27,27,33,33,35,35,42,42],"right_children":[2,4,6,8,10,12,14,16,-1,18,20,-1,22,-1,24,26,28,-1,-1,-1,30,32,34,-1,36,38,-1,40,-1,-1,-1,-1,-1,42,-1,44,-1,-1,-1,-1,-1,-1,46,-1,-1,-1,-1],"split_conditions":[0.3259342908859253,0.7122291922569275,-0.052159447222948074,1.8866547346115112,-0.9147043228149414,-0.9323963522911072,-1.1254353523254395,0.964989960193634,0.0,-0.6538296937942505,-1.3037058115005493,0.0,-0.4120369255542755,0.0,-1.6040858030319214,-1.136541724205017,-0.1810334026813507,0.0,0.0,0.0,0.623784601688385,-0.36499541997909546,1.6185702085494995,0.0,1.1663082838058472,-0.3838200867176056,0.0,-0.4043668210506439,0.0,0.0,0.0,0.0,0.0,0.3842437267303467,0.0,1.4334218502044678,0.0,0.0,0.0,0.0,0.0,0.0,-1.4929720163345337,0.0,0.0,0.0,0.0],"split_indices":[2,3,3,1,2,4,1,9,0,1,7,0,6,0,0,0,2,0,0,0,1,7,2,0,8,1,0,8,0,0,0,0,0,2,0,1,0,0,0,0,0,0,3,0,0,0,0],"split_type":[0,0,0,0,0,0,0,0,0,0,0,0,0,0,0,0,0,0,0,0,0,0,0,0,0,0,0,0,0,0,0,0,0,0,0,0,0,0,0,0,0,0,0,0,0,0,0],"sum_hessian":[66.86537713575305,36.96649765483118,29.89887948092184,26.011668404838797,10.954829249992398,14.621396188812241,15.277483292109604,24.87999968442686,1.131668720411939,2.454712409516691,8.500116840475709,2.525812989574853,12.09558319923739,1.562131255831587,13.715352036278016,21.068138197970107,3.8118614864567606,1.0289985156159003,1.4257138939007907,1.0737209341185017,7.426395906357205,3.520431297410081,8.57515190182731,1.1135894394958958,12.60176259678212,2.999345960109087,18.068792237861032,2.7133619157196227,1.0984995707371386,6.188214899788381,1.2381810065688237,1.3323186535776463,2.1881126438324348,6.302150142999583,2.2730017588277245,11.580848453716769,1.0209141430653528,1.2037063382589988,1.7956396218500885,1.0013237575280551,1.7120381581915678,1.2670272917998853,5.035122851199697,10.20320878475653,1.3776396689602355,1.029317044748269,4.00580580645143],"tree_param":{"num_nodes":"47","num_feature":"10","num_deleted":"0","size_leaf_vector":"1"}},{"base_weights":[0.004858338510404483,-0.0685803491595398,0.03159012453073764,0.035589978849764996,-0.07931937381023003,-0.005442030210284146,0.05899197933664799,-0.08608413400265062,0.006881140123579835,-0.03670561109787031,0.0626270074484332,0.0684596984869915,-0.0121203416719289,-0.08976233497639634,-0.010490767926494365,-0.04752866132197017,0.027205161456754015,-4.0516447759146265E-05,0.07229038858800048,0.07869382650300612,0.011476133340455493,-0.05140151517845353,0.043195064378697,-0.09740109470404185,-0.023186774043546476,0.00451561766655054,-0.06935456740927763,0.02036433826991017,0.09149099318178629,0.03065962920548856,0.0933489779796931,-0.0633948943667359,0.08917596381187759,-0.045653944345572815,0.01460056967525667,0.06779077822242435,-0.050748727999614954,-0.09368947775141648,0.005754314736932619,0.038014025086084376,-0.008885760591648225,0.05303692591342776,-0.033487412875875165,0.0018152530167040212,0.09938746807894866,-0.047549551180756953,0.05736739549990016,-0.02012976550416087,0.08533738356265246,0.014672130214498114,0.09785259263249191],"categories":[],"categories_nodes":[],"categories_segments":[],"categories_sizes":[],"default_left":[1,1,1,0,1,1,1,1,0,1,1,1,1,1,0,1,0,0,1,1,1,0,0,0,1,1,1,1,0,1,1,0,0,0,0,0,0,0,1,0,0,1,0,0,0,0,0,0,1,0,0],"id":16,"left_children":[1,3,5,-1,7,9,11,13,-1,15,17,19,21,23,-1,25,-1,-1,27,29,31,-1,-1,-1,33,35,37,39,-1,41,43,-1,-1,-1,-1,-1,-1,-1,45,-1,-1,47,-1,-1,-1,-1,-1,-1,49,-1,-1],"loss_changes":[13.525452394186853,2.626081592360949,5.164534753093147,0.0,1.1287354658365683,5.39817374181421,2.122205353773669,0.26244489579880437,0.0,1.4457975544329926,0.4876422227534074,1.3323081217576203,1.5550581603488793,0.32108594776803123,0.0,1.8125820724057458,0.0,0.0,0.32222765191268943,0.9517455814928617,4.790633357792565,0.0,0.0,0.0,0.48894155868579303,2.9363778387893156,2.113999048562637,0.2974972823125832,0.0,1.5092637306294405,0.8268213215349469,0.0,0.0,0.0,0.0,0.0,0.0,0.0,1.802910443908266,0.0,0.0,1.9351410874252446,0.0,0.0,0.0,0.0,0.0,0.0,0.15980440475900393,0.0,0.0],"parents":[2147483647,0,0,1,1,2,2,4,4,5,5,6,6,7,7,9,9,10,10,11,11,12,12,13,13,15,15,18,18,19,19,20,20,24,24,25,25,26,26,27,27,29,29,30,30,38,38,41,41,48,48],"right_children":[2,4,6,-1,8,10,12,14,-1,16,18,20,22,24,-1,26,-1,-1,28,30,32,-1,-1,-1,34,36,38,40,-1,42,44,-1,-1,-1,-1,-1,-1,-1,46,-1,-1,48,-1,-1,-1,-1,-1,-1,50,-1,-1],"split_conditions":[-0.3654046654701233,-1.5886386632919312,-0.009891881607472897,0.0,1.6760566234588623,1.1208996772766113,0.9509145021438599,1.4947080612182617,0.0,0.964989960193634,-0.7533358931541443,1.2473373413085938,0.033632148057222366,1.0390160083770752,0.0,-0.4731917083263397,0.0,0.0,0.037506505846977234,0.04890581965446472,-0.16329754889011383,0.0,0.0,0.0,0.6574219465255737,-0.233851358294487,0.3604952096939087,-0.13008813560009003,0.0,0.9283079504966736,-1.6277709007263184,0.0,0.0,0.0,0.0,0.0,0.0,0.0,0.3133704364299774,0.0,0.0,-0.3528306782245636,0.0,0.0,0.0,0.0,0.0,0.0,-1.0380200147628784,0.0,0.0],"split_indices":[2,1,3,0,0,2,1,4,0,9,9,0,0,3,0,0,0,0,5,2,1,0,0,0,0,1,1,1,0,9,7,0,0,0,0,0,0,0,0,0,0,6,0,0,0,0,0,0,1,0,0],"split_type":[0,0,0,0,0,0,0,0,0,0,0,0,0,0,0,0,0,0,0,0,0,0,0,0,0,0,0,0,0,0,0,0,0,0,0,0,0,0,0,0,0,0,0,0,0,0,0,0,0,0,0],"sum_hessian":[64.68964750690672,16.427721942246475,48.26192556466024,1.1027457692609177,15.324976172985556,21.205973922397007,27.05595164226319,14.21233459929387,1.112641573691685,15.163167071177188,6.042806851219812,23.942861775885362,3.113089866377825,13.195403008777241,1.016931590516628,13.405629567825322,1.7575375033518625,1.0733955990369182,4.969411252182894,19.6515089842992,4.291352791586173,1.903130246547212,1.2099596198306124,11.00650497413747,2.188898034639767,4.429535251525605,8.976094316299719,2.4540108973312855,2.5154003548516086,6.039708653514164,13.61180033078503,2.372977781804414,1.9183750097817596,1.1116086858430554,1.077289348796712,1.8537490932065588,2.575786158319047,6.405862075306959,2.5702322409927603,1.1567688022716909,1.2972420950595942,4.734502259411278,1.3052063941028853,1.00338203555134,12.608418295233692,1.3418677139631163,1.228364527029644,1.6807885258954065,3.0537137335158726,1.1131525563993079,1.9405611771165645],"tree_param":{"num_nodes":"51","num_feature":"10","num_deleted":"0","size_leaf_vector":"1"}},{"base_weights":[0.0026939013970493156,-0.021996406107636205,0.05638862703901876,-0.06527168437671708,-0.006423316161697479,-0.00678964918337669,0.06027487281987597,0.010239755573389867,-0.07880016486290631,-0.04059413157160621,0.008064817387538876,0.033456605348075194,0.07976787489683757,-0.09212550694654778,-0.019334762770384747,-0.06470945141489795,0.0024204270699819345,0.031167432706941542,-0.012295842604324467,0.06658611265322786,-0.01764663163850058,0.09583377328024875,0.005092519605374085,-0.03722522179115873,0.009711211689386639,0.02991773274137723,-0.03172692798700674,0.052690272145570705,-0.03431826490041547,0.025599822914542648,-0.03177468138904951,0.002209748113824187,0.08358262581648317,-0.05442261298007686,0.013385380944308642,-0.019609460993982517,0.06972999368659301,-0.050077988918564575,0.005717896712726788,0.04911959352045394,-0.01917879196107851,0.023672069104897712,-0.05555537087138154,-0.023346457719189688,0.03779781233893253,0.0843941158413128,-0.003408519692450026,0.06123113321832342,-0.03239052760577992,-0.003705584116458669,-0.07344950010956323,-0.030235990273531216,0.027031907513627853],"categories":[],"categories_nodes":[],"categories_segments":[],"categories_sizes":[],"default_left":[1,1,1,1,1,0,1,0,1,1,1,1,1,0,1,0,1,1,1,1,1,0,0,0,0,0,0,1,1,1,1,0,0,0,1,0,1,0,0,0,0,1,1,0,0,0,0,0,0,1,0,0,0],"id":17,"left_children":[1,3,5,7,9,-1,11,-1,13,15,17,19,21,-1,23,-1,25,27,29,31,33,-1,-1,-1,-1,-1,-1,35,37,39,41,-1,-1,-1,43,-1,45,-1,-1,-1,-1,47,49,-1,-1,-1,-1,-1,-1,51,-1,-1,-1],"loss_changes":[8.901321593685964,3.0263547160582416,0.6004211493233944,1.3866822587888583,1.8554477156869846,0.0,0.5169814748427584,0.0,0.4680129924563534,1.1824096864770755,1.3494589020040362,2.2505428889779657,1.1254488634378994,0.0,0.3027886012971477,0.0,0.7451634950591196,2.2279929546008086,1.3302549769440866,0.7991871823817789,0.8604852655147618,0.0,0.0,0.0,0.0,0.0,0.0,1.5984629867116786,0.34036029987905736,0.8706231262605091,1.758218388276412,0.0,0.0,0.0,0.6250380157664447,0.0,1.038101966489129,0.0,0.0,0.0,0.0,1.4086602399658965,0.7373100196363107,0.0,0.0,0.0,0.0,0.0,0.0,0.5137719597440132,0.0,0.0,0.0],"parents":[2147483647,0,0,1,1,2,2,3,3,4,4,6,6,8,8,9,9,10,10,11,11,12,12,14,14,16,16,17,17,18,18,19,19,20,20,27,27,28,28,29,29,30,30,34,34,36,36,41,41,42,42,49,49],"right_children":[2,4,6,8,10,-1,12,-1,14,16,18,20,22,-1,24,-1,26,28,30,32,34,-1,-1,-1,-1,-1,-1,36,38,40,42,-1,-1,-1,44,-1,46,-1,-1,-1,-1,48,50,-1,-1,-1,-1,-1,-1,52,-1,-1,-1],"split_conditions":[0.6481867432594299,-0.6963275074958801,-1.9089559316635132,-1.1216341257095337,-0.882089376449585,0.0,0.030885612592101097,0.0,0.20923365652561188,0.07053360342979431,-0.05923717841506004,0.1713273972272873,0.2001364678144455,0.0,-0.013748236000537872,0.0,0.8928488492965698,0.8928488492965698,-0.5918708443641663,-0.3184968829154968,-0.8732119798660278,0.0,0.0,0.0,0.0,0.0,0.0,-0.38127997517585754,-0.081148661673069,0.4507889747619629,-0.456046462059021,0.0,0.0,0.0,-0.29823726415634155,0.0,0.7291955947875977,0.0,0.0,0.0,0.0,-0.42857247591018677,0.058243680745363235,0.0,0.0,0.0,0.0,0.0,0.0,-0.008022617548704147,0.0,0.0,0.0],"split_indices":[3,9,0,1,3,0,1,0,3,5,8,0,5,0,6,0,5,5,6,8,1,0,0,0,0,0,0,9,3,1,0,0,0,0,5,0,9,0,0,0,0,1,9,0,0,0,0,0,0,1,0,0,0],"split_type":[0,0,0,0,0,0,0,0,0,0,0,0,0,0,0,0,0,0,0,0,0,0,0,0,0,0,0,0,0,0,0,0,0,0,0,0,0,0,0,0,0,0,0,0,0,0,0,0,0,0,0,0,0],"sum_hessian":[63.27114529504642,44.15030890226848,19.120836392777953,9.9944919571166,34.15581694515186,1.0214262460490338,18.09941014672892,1.592406400882496,8.402085556234105,9.096827013496334,25.058989931655535,9.90495529277275,8.194454853956158,5.966599067294633,2.4354864889394703,5.182583691942222,3.914243321554114,11.241767326751805,13.817222604903744,5.641624647641504,4.263330645131243,6.277266056983973,1.9171887969721855,1.1586432896445018,1.2768431992949685,2.305476247780521,1.6087670737735926,8.755069933573246,2.4866973931785625,4.477624450654456,9.339598154249291,1.6504328460729227,3.991191801568583,1.2611865427727837,3.0021441023584594,1.6123276703373794,7.142742263235866,1.4243731989596968,1.0623241942188655,2.8085563398233226,1.6690681108311338,2.8060899660192833,6.533508188230005,1.23350207983144,1.7686420225270192,5.6934321232984715,1.449310139937395,1.5699317421816774,1.2361582238376059,2.2956965396668663,4.23781164856314,1.2496871485020122,1.0460093911648543],"tree_param":{"num_nodes":"53","num_feature":"10","num_deleted":"0","size_leaf_vector":"1"}},{"base_weights":[0.004140834084483377,-0.041913789495605536,0.027185488750973708,0.055738869772462334,-0.05676207577525755,-0.01342088835364448,0.05646212165045306,-0.07181439925514459,0.041123463750832104,-0.035716665265309304,0.0653834772199158,0.08218315719156469,0.016830360700065945,-0.09399305324125046,-0.022459523577457,0.014650572501865085,-0.05671368385040684,0.004476610483693184,0.07946726152706221,-0.02311634507216798,0.093240159017631,-0.03954675238223005,0.05005593613878612,-0.05068480246550858,0.04648043833070574,0.04253588720447008,-0.026065888629937237,-0.07700614773411046,-0.004796766675184172,-0.0024072145126046063,0.10160311653580473,-0.05430733728491957,0.008538124280140627,-0.010829068069542503,0.06999413155916692,0.021165482955138835,-0.07837520767001184,-0.001298624909942473,0.05834906582280072,-0.08615298224697887,-0.015565451596955035,-0.04865783001042205,0.03295636985520847,0.003916355750205783,0.10966021955620478,0.08295884397362246,0.008368027497707247,0.05928558214954861,-0.014765657773691385],"categories":[],"categories_nodes":[],"categories_segments":[],"categories_sizes":[],"default_left":[1,1,1,0,1,1,1,1,0,1,1,1,1,0,1,1,1,0,0,0,1,1,1,1,0,1,0,1,1,0,1,0,0,0,1,0,0,0,0,0,0,0,1,0,0,0,0,0,0],"id":18,"left_children":[1,3,5,-1,7,9,11,13,-1,15,17,19,21,-1,23,25,27,-1,-1,-1,29,31,33,35,-1,37,-1,39,41,-1,43,-1,-1,-1,45,-1,-1,-1,-1,-1,-1,-1,47,-1,-1,-1,-1,-1,-1],"loss_changes":[6.950605341325631,3.8099430645325776,5.314766473722681,0.0,3.5390531726769545,3.947855995919987,2.3350408973984216,1.5560002929680739,0.0,1.9360581464273712,0.36422800738723504,2.180071276253404,2.7558261460163824,0.0,2.0728175382701775,0.9612707351589206,1.2137492298112238,0.0,0.0,0.0,1.1681104003352871,0.5036144783554973,1.2210251486673238,1.6840353038983045,0.0,0.3357934830819921,0.0,0.21817361395247303,1.2426424434426422,0.0,0.9304563602458202,0.0,0.0,0.0,0.4127922786921556,0.0,0.0,0.0,0.0,0.0,0.0,0.0,0.7008526586134234,0.0,0.0,0.0,0.0,0.0,0.0],"parents":[2147483647,0,0,1,1,2,2,4,4,5,5,6,6,7,7,9,9,10,10,11,11,12,12,14,14,15,15,16,16,20,20,21,21,22,22,23,23,25,25,27,27,28,28,30,30,34,34,42,42],"right_children":[2,4,6,-1,8,10,12,14,-1,16,18,20,22,-1,24,26,28,-1,-1,-1,30,32,34,36,-1,38,-1,40,42,-1,44,-1,-1,-1,46,-1,-1,-1,-1,-1,-1,-1,48,-1,-1,-1,-1,-1,-1],"split_conditions":[-0.2157929688692093,-1.6716285943984985,-0.052159447222948074,0.0,1.279444932937622,1.6185702085494995,0.12337968498468399,0.43477585911750793,0.0,-0.6897193789482117,-0.6243538856506348,-1.0964069366455078,0.19253772497177124,0.0,0.963548481464386,-0.6396757960319519,0.4688688814640045,0.0,0.0,0.0,-1.1254353523254395,1.0242568254470825,0.4027625024318695,0.6128723621368408,0.0,-0.6763295531272888,0.0,0.6697325706481934,-0.10917864739894867,0.0,-1.9824652671813965,0.0,0.0,0.0,0.7328661680221558,0.0,0.0,0.0,0.0,0.0,0.0,0.0,0.7725690007209778,0.0,0.0,0.0,0.0,0.0,0.0],"split_indices":[2,1,3,0,1,2,8,3,0,6,1,0,2,0,0,3,5,0,0,0,1,8,8,3,0,9,0,9,7,0,8,0,0,0,0,0,0,0,0,0,0,0,5,0,0,0,0,0,0],"split_type":[0,0,0,0,0,0,0,0,0,0,0,0,0,0,0,0,0,0,0,0,0,0,0,0,0,0,0,0,0,0,0,0,0,0,0,0,0,0,0,0,0,0,0,0,0,0,0,0,0],"sum_hessian":[61.34339283766226,19.911916148337873,41.4314766893244,1.901109926854831,18.01080622148303,17.810990432944656,23.620486256379756,16.072021521564924,1.9387846999181095,14.735480735243993,3.075509697700664,13.021916705172584,10.598569551207177,9.840927356267962,6.2310941652969625,4.513380668254878,10.222100066989114,1.0726084342448838,2.002901263455781,1.030150151325162,11.991766553847421,3.7889624059607026,6.809607145246473,4.796794712468979,1.4342994528279838,2.62573430812483,1.887646360130048,6.654557266247827,3.567542800741286,1.078720922603356,10.913045631244064,2.7010203202685203,1.087942085692183,1.9052640010173871,4.904343144229084,1.4654814312987678,3.3313132811702126,1.1827836445762852,1.442950663548545,5.092061662920126,1.5624956033277013,1.3830502983572233,2.184492502384063,1.0579758146885962,9.855069816555467,3.479920094705697,1.4244230495233865,1.0954752762639495,1.0890172261201132],"tree_param":{"num_nodes":"49","num_feature":"10","num_deleted":"0","size_leaf_vector":"1"}},{"base_weights":[0.0065713294313795335,-0.08123451116227148,0.02018512328079729,-0.013184406865574566,-0.08662574551532021,-0.006327106172240947,0.05936812491551155,-0.02391643943849791,0.06658546719910896,0.023756511345651793,0.09081126690039837,0.05497306168963615,-0.034758553398063316,-0.007464970456656341,0.08086810491688673,0.05952516956526591,-0.008739624138447475,-0.044294898955991875,0.03485935503044986,0.009002115911073602,0.0909232093555513,0.08437157786072459,-0.00042024570899142755,-0.05332629834052102,0.011881679458113572,-0.05977629711801927,-0.004770996846788439,0.048612806560329236,-0.00036566018006002615,-0.03349559554701619,0.03672691138323881,-0.006259119901228818,-0.06917923316587343,0.04263900077949792,-0.027652376368540867,0.05542338504737676,-0.018052328770018482,0.028531995213693068,-0.04526955656967127,-0.07494607919448516,0.00380826769017837,0.02123716490068278,-0.045484580729703565,0.0716479764853747,0.004010719630021273],"categories":[],"categories_nodes":[],"categories_segments":[],"categories_sizes":[],"default_left":[1,1,1,0,0,1,1,1,1,1,0,0,1,0,1,1,1,1,1,0,0,0,0,0,1,1,1,0,0,0,1,1,1,0,1,1,0,0,0,0,0,0,0,0,0],"id":19,"left_children":[1,3,5,-1,-1,7,9,11,13,15,-1,-1,17,-1,19,21,23,25,27,-1,-1,-1,-1,-1,29,31,33,-1,-1,-1,35,37,39,-1,41,43,-1,-1,-1,-1,-1,-1,-1,-1,-1],"loss_changes":[7.961811795392055,0.1006783681511001,5.985181566344889,0.0,0.0,4.9020345530501075,2.1609519443428873,2.9708028242281306,0.9112782143134708,1.6807574429986571,0.0,0.0,2.156674801327338,0.0,0.3013103381664495,1.0070011190089074,0.9405652398378183,1.4947532168674371,0.22023280761473396,0.0,0.0,0.0,0.0,0.0,1.112782058680972,0.8216830253632716,1.2459150583364889,0.0,0.0,0.0,0.8066094329200805,0.9228618278489888,0.6948912743396862,0.0,0.8464831340798693,0.35179388995495264,0.0,0.0,0.0,0.0,0.0,0.0,0.0,0.0,0.0],"parents":[2147483647,0,0,1,1,2,2,5,5,6,6,7,7,8,8,9,9,12,12,14,14,15,15,16,16,17,17,18,18,24,24,25,25,26,26,30,30,31,31,32,32,34,34,35,35],"right_children":[2,4,6,-1,-1,8,10,12,14,16,-1,-1,18,-1,20,22,24,26,28,-1,-1,-1,-1,-1,30,32,34,-1,-1,-1,36,38,40,-1,42,44,-1,-1,-1,-1,-1,-1,-1,-1,-1],"split_conditions":[-0.9147043228149414,-1.0664030313491821,0.3465544879436493,0.0,0.0,1.3066208362579346,0.11983069032430649,-1.4273687601089478,-0.8443402647972107,-0.518683135509491,0.0,0.0,1.5679696798324585,0.0,1.3805480003356934,-0.30911242961883545,-0.11290806531906128,0.5178139209747314,-0.4295650124549866,0.0,0.0,0.0,0.0,0.0,-0.3286244571208954,-1.053460955619812,0.6647536754608154,0.0,0.0,0.0,0.6780704259872437,0.05438094958662987,1.4594873189926147,0.0,-1.010366678237915,0.024539295583963394,0.0,0.0,0.0,0.0,0.0,0.0,0.0,0.0,0.0],"split_indices":[2,9,3,0,0,2,2,8,8,5,0,0,1,0,2,2,5,6,6,0,0,0,0,0,2,6,6,0,0,0,9,5,9,0,1,1,0,0,0,0,0,0,0,0,0],"split_type":[0,0,0,0,0,0,0,0,0,0,0,0,0,0,0,0,0,0,0,0,0,0,0,0,0,0,0,0,0,0,0,0,0,0,0,0,0,0,0,0,0,0,0,0,0],"sum_hessian":[61.86191855752183,6.970385720949299,54.891532836572495,1.0175504254685497,5.952835295480748,33.739539005983715,21.15199383058879,28.26491701879857,5.47462198718514,11.564943388789027,9.587050441799764,2.4315795018521036,25.833337516946475,1.0395582472213163,4.435063739963824,4.713379790792371,6.851563597996658,23.360828401205417,2.472509115741053,1.0096236063182369,3.425440133645586,2.7560815877401588,1.9572982030522126,1.16363344086257,5.687930157134089,16.04947706036325,7.311351340842157,1.231532804613574,1.2409763111274783,1.766060798816289,3.9218693583177995,2.8963126231475615,13.153164437215688,1.817841213468913,5.493510127373246,2.9063852876812146,1.0154840706365846,1.8149117441321791,1.0814008790153817,12.140275194516185,1.0128892426995055,1.3661434261228969,4.12736670125035,1.6108635580305428,1.2955217296506716],"tree_param":{"num_nodes":"45","num_feature":"10","num_deleted":"0","size_leaf_vector":"1"}},{"base_weights":[0.003944232169698425,-0.061190272674675555,0.027879642187740174,0.0336866385807791,-0.07174701032824791,0.00024309237455257183,0.0719565826545159,-0.08314145387720957,0.03189644732871661,-0.01636236225130566,0.06345222260880662,0.08179233057222662,0.007805484274065576,-0.08673065214302,-0.011312425485062845,0.04830455503122364,-0.026219925817734815,-0.018163640495766784,0.08831505269925316,0.09224462383726748,0.003059170494214449,-0.05706546656965086,0.06624565435510009,-0.090593780751137,-0.012848933369028037,0.026611955180877268,-0.03893087593362682,-0.0947454861499119,-0.016084470474035398,0.05553155073057889,-0.027539667349276528,-0.054186384544292546,-0.0014523454675532208,-0.0002961792301608655,0.07308108811811258,-0.060953896301150105,0.00886049444016433,0.04495937670344258,-0.059645895480214484,-0.0742180660929029,-0.009497369330928549,0.060099652531651664,0.0011395130137769264],"categories":[],"categories_nodes":[],"categories_segments":[],"categories_sizes":[],"default_left":[1,1,1,0,1,1,1,1,0,1,1,1,1,1,0,0,1,0,0,0,0,0,0,1,0,1,1,0,0,1,0,1,1,0,0,1,0,1,0,0,0,0,0],"id":20,"left_children":[1,3,5,-1,7,9,11,13,-1,15,17,19,21,23,-1,-1,25,-1,-1,-1,-1,-1,-1,27,-1,29,31,-1,-1,33,-1,35,37,-1,-1,39,-1,41,-1,-1,-1,-1,-1],"loss_changes":[10.035636943980046,2.2197590448200284,5.703061409066798,0.0,2.4481881249351716,3.440460150285111,1.0110171879146552,0.19526624849517482,0.0,1.909553028372819,1.7043245872439279,1.2139070199608888,2.503794710937215,0.17141852700434157,0.0,0.0,1.8082747365653824,0.0,0.0,0.0,0.0,0.0,0.0,0.10133031493858091,0.0,1.2159925554311415,1.129483461945854,0.0,0.0,0.44046246780533926,0.0,0.7130523480702067,2.6563946127091493,0.0,0.0,0.7503822744141102,0.0,0.35167866470379305,0.0,0.0,0.0,0.0,0.0],"parents":[2147483647,0,0,1,1,2,2,4,4,5,5,6,6,7,7,9,9,10,10,11,11,12,12,13,13,16,16,23,23,25,25,26,26,29,29,31,31,32,32,35,35,37,37],"right_children":[2,4,6,-1,8,10,12,14,-1,16,18,20,22,24,-1,-1,26,-1,-1,-1,-1,-1,-1,28,-1,30,32,-1,-1,34,-1,36,38,-1,-1,40,-1,42,-1,-1,-1,-1,-1],"split_conditions":[-0.3654046654701233,-1.5886386632919312,0.3465544879436493,0.0,1.7143535614013672,1.3805480003356934,1.2929667234420776,1.7055416107177734,0.0,-1.3291186094284058,-1.3627985715866089,0.9509145021438599,-0.16329754889011383,1.2326326370239258,0.0,0.0,-1.053460955619812,0.0,0.0,0.0,0.0,0.0,0.0,1.4118788242340088,0.0,0.05438094958662987,-0.05636303499341011,0.0,0.0,-0.7214894890785217,0.0,1.6042871475219727,0.22187352180480957,0.0,0.0,0.9342674016952515,0.0,0.07987526059150696,0.0,0.0,0.0,0.0,0.0],"split_indices":[2,1,3,0,1,2,0,4,0,8,3,1,1,6,0,0,6,0,0,0,0,0,0,8,0,5,3,0,0,5,0,4,8,0,0,8,0,3,0,0,0,0,0],"split_type":[0,0,0,0,0,0,0,0,0,0,0,0,0,0,0,0,0,0,0,0,0,0,0,0,0,0,0,0,0,0,0,0,0,0,0,0,0,0,0,0,0,0,0],"sum_hessian":[60.1828946911253,15.336183236522233,44.84671145460307,1.096806023288132,14.239377213234098,28.799963417411842,16.046748037191183,13.185413510853804,1.053963702380298,23.982010026283067,4.817953391128766,13.436632285018835,2.610115752172354,12.16273883091609,1.0226746799377135,2.140373251019659,21.841636775263414,1.2508261675671482,3.5671272235616187,11.558898390323238,1.877733894695593,1.259294493038205,1.350821259134149,11.128453588964973,1.034285241951119,3.811644097786774,18.02999267747664,10.026581055967371,1.1018725329975998,2.451473093918335,1.3601710038684394,12.180404402073925,5.849588275402709,1.0565797532772605,1.3948933406410742,11.059646005461607,1.120758396612319,3.5072482181627618,2.3423400572399475,8.089651702009949,2.969994303451657,2.0543974650029635,1.4528507531597978],"tree_param":{"num_nodes":"43","num_feature":"10","num_deleted":"0","size_leaf_vector":"1"}},{"base_weights":[0.0036912872646888404,-0.025236688121141715,0.027565955370249525,-0.04586581926766601,0.02364832704262052,0.05058841205429444,0.012766791634854717,0.018044641609951888,-0.07840225315104123,-0.06444951531699426,0.08402159947408695,0.08938478996287676,-0.01843082561192402,-0.03259999143405103,0.04537118338862239,0.059267174963655335,-0.03472964076625986,-0.08665699084040812,0.006644123523172634,0.09320645876744871,0.011922079912756976,-0.05688606868968371,0.027591187606116698,-0.04932257122880939,0.02616644166601842,-0.004361637071719063,0.07648736239025022,0.002255022222452017,0.0720403248362252,-0.05340847678502206,0.0035774334903332927,-0.0059350755895832535,0.04365767020096031,-0.0641006895109218,0.012519401465983333,-0.0375257479147846,0.04158773662179433,0.0922860503970467,-0.0017721096014659623,-0.005083942450269766,-0.08229757065741129,-0.05069574463659532,0.005876398115467746],"categories":[],"categories_nodes":[],"categories_segments":[],"categories_sizes":[],"default_left":[1,1,1,1,1,1,1,1,1,0,1,0,1,1,1,1,1,0,0,0,0,0,1,1,0,1,1,0,0,0,0,0,0,1,0,1,0,0,0,0,0,0,0],"id":21,"left_children":[1,3,5,7,9,11,13,15,17,-1,19,-1,21,23,25,27,29,-1,-1,-1,-1,-1,31,33,-1,35,37,-1,-1,-1,-1,-1,-1,39,-1,41,-1,-1,-1,-1,-1,-1,-1],"loss_changes":[4.319426904478081,3.0821004583474423,1.0332003386358162,4.579115736826892,6.26937306965122,3.723205196143436,3.7632285720561,2.2816344298164033,1.1025512362644516,0.0,0.21840904587190657,0.0,1.4144931893666732,1.3357971884338142,2.3068132441565252,0.37276258526102524,0.3981739409045959,0.0,0.0,0.0,0.0,0.0,0.27684999409487826,1.004054583527692,0.0,1.449431265779461,1.1469860768991857,0.0,0.0,0.0,0.0,0.0,0.0,0.7514771224800385,0.0,0.3674515738833676,0.0,0.0,0.0,0.0,0.0,0.0,0.0],"parents":[2147483647,0,0,1,1,2,2,3,3,4,4,5,5,6,6,7,7,8,8,10,10,12,12,13,13,14,14,15,15,16,16,22,22,23,23,25,25,26,26,33,33,35,35],"right_children":[2,4,6,8,10,12,14,16,18,-1,20,-1,22,24,26,28,30,-1,-1,-1,-1,-1,32,34,-1,36,38,-1,-1,-1,-1,-1,-1,40,-1,42,-1,-1,-1,-1,-1,-1,-1],"split_conditions":[-0.009891881607472897,0.7350974678993225,-0.3492453396320343,-0.5268164277076721,0.18828880786895752,0.010219579562544823,-0.28665199875831604,-0.233851358294487,1.4240087270736694,0.0,0.7511357069015503,0.0,-1.011350154876709,1.0575246810913086,0.5101544260978699,-1.4262237548828125,0.10910075157880783,0.0,0.0,0.0,0.0,0.0,0.4996471107006073,0.8712916970252991,0.0,0.7185022234916687,1.010532021522522,0.0,0.0,0.0,0.0,0.0,0.0,-0.4797954559326172,0.0,0.3746199309825897,0.0,0.0,0.0,0.0,0.0,0.0,0.0],"split_indices":[3,1,0,0,0,1,1,1,5,0,5,0,0,8,0,3,5,0,0,0,0,0,3,4,0,3,8,0,0,0,0,0,0,4,0,6,0,0,0,0,0,0,0],"split_type":[0,0,0,0,0,0,0,0,0,0,0,0,0,0,0,0,0,0,0,0,0,0,0,0,0,0,0,0,0,0,0,0,0,0,0,0,0,0,0,0,0,0,0],"sum_hessian":[58.52729419883318,26.411474726826057,32.11581947200708,18.660428174149303,7.751046552676756,10.674021095545507,21.44179837646158,6.595623152481252,12.064805021668063,3.096922657512758,4.654123895163997,6.455295835801326,4.2187252597441764,8.966205734373407,12.475592642088166,3.564945162441203,3.0306779900400467,10.96285645694924,1.1019485647188239,3.6088879873510957,1.0452359078129017,2.041095157259677,2.1776301024844993,7.230186649194215,1.7360190851791912,5.4632940494235465,7.012298592664623,1.0832069247555147,2.481738237685689,1.5072778751868972,1.5234001148531495,1.114067577210668,1.0635625252738317,5.7767038130883686,1.4534828361058463,3.38604971075582,2.0772443386677257,5.5362089637705125,1.4760896288941106,1.964415394285688,3.8122884188026815,2.3399259840551907,1.0461237267006291],"tree_param":{"num_nodes":"43","num_feature":"10","num_deleted":"0","size_leaf_vector":"1"}},{"base_weights":[-0.00021921858544978295,-0.038541436767245134,0.012566986861165764,0.017986091370548345,-0.06121980847003969,0.03476363970340122,-0.009211063248519072,0.06343285966872479,-0.048822070421909954,-0.07731244031856295,0.012641158157132232,0.04460757751556821,-0.016102917656607606,-0.021096561496343556,0.06477202038567685,0.0022255240428903323,0.06848628210778294,0.02336840005938079,-0.041177940088419754,0.019909343064013815,-0.04327174654274754,0.040967726978049394,-0.03174501217083736,0.01748432702893398,0.0926174393285566,0.07702253685732835,-0.04284535068008633,0.022541140510560095,-0.05892422301523659,-0.005726668246561909,0.05554154647314205,-0.0473576540922471,0.01496091894175859,-0.023285895879617224,0.0427731428716647,-0.05609530529737,0.005300058258514036,-0.008948092972003085,0.038865061303240384,-0.07776322703255428,-0.011311809846811509,0.0015830381106032732,0.05357399013293125,-0.08547761996448743,-0.007704468459448987,0.03815277140366203,-0.04295544285865721],"categories":[],"categories_nodes":[],"categories_segments":[],"categories_sizes":[],"default_left":[1,1,1,1,1,1,1,0,0,0,0,1,1,1,0,1,1,0,0,1,1,1,1,1,0,0,1,1,1,0,0,0,0,0,1,0,0,0,0,1,1,0,0,0,0,0,0],"id":22,"left_children":[1,3,5,7,9,11,13,-1,-1,-1,-1,15,17,19,-1,21,23,-1,-1,25,27,29,31,33,-1,-1,35,37,39,-1,-1,-1,-1,-1,41,-1,-1,-1,-1,43,45,-1,-1,-1,-1,-1,-1],"loss_changes":[2.9376061401012894,2.1426081045733296,2.2383228274132723,2.3923693484677524,1.5215233501099492,1.2800283744405485,2.4087028867673497,0.0,0.0,0.0,0.0,1.9475273347385298,0.7021014665746301,2.212065226611709,0.0,1.459157866644984,1.2064645535313083,0.0,0.0,3.972770135298408,1.8303176404514923,0.41268927946931333,0.5778484135609254,0.8651508535104877,0.0,0.0,0.42238055322496293,0.29392545238680756,0.9743505600496594,0.0,0.0,0.0,0.0,0.0,0.1917525971995483,0.0,0.0,0.0,0.0,0.34648621657596035,1.2631726198557198,0.0,0.0,0.0,0.0,0.0,0.0],"parents":[2147483647,0,0,1,1,2,2,3,3,4,4,5,5,6,6,11,11,12,12,13,13,15,15,16,16,19,19,20,20,21,21,22,22,23,23,26,26,27,27,28,28,34,34,39,39,40,40],"right_children":[2,4,6,8,10,12,14,-1,-1,-1,-1,16,18,20,-1,22,24,-1,-1,26,28,30,32,34,-1,-1,36,38,40,-1,-1,-1,-1,-1,42,-1,-1,-1,-1,44,46,-1,-1,-1,-1,-1,-1],"split_conditions":[-0.5447655916213989,-0.5412200689315796,-0.07384147495031357,-0.492287278175354,1.3906995058059692,0.949044942855835,1.9132493734359741,0.0,0.0,0.0,0.0,-0.2564302086830139,-0.4872378706932068,-0.43091297149658203,0.0,-0.32663729786872864,0.050771769136190414,0.0,0.0,-0.20037871599197388,-1.0869650840759277,-0.735831618309021,1.071679711341858,-0.3793799579143524,0.0,0.0,1.168265461921692,-0.4456099271774292,0.5810701251029968,0.0,0.0,0.0,0.0,0.0,0.13694225251674652,0.0,0.0,0.0,0.0,1.1979950666427612,0.9619691371917725,0.0,0.0,0.0,0.0,0.0,0.0],"split_indices":[3,1,8,0,0,5,8,0,0,0,0,9,9,0,0,4,4,0,0,1,6,1,0,1,0,0,3,1,5,0,0,0,0,0,5,0,0,0,0,9,5,0,0,0,0,0,0],"split_type":[0,0,0,0,0,0,0,0,0,0,0,0,0,0,0,0,0,0,0,0,0,0,0,0,0,0,0,0,0,0,0,0,0,0,0,0,0,0,0,0,0,0,0,0,0,0,0],"sum_hessian":[55.97471031400534,12.995777136025415,42.9789331779799,3.839456729031689,9.156320406993729,20.694311050114123,22.284622127865795,2.3451767364088534,1.4942799926228356,7.441522517931729,1.7147978890620017,17.545011232811547,3.1492998173025755,20.43189800582243,1.8527241220433597,7.110703398596413,10.434307834215137,1.2763234618660841,1.87297635543649,7.242876087470541,13.189021918351893,3.1295757585544974,3.981127640041916,4.459057811964137,5.975250022250999,3.553819068816564,3.6890570186539784,2.364974743345921,10.824047175005969,1.0332302807918066,2.0963454777626906,