{"learner":{"attributes":{"go_learning_rate":"0.3"},"feature_names":[],"feature_types":[],"gradient_booster":{"name":"gbtree","model":{"gbtree_model_param":{"num_parallel_tree":"1","num_trees":"10"},"trees":[{"base_weights":[1.8547878693021647E-17,-0.2715379544647836,0.43434179576607923,-0.4744176514789258,0.2786052216576134,-0.2804746494066882,0.6030669419050426,-0.49763033175355437,-0.07746933505487409,-0.2486858067124949,0.5713915522156001,-0.36921929388364,-0.02688172043010751,0.2113916617733412,0.6349642660802636,-0.026881720430107517,-0.3391074574280681],"categories":[],"categories_nodes":[],"categories_segments":[],"categories_sizes":[],"default_left":[1,1,0,1,0,1,0,0,0,1,0,0,0,0,0,0,0],"id":0,"left_children":[1,3,5,7,9,11,13,-1,-1,15,-1,-1,-1,-1,-1,-1,-1],"loss_changes":[67.19975222197803,40.59959370307247,28.314410645285186,1.9696487982836643,17.24227273471958,1.0023673544447087,0.7680701558131489,0.0,0.0,0.7804595564916266,0.0,0.0,0.0,0.0,0.0,0.0,0.0],"parents":[2147483647,0,0,1,1,2,2,3,3,4,4,5,5,6,6,9,9],"right_children":[2,4,6,8,10,12,14,-1,-1,16,-1,-1,-1,-1,-1,-1,-1],"split_conditions":[0.08331425487995148,0.42963820695877075,-0.8153170347213745,0.22080020606517792,-0.8317626714706421,0.9248670339584351,-0.5387033820152283,0.0,0.0,-0.789409339427948,0.0,0.0,0.0,0.0,0.0,0.0,0.0],"split_indices":[0,1,1,1,0,0,1,0,0,2,0,0,0,0,0,0,0],"split_type":[0,0,0,0,0,0,0,0,0,0,0,0,0,0,0,0,0],"sum_hessian":[49.280000000000165,30.553600000000067,18.726400000000005,22.422400000000025,8.131200000000005,3.4495999999999998,15.27679999999999,20.944000000000017,1.4784000000000002,2.9568,5.174400000000001,2.2176,1.2320000000000002,1.7248,13.551999999999994,1.2320000000000002,1.7248],"tree_param":{"num_nodes":"17","num_feature":"5","num_deleted":"0","size_leaf_vector":"1"}},{"base_weights":[-0.0033605947103367497,-0.21617643986014431,0.3173035931088611,-0.3847130291162779,0.20461455603171722,-0.2337067700962172,0.4450478156663454,-0.4053738153352772,-0.06408639862895721,-0.25753712645687676,0.40954521473538,-0.323593990331107,-0.0005618196199936232,0.16934325659145624,0.4670452979603876],"categories":[],"categories_nodes":[],"categories_segments":[],"categories_sizes":[],"default_left":[1,1,0,1,0,0,0,0,0,0,0,0,0,0,0],"id":1,"left_children":[1,3,5,7,9,11,13,-1,-1,-1,-1,-1,-1,-1,-1],"loss_changes":[36.60162659175463,23.73054120345901,16.21926680655478,1.2612822789197509,10.58792103241073,0.9947305358321983,0.19805185922101032,0.0,0.0,0.0,0.0,0.0,0.0,0.0,0.0],"parents":[2147483647,0,0,1,1,2,2,3,3,4,4,5,5,6,6],"right_children":[2,4,6,8,10,12,14,-1,-1,-1,-1,-1,-1,-1,-1],"split_conditions":[0.08331425487995148,0.42963820695877075,-0.8153170347213745,0.22080020606517792,-0.9458999633789062,0.9170052409172058,-0.5387033820152283,0.0,0.0,0.0,0.0,0.0,0.0,0.0,0.0],"split_indices":[0,1,1,1,0,2,1,0,0,0,0,0,0,0,0],"split_type":[0,0,0,0,0,0,0,0,0,0,0,0,0,0,0],"sum_hessian":[46.26609674051218,28.005486915173492,18.260609825338623,20.057664012587306,7.947822902586148,3.280603777465519,14.980006047873092,18.59510117367062,1.4625628389166776,2.362745972433964,5.585076930152186,2.0877399420924765,1.1928638353730419,1.7496123113336142,13.23039373653948],"tree_param":{"num_nodes":"15","num_feature":"5","num_deleted":"0","size_leaf_vector":"1"}},{"base_weights":[-0.004056878068812599,-0.1834093645290872,0.25857629841726953,-0.3535770749683628,0.12513260506895393,-0.19838175896387028,0.3710842179829154,-0.3693636658024926,-0.11345263891999678,-0.22273646486601514,0.32770382921400554,-0.28028544588218735,-0.00047016796091044606,0.13745843723186987,0.3926585938751957,-0.32211413267248207,0.026549886192652677,0.3877802415439184,0.02219865470521526],"categories":[],"categories_nodes":[],"categories_segments":[],"categories_sizes":[],"default_left":[1,1,0,1,0,0,0,0,0,0,1,0,0,0,0,0,0,0,0],"id":2,"left_children":[1,3,5,7,9,11,13,-1,-1,15,17,-1,-1,-1,-1,-1,-1,-1,-1],"loss_changes":[22.301988801163507,15.255203891187012,10.699080466389603,0.23241295475316548,8.43300860939561,0.7314126651824373,0.19714192811750664,0.0,0.0,1.2450193725536387,1.2414671549372533,0.0,0.0,0.0,0.0,0.0,0.0,0.0,0.0],"parents":[2147483647,0,0,1,1,2,2,3,3,4,4,5,5,6,6,9,9,10,10],"right_children":[2,4,6,8,10,12,14,-1,-1,16,18,-1,-1,-1,-1,-1,-1,-1,-1],"split_conditions":[0.08331425487995148,0.22080020606517792,-0.8153170347213745,0.005476074293255806,-0.7225214242935181,0.9170052409172058,-0.5387033820152283,0.0,0.0,-0.2929311692714691,0.8384701609611511,0.0,0.0,0.0,0.0,0.0,0.0,0.0,0.0],"split_indices":[0,1,1,1,0,2,1,0,0,3,4,0,0,0,0,0,0,0,0],"split_type":[0,0,0,0,0,0,0,0,0,0,0,0,0,0,0,0,0,0,0],"sum_hessian":[40.604901655865724,24.307164271176575,16.297737384689103,15.572580929678562,8.734583341498068,3.069104666710785,13.22863271797832,14.106926253944106,1.4656546757344513,3.177837847221598,5.55674549427647,1.8763719285257419,1.192732738185043,1.741504839841782,11.48712787813654,2.0632006190878114,1.1146372281337864,4.418547030399091,1.1381984638773792],"tree_param":{"num_nodes":"19","num_feature":"5","num_deleted":"0","size_leaf_vector":"1"}},{"base_weights":[-0.00495313953670965,-0.16075748183838953,0.21983701356378155,-0.2991572163498738,0.14062469885180026,-0.17131559877672792,0.324903684947224,-0.3364860762344007,-0.09906671723251732,-0.15604694047278078,0.3229556902990904,-0.25701959181577433,0.015455565318447974,0.1124397175966848,0.3489298446636864,-0.2503860458399657,0.13277496762987637,0.03479258000117899,-0.254848223148916],"categories":[],"categories_nodes":[],"categories_segments":[],"categories_sizes":[],"default_left":[1,1,0,1,0,1,0,0,0,0,0,0,0,0,0,0,0,0,0],"id":3,"left_children":[1,3,5,7,9,11,13,-1,15,17,-1,-1,-1,-1,-1,-1,-1,-1,-1],"loss_changes":[14.310275401814872,10.52496425628185,7.49686273596307,0.8903656073427069,5.073421448143494,0.7278459045429022,0.25712406072473826,0.0,1.8528889895674987,0.838634076915711,0.0,0.0,0.0,0.0,0.0,0.0,0.0,0.0,0.0],"parents":[2147483647,0,0,1,1,2,2,3,3,4,4,5,5,6,6,8,8,9,9],"right_children":[2,4,6,8,10,12,14,-1,16,18,-1,-1,-1,-1,-1,-1,-1,-1,-1],"split_conditions":[0.08331425487995148,0.42963820695877075,-0.8153170347213745,0.005476074293255806,-0.8317626714706421,0.9248670339584351,-0.5387033820152283,0.0,-0.6809953451156616,-0.30797696113586426,0.0,0.0,0.0,0.0,0.0,0.0,0.0,0.0,0.0],"split_indices":[0,1,1,1,0,0,1,0,0,2,0,0,0,0,0,0,0,0,0],"split_type":[0,0,0,0,0,0,0,0,0,0,0,0,0,0,0,0,0,0,0],"sum_hessian":[34.76433364779104,20.701068064739772,14.063265583051342,14.191483970971356,6.5095840937684635,2.8441691455593836,11.219096437491949,11.385699739123357,2.8057842318479977,2.532727160069837,3.976856933698626,1.6917518621781675,1.152417283381216,1.7168483320222798,9.502248105469661,1.6493154587194057,1.1564687731285923,1.0849486375567587,1.447778522513078],"tree_param":{"num_nodes":"19","num_feature":"5","num_deleted":"0","size_leaf_vector":"1"}},{"base_weights":[-0.005875196070933789,-0.2400851942838667,0.11770937125742152,-0.32174090264948907,0.12542557743691302,-0.09791888982890483,0.33079357097092993,-0.2993686627933617,0.17766664380201527,0.08197039727748319,0.3536145986505682,-0.32467553876828165,-0.10165436521066348,-0.06475933948096986,0.308042652532666],"categories":[],"categories_nodes":[],"categories_segments":[],"categories_sizes":[],"default_left":[0,1,1,0,0,1,1,0,0,0,0,0,0,0,0],"id":4,"left_children":[1,3,5,-1,-1,7,9,11,13,-1,-1,-1,-1,-1,-1],"loss_changes":[10.082832306484484,4.036768535575694,10.85329464265155,0.0,0.0,7.368778201679753,0.3446107235860243,0.006884144304180495,2.071557334748361,0.0,0.0,0.0,0.0,0.0,0.0],"parents":[2147483647,0,0,1,1,2,2,5,5,6,6,7,7,8,8],"right_children":[2,4,6,-1,-1,8,10,12,14,-1,-1,-1,-1,-1,-1],"split_conditions":[-0.4172596037387848,0.8964971303939819,-0.30911242961883545,0.0,0.0,0.51409912109375,-0.07273915410041809,-0.30911242961883545,-0.9248809218406677,0.0,0.0,0.0,0.0,0.0,0.0],"split_indices":[0,1,1,0,0,0,1,1,1,0,0,0,0,0,0],"split_type":[0,0,0,0,0,0,0,0,0,0,0,0,0,0,0],"sum_hessian":[29.374934825387637,9.820685729037935,19.554249096349746,8.12524294758667,1.6954427814512574,9.987735886170297,9.56651321017945,5.720105738644994,4.2676301475253045,1.189456966469474,8.377056243709976,4.501749457299805,1.2183562813451905,1.6684815745294534,2.599148572995851],"tree_param":{"num_nodes":"15","num_feature":"5","num_deleted":"0","size_leaf_vector":"1"}},{"base_weights":[-0.004506580704564422,-0.20944664103785904,0.10429113235556443,-0.2752654533346945,0.16549608449145423,-0.08588146242782782,0.30043677473838465,-0.303489761687121,-0.0747643329603461,-0.2702121561390375,0.15304268632910314,0.06950014480822032,0.32632988340253954,-0.29629297785826775,-0.08314164165086092,-0.05345808934777691,0.2738796806536235],"categories":[],"categories_nodes":[],"categories_segments":[],"categories_sizes":[],"default_left":[0,1,1,1,0,1,1,0,0,1,0,0,0,0,0,0,0],"id":5,"left_children":[1,3,5,7,-1,9,11,-1,-1,13,15,-1,-1,-1,-1,-1,-1],"loss_changes":[6.658427981500164,3.0597670282341802,7.574468142454404,0.2696211276738696,0.0,5.208825043013332,0.33787721234543966,0.0,0.0,0.042889855031130075,1.5115876338847565,0.0,0.0,0.0,0.0,0.0,0.0],"parents":[2147483647,0,0,1,1,2,2,3,3,5,5,6,6,9,9,10,10],"right_children":[2,4,6,8,-1,10,12,-1,-1,14,16,-1,-1,-1,-1,-1,-1],"split_conditions":[-0.4172596037387848,1.1273388862609863,-0.30911242961883545,0.6961354613304138,0.0,0.51409912109375,-0.07273915410041809,0.0,0.0,0.8364934921264648,-0.9248809218406677,0.0,0.0,0.0,0.0,0.0,0.0],"split_indices":[0,1,1,1,0,0,1,0,0,3,1,0,0,0,0,0,0],"split_type":[0,0,0,0,0,0,0,0,0,0,0,0,0,0,0,0,0],"sum_hessian":[24.896525772522928,8.312789725656913,16.583736046866022,7.297590721160405,1.0151990044965047,8.705495667624126,7.878240379241875,5.94680915840868,1.3507815627517257,4.840263900031686,3.8652317675924466,1.1656959561342641,6.7125444231076115,3.7356002961792143,1.1046636038524715,1.6326924147432824,2.2325393528491637],"tree_param":{"num_nodes":"17","num_feature":"5","num_deleted":"0","size_leaf_vector":"1"}},{"base_weights":[-0.0035886723014754806,-0.11887177430024531,0.1521274649815455,-0.2806382824573257,0.04674492990128034,-0.10881871161453317,0.24555897980044583,-0.12614243979382625,0.2848209834069968,-0.2198831691309898,0.06146803178253295,0.05884073851425788,0.28157956407391077,0.12410671778720825,-0.24515663316356934],"categories":[],"categories_nodes":[],"categories_segments":[],"categories_sizes":[],"default_left":[1,1,0,0,0,1,0,1,0,0,0,0,0,0,0],"id":6,"left_children":[1,3,5,-1,7,9,11,13,-1,-1,-1,-1,-1,-1,-1],"loss_changes":[4.623836756801961,4.105725639258536,2.9710812476860444,0.0,3.7973814635032577,0.8427155034326841,0.3820646546412583,1.9918755404434032,0.0,0.0,0.0,0.0,0.0,0.0,0.0],"parents":[2147483647,0,0,1,1,2,2,4,4,5,5,6,6,7,7],"right_children":[2,4,6,-1,8,10,12,14,-1,-1,-1,-1,-1,-1,-1],"split_conditions":[0.08331425487995148,0.005476074293255806,-0.8153170347213745,0.0,-0.5534073710441589,0.1326267123222351,-0.5387033820152283,-0.9732920527458191,0.0,0.0,0.0,0.0,0.0,0.0,0.0],"split_indices":[0,1,1,0,0,3,1,2,0,0,0,0,0,0,0],"split_type":[0,0,0,0,0,0,0,0,0,0,0,0,0,0,0],"sum_hessian":[21.17435822006544,12.302741672981421,8.871616547084043,5.872377928041943,6.430363744939475,2.295577277572577,6.576039269511471,3.997555850391384,2.4328078945480924,1.2131099919673698,1.082467285605207,1.489341153915401,5.086698115596066,1.2746278756217617,2.7229279747696227],"tree_param":{"num_nodes":"15","num_feature":"5","num_deleted":"0","size_leaf_vector":"1"}},{"base_weights":[-0.0024016296974154034,-0.08446304698119789,0.19062317060041414,-0.2599015417717212,0.07802162074807581,-0.027723307631108942,0.27116765784877006,-0.11040906449148195,0.26892681692664216,-0.2454766086174434,0.10268807442472865],"categories":[],"categories_nodes":[],"categories_segments":[],"categories_sizes":[],"default_left":[1,1,0,0,0,0,0,1,0,0,0],"id":7,"left_children":[1,3,5,-1,7,-1,-1,9,-1,-1,-1],"loss_changes":[3.5271975279070116,4.672979314740606,1.252510128685263,0.0,3.5511992357845275,0.0,0.0,1.8039345460459293,0.0,0.0,0.0],"parents":[2147483647,0,0,1,1,2,2,4,4,7,7],"right_children":[2,4,6,-1,8,-1,-1,10,-1,-1,-1],"split_conditions":[0.51409912109375,-0.07273915410041809,-0.9248809218406677,0.0,-0.5534073710441589,0.0,0.0,0.8964971303939819,0.0,0.0,0.0],"split_indices":[0,1,1,0,0,0,0,1,0,0,0],"split_type":[0,0,0,0,0,0,0,0,0,0,0],"sum_hessian":[18.024575849077216,13.04228157477005,4.982294274307164,5.982880542991038,7.059401031779019,1.519341732302403,3.4629525420047615,3.764928498782918,3.294472532996104,2.2113558873524615,1.5535726114304567],"tree_param":{"num_nodes":"11","num_feature":"5","num_deleted":"0","size_leaf_vector":"1"}},{"base_weights":[-8.528493298229234E-05,-0.07416413746865574,0.16874336374758284,-0.22808943968185927,0.0731712634244524,-0.02288533989838372,0.25013985497836966,-0.25559316345101635,-0.06550738145159686,-0.13167046366139165,0.21960922156795218,-0.21271087309789763,0.027523732753326733,0.257107690537935,0.04649295654303193],"categories":[],"categories_nodes":[],"categories_segments":[],"categories_sizes":[],"default_left":[1,1,0,0,0,0,0,0,0,0,0,0,0,0,0],"id":8,"left_children":[1,3,5,7,9,-1,-1,-1,-1,11,13,-1,-1,-1,-1],"loss_changes":[2.424909397065248,3.2414081002819684,0.9859379541091757,0.1207182157487563,2.638876814345551,0.0,0.0,0.0,0.0,0.5701882484482182,0.18668692600173387,0.0,0.0,0.0,0.0],"parents":[2147483647,0,0,1,1,2,2,3,3,4,4,9,9,10,10],"right_children":[2,4,6,8,10,-1,-1,-1,-1,12,14,-1,-1,-1,-1],"split_conditions":[0.51409912109375,-0.03547239676117897,-0.9248809218406677,-0.07273915410041809,-0.6809953451156616,0.0,0.0,0.0,0.0,0.35098937153816223,0.438411682844162,0.0,0.0,0.0,0.0],"split_indices":[0,1,1,1,0,0,0,0,0,3,3,0,0,0,0],"split_type":[0,0,0,0,0,0,0,0,0,0,0,0,0,0,0],"sum_hessian":[15.449443011002915,11.12758183297402,4.3218611780288905,5.174032575344822,5.9535492576291835,1.502775181593486,2.8190859964354034,3.9360848158097257,1.237947759535098,2.5238951432595202,3.429654114369662,1.449719457565218,1.0741756856943026,2.420236587561569,1.0094175268080932],"tree_param":{"num_nodes":"15","num_feature":"5","num_deleted":"0","size_leaf_vector":"1"}},{"base_weights":[0.0005705062407616764,-0.04211121379115238,0.26845532446337744,-0.2098301346172774,0.057372688431249146,-0.24522038771142857,-0.06277935716829781,-0.1189684870942926,0.19510154138968092,-0.23157309277873384,0.08129468579471878,0.04647443749467177,0.24970582519565757],"categories":[],"categories_nodes":[],"categories_segments":[],"categories_sizes":[],"default_left":[1,0,0,1,0,0,0,1,1,0,0,0,0],"id":9,"left_children":[1,3,-1,5,7,-1,-1,9,11,-1,-1,-1,-1],"loss_changes":[1.9783585039228677,2.6261553296534035,0.0,0.1307933456491459,2.747016637549432,0.0,0.0,1.3783207852333828,0.3722158063129575,0.0,0.0,0.0,0.0],"parents":[2147483647,0,0,1,1,3,3,4,4,7,7,8,8],"right_children":[2,4,-1,6,8,-1,-1,10,12,-1,-1,-1,-1],"split_conditions":[1.5536305904388428,-0.30911242961883545,0.0,0.7419692873954773,-0.5206071734428406,0.0,0.0,0.8964971303939819,-0.03547239676117897,0.0,0.0,0.0,0.0],"split_indices":[0,1,0,0,0,0,0,1,1,0,0,0,0],"split_type":[0,0,0,0,0,0,0,0,0,0,0,0,0],"sum_hessian":[13.583734828873858,12.443871002874156,1.1398638259997003,4.220084955908,8.223786046966147,2.8633754251956254,1.3567095307123749,3.6661027180665746,4.557683328899569,2.246557461980071,1.419545256086504,1.7219178555456534,2.835765473353915],"tree_param":{"num_nodes":"13","num_feature":"5","num_deleted":"0","size_leaf_vector":"1"}}],"tree_info":[0,0,0,0,0,0,0,0,0,0],"iteration_indptr":[0,1,2,3,4,5,6,7,8,9,10],"cats":{"enc":[],"feature_segments":[],"sorted_idx":[]}}},"learner_model_param":{"base_score":"[4.4E-01]","boost_from_average":"1","num_feature":"5","num_class":"0","num_target":"1"},"objective":{"name":"binary:logistic","reg_loss_param":{"scale_pos_weight":"1"}}},"version":[3,2,0]}
