{"learner":{"attributes":{},"feature_names":[],"feature_types":[],"gradient_booster":{"model":{"gbtree_model_param":{"num_parallel_tree":"1","num_trees":"10"},"iteration_indptr":[0,1,2,3,4,5,6,7,8,9,10],"tree_info":[0,0,0,0,0,0,0,0,0,0],"trees":[{"base_weights":[-8.1697566E-5,-1.371628E0,8.925526E-1,-5.235875E-1,3.44424E-1,-5.5135494E-1,5.8107805E-1,-1.4006476E0,1.1307888E0,-4.975549E-1,-8.0149986E-2,-5.00833E-2,4.733674E-1],"categories":[],"categories_nodes":[],"categories_segments":[],"categories_sizes":[],"default_left":[0,1,0,0,0,1,0,0,0,0,0,0,0],"id":0,"left_children":[1,3,5,-1,-1,7,-1,9,11,-1,-1,-1,-1],"loss_changes":[6.351023E1,2.1259136E1,4.8454514E1,0E0,0E0,2.153834E1,0E0,2.4003372E0,3.3034182E0,0E0,0E0,0E0,0E0],"parents":[2147483647,0,0,1,1,2,2,5,5,7,7,8,8],"right_children":[2,4,6,-1,-1,8,-1,10,12,-1,-1,-1,-1],"split_conditions":[-2.4032539E-1,9.3128014E-1,-1.7694722E-1,-5.235875E-1,3.44424E-1,8.563988E-1,5.8107805E-1,-3.6096618E-1,-1.0025294E0,-4.975549E-1,-8.0149986E-2,-5.00833E-2,4.733674E-1],"split_indices":[1,0,0,0,0,1,0,0,0,0,0,0,0],"split_type":[0,0,0,0,0,0,0,0,0,0,0,0,0],"sum_hessian":[4.9875214E1,1.9451332E1,3.042388E1,1.7206947E1,2.2443845E0,1.2967555E1,1.7456324E1,8.728162E0,4.239393E0,6.7331533E0,1.9950085E0,1.2468803E0,2.9925127E0],"tree_param":{"num_deleted":"0","num_feature":"5","num_nodes":"13","size_leaf_vector":"1"}},{"base_weights":[-6.103415E-4,-8.8644713E-1,8.1472194E-1,-4.1777745E-1,7.273225E-1,-8.356907E-1,1.3264027E0,-1.612345E-1,1.1271685E0,-3.6998582E-1,5.532453E-2,4.864267E-1,4.4512182E-1,3.9576295E-1,1.104971E-1,-2.7142283E-1,3.695435E-1],"categories":[],"categories_nodes":[],"categories_segments":[],"categories_sizes":[],"default_left":[1,1,0,0,0,0,0,0,0,0,0,0,0,0,0,0,0],"id":1,"left_children":[1,3,5,-1,7,9,11,-1,13,-1,-1,15,-1,-1,-1,-1,-1],"loss_changes":[3.5191128E1,2.0086866E1,2.2534864E1,0E0,3.7575974E0,2.9116502E0,1.8889542E0,0E0,2.5123549E-1,0E0,0E0,5.8887873E0,0E0,0E0,0E0,0E0,0E0],"parents":[2147483647,0,0,1,1,2,2,4,4,5,5,6,6,8,8,11,11],"right_children":[2,4,6,-1,8,10,12,-1,14,-1,-1,16,-1,-1,-1,-1,-1],"split_conditions":[-1.382643E-1,6.487099E-1,-6.929096E-1,-4.1777745E-1,-1.1105758E0,8.3392215E-1,-2.811003E-1,-1.612345E-1,6.8626016E-1,-3.6998582E-1,5.532453E-2,2.8916866E-1,4.4512182E-1,3.9576295E-1,1.104971E-1,-2.7142283E-1,3.695435E-1],"split_indices":[1,0,0,0,1,1,0,0,2,0,0,1,0,0,0,0,0],"split_type":[0,0,0,0,0,0,0,0,0,0,0,0,0,0,0,0,0],"sum_hessian":[4.6724274E1,2.2352095E1,2.4372177E1,1.7119709E1,5.2323866E0,5.618057E0,1.875412E1,1.1741719E0,4.0582147E0,3.892098E0,1.725959E0,3.6041608E0,1.514996E1,2.649308E0,1.4089066E0,1.1828059E0,2.4213548E0],"tree_param":{"num_deleted":"0","num_feature":"5","num_nodes":"17","size_leaf_vector":"1"}},{"base_weights":[1.0728827E-3,-9.108647E-1,5.6897485E-1,-3.63258E-1,2.3648645E-1,-3.7256986E-1,1.2754492E0,-3.6908403E-1,4.8006415E-1,1.0181909E-1,3.9699963E-1,-1.771429E-1,3.6294013E-1],"categories":[],"categories_nodes":[],"categories_segments":[],"categories_sizes":[],"default_left":[0,1,0,0,0,1,0,0,0,0,0,0,0],"id":2,"left_children":[1,3,5,-1,-1,7,9,-1,11,-1,-1,-1,-1],"loss_changes":[2.240994E1,9.419366E0,1.8211823E1,0E0,0E0,9.51592E0,2.437954E-1,0E0,6.0575976E0,0E0,0E0,0E0,0E0],"parents":[2147483647,0,0,1,1,2,2,5,5,6,6,8,8],"right_children":[2,4,6,-1,-1,8,10,-1,12,-1,-1,-1,-1],"split_conditions":[-2.4032539E-1,9.3128014E-1,-1.7694722E-1,-3.63258E-1,2.3648645E-1,3.26133E-1,-1.1473644E-1,-3.6908403E-1,-7.778167E-1,1.0181909E-1,3.9699963E-1,-1.771429E-1,3.6294013E-1],"split_indices":[1,0,0,0,0,1,1,0,0,0,0,0,0],"split_type":[0,0,0,0,0,0,0,0,0,0,0,0,0],"sum_hessian":[4.1270817E1,1.5606297E1,2.566452E1,1.3508641E1,2.097655E0,1.1204499E1,1.446002E1,5.3648214E0,5.839678E0,1.0972954E0,1.3362725E1,2.444449E0,3.3952289E0],"tree_param":{"num_deleted":"0","num_feature":"5","num_nodes":"13","size_leaf_vector":"1"}},{"base_weights":[5.1462403E-3,-7.874531E-1,4.937226E-1,-1.075715E0,1.9862859E-1,-3.1895813E-1,1.1293948E0,-3.395755E-1,-9.121603E-2,-3.256015E-1,4.0408763E-1,7.3641546E-2,3.5652882E-1,-1.4530154E-1,3.1370696E-1],"categories":[],"categories_nodes":[],"categories_segments":[],"categories_sizes":[],"default_left":[0,1,0,1,0,1,0,0,0,0,0,0,0,0,0],"id":3,"left_children":[1,3,5,7,-1,9,11,-1,-1,-1,13,-1,-1,-1,-1],"loss_changes":[1.4339833E1,6.613945E0,1.2191556E1,1.833086E-1,0E0,6.4405904E0,3.903408E-1,0E0,0E0,0E0,4.0987086E0,0E0,0E0,0E0,0E0],"parents":[2147483647,0,0,1,1,2,2,3,3,5,5,6,6,10,10],"right_children":[2,4,6,8,-1,10,12,-1,-1,-1,14,-1,-1,-1,-1],"split_conditions":[-2.4032539E-1,9.3128014E-1,-1.7694722E-1,7.077519E-1,1.9862859E-1,3.26133E-1,9.6995965E-2,-3.395755E-1,-9.121603E-2,-3.256015E-1,-7.778167E-1,7.3641546E-2,3.5652882E-1,-1.4530154E-1,3.1370696E-1],"split_indices":[1,0,0,0,0,1,0,0,0,0,0,0,0,0,0],"split_type":[0,0,0,0,0,0,0,0,0,0,0,0,0,0,0],"sum_hessian":[3.502639E1,1.312403E1,2.1902359E1,1.116218E1,1.9618509E0,9.831468E0,1.2070891E1,9.969222E0,1.1929578E0,4.5294695E0,5.3019986E0,1.078634E0,1.0992257E1,2.3261256E0,2.9758732E0],"tree_param":{"num_deleted":"0","num_feature":"5","num_nodes":"15","size_leaf_vector":"1"}},{"base_weights":[5.1157163E-3,-4.1115957E-1,7.5778383E-1,-9.8942816E-1,4.5104623E-1,-2.367649E-1,9.976398E-1,-3.0831185E-1,-8.570234E-2,-5.0213486E-1,8.9951223E-1,4.761892E-2,3.2647353E-1,-2.4642308E-1,1.1323115E-2,2.9792967E-1,9.0421066E-2],"categories":[],"categories_nodes":[],"categories_segments":[],"categories_sizes":[],"default_left":[1,1,0,1,0,0,0,0,0,1,0,0,0,0,0,0,0],"id":4,"left_children":[1,3,5,7,9,-1,11,-1,-1,13,15,-1,-1,-1,-1,-1,-1],"loss_changes":[9.823881E0,1.0516078E1,4.9295807E0,4.0498734E-2,4.2111406E0,0E0,5.954561E-1,0E0,0E0,6.266575E-1,5.5503845E-2,0E0,0E0,0E0,0E0,0E0,0E0],"parents":[2147483647,0,0,1,1,2,2,3,3,4,4,6,6,9,9,10,10],"right_children":[2,4,6,8,10,-1,12,-1,-1,14,16,-1,-1,-1,-1,-1,-1],"split_conditions":[2.8916866E-1,2.7045682E-1,-1.2477832E0,1.2922119E-1,-8.3921754E-1,-2.367649E-1,-7.778167E-1,-3.0831185E-1,-8.570234E-2,1.3296968E-1,1.2557561E0,4.761892E-2,3.2647353E-1,-2.4642308E-1,1.1323115E-2,2.9792967E-1,9.0421066E-2],"split_indices":[1,0,0,0,1,0,0,0,0,2,3,0,0,0,0,0,0],"split_type":[0,0,0,0,0,0,0,0,0,0,0,0,0,0,0,0,0],"sum_hessian":[2.9360008E1,1.9196695E1,1.0163313E1,1.1401994E1,7.7947016E0,1.0568116E0,9.106502E0,1.0377242E1,1.0247512E0,2.4556751E0,5.3390265E0,1.1559058E0,7.9505954E0,1.2154222E0,1.2402529E0,4.0456076E0,1.2934189E0],"tree_param":{"num_deleted":"0","num_feature":"5","num_nodes":"17","size_leaf_vector":"1"}},{"base_weights":[1.4997576E-3,-6.11024E-1,4.4456667E-1,-3.0661163E-1,3.0784193E-1,-2.3893678E-1,3.0965018E-1,6.791584E-1,-1.21984065E-1,-6.298195E-1,2.2575502E-1,6.2423706E-2,2.532429E-1,-2.7359158E-1,-5.048652E-2],"categories":[],"categories_nodes":[],"categories_segments":[],"categories_sizes":[],"default_left":[0,1,0,0,0,1,0,1,0,0,0,0,0,0,0],"id":5,"left_children":[1,3,5,-1,7,9,-1,11,-1,13,-1,-1,-1,-1,-1],"loss_changes":[7.362564E0,4.615528E0,6.5683103E0,0E0,1.413749E0,3.608519E0,0E0,7.275903E-2,0E0,6.728606E-1,0E0,0E0,0E0,0E0,0E0],"parents":[2147483647,0,0,1,1,2,2,4,4,5,5,7,7,9,9],"right_children":[2,4,6,-1,8,10,-1,12,-1,14,-1,-1,-1,-1,-1],"split_conditions":[-1.382643E-1,6.487099E-1,-1.7694722E-1,-3.0661163E-1,1.1428229E0,1.1593298E0,3.0965018E-1,1.3296968E-1,-1.21984065E-1,-7.778167E-1,2.2575502E-1,6.2423706E-2,2.532429E-1,-2.7359158E-1,-5.048652E-2],"split_indices":[1,0,0,0,3,1,0,2,0,0,0,0,0,0,0],"split_type":[0,0,0,0,0,0,0,0,0,0,0,0,0,0,0],"sum_hessian":[2.5128262E1,1.0388065E1,1.4740197E1,7.099935E0,3.28813E0,7.088335E0,7.651862E0,2.1961515E0,1.0919785E0,5.34558E0,1.7427553E0,1.1561649E0,1.0399865E0,2.7117863E0,2.6337936E0],"tree_param":{"num_deleted":"0","num_feature":"5","num_nodes":"15","size_leaf_vector":"1"}},{"base_weights":[4.804492E-3,-5.853398E-1,3.6910933E-1,-2.6103994E-1,1.3585436E-1,-1.6799949E-1,2.9065832E-1,-2.4530417E-1,3.626582E-1,-9.0052456E-2,2.5179496E-1],"categories":[],"categories_nodes":[],"categories_segments":[],"categories_sizes":[],"default_left":[0,1,0,0,0,1,0,0,0,0,0],"id":6,"left_children":[1,3,5,-1,-1,7,-1,-1,9,-1,-1],"loss_changes":[5.0234537E0,3.0318894E0,4.814077E0,0E0,0E0,3.2165055E0,0E0,0E0,1.9436951E0,0E0,0E0],"parents":[2147483647,0,0,1,1,2,2,5,5,8,8],"right_children":[2,4,6,-1,-1,8,-1,-1,10,-1,-1],"split_conditions":[-2.4032539E-1,9.3128014E-1,9.6995965E-2,-2.6103994E-1,1.3585436E-1,3.26133E-1,2.9065832E-1,-2.4530417E-1,-7.778167E-1,-9.0052456E-2,2.5179496E-1],"split_indices":[1,0,0,0,0,1,0,0,0,0,0],"split_type":[0,0,0,0,0,0,0,0,0,0,0],"sum_hessian":[2.1360783E1,7.92164E0,1.3439144E1,6.3434043E0,1.5782355E0,7.469607E0,5.969537E0,3.1150224E0,4.3545847E0,1.9764366E0,2.378148E0],"tree_param":{"num_deleted":"0","num_feature":"5","num_nodes":"11","size_leaf_vector":"1"}},{"base_weights":[9.813761E-3,-3.0210444E-1,5.6187695E-1,-7.876818E-1,3.261735E-1,-7.4308604E-2,2.699096E-1,-2.7021834E-1,-3.2773006E-1,-3.250429E-1,2.3514691E-1,-1.666731E-1,1.8765356E-2,-1.994432E-1,6.3402735E-2],"categories":[],"categories_nodes":[],"categories_segments":[],"categories_sizes":[],"default_left":[1,1,0,1,0,0,0,0,0,0,0,0,0,0,0],"id":7,"left_children":[1,3,5,7,9,-1,-1,-1,11,13,-1,-1,-1,-1,-1],"loss_changes":[3.433904E0,4.15051E0,2.190117E0,9.433937E-2,2.1236978E0,0E0,0E0,0E0,3.0596957E-1,7.410052E-1,0E0,0E0,0E0,0E0,0E0],"parents":[2147483647,0,0,1,1,2,2,3,3,4,4,8,8,9,9],"right_children":[2,4,6,8,10,-1,-1,-1,12,14,-1,-1,-1,-1,-1],"split_conditions":[2.8916866E-1,2.7045682E-1,-7.778167E-1,-9.671311E-2,-7.2713715E-1,-7.4308604E-2,2.699096E-1,-2.7021834E-1,-3.6096618E-1,9.2617756E-1,2.3514691E-1,-1.666731E-1,1.8765356E-2,-1.994432E-1,6.3402735E-2],"split_indices":[1,0,0,1,1,0,0,0,0,0,0,0,0,0,0],"split_type":[0,0,0,0,0,0,0,0,0,0,0,0,0,0,0],"sum_hessian":[1.7955782E1,1.176262E1,6.1931615E0,6.4916787E0,5.2709413E0,1.9019715E0,4.29119E0,4.441698E0,2.0499804E0,2.2950025E0,2.9759386E0,1.0269282E0,1.0230523E0,1.2584335E0,1.0365691E0],"tree_param":{"num_deleted":"0","num_feature":"5","num_nodes":"15","size_leaf_vector":"1"}},{"base_weights":[8.1912475E-4,-2.800563E-1,5.0097007E-1,-6.887274E-1,3.3798277E-1,-6.1266664E-2,2.5189626E-1,-2.5572E-1,-2.7721345E-1,-2.7694288E-1,2.507262E-1,-1.9310616E-1,9.487385E-2,-1.779934E-1,5.4725073E-2],"categories":[],"categories_nodes":[],"categories_segments":[],"categories_sizes":[],"default_left":[1,1,0,0,0,0,0,0,0,0,0,0,0,0,0],"id":8,"left_children":[1,3,5,7,9,-1,-1,-1,11,13,-1,-1,-1,-1,-1],"loss_changes":[2.4499915E0,3.0540679E0,1.6692954E0,2.3875833E-1,1.7977171E0,0E0,0E0,0E0,9.6237063E-1,5.5005383E-1,0E0,0E0,0E0,0E0,0E0],"parents":[2147483647,0,0,1,1,2,2,3,3,4,4,8,8,9,9],"right_children":[2,4,6,8,10,-1,-1,-1,12,14,-1,-1,-1,-1,-1],"split_conditions":[2.8916866E-1,3.8406545E-1,-7.778167E-1,5.9218433E-2,-7.2713715E-1,-6.1266664E-2,2.5189626E-1,-2.5572E-1,-2.4032539E-1,9.2617756E-1,2.507262E-1,-1.9310616E-1,9.487385E-2,-1.779934E-1,5.4725073E-2],"split_indices":[1,0,0,0,1,0,0,0,1,0,0,0,0,0,0],"split_type":[0,0,0,0,0,0,0,0,0,0,0,0,0,0,0],"sum_hessian":[1.5441414E1,1.017012E1,5.2712936E0,6.0531626E0,4.1169577E0,1.8390734E0,3.4322202E0,3.564192E0,2.4889705E0,2.0402062E0,2.0767515E0,1.4864321E0,1.0025383E0,1.035462E0,1.0047442E0],"tree_param":{"num_deleted":"0","num_feature":"5","num_nodes":"15","size_leaf_vector":"1"}},{"base_weights":[-1.4777269E-3,-1.8218671E-1,2.203688E-1,-5.8291805E-1,2.3875757E-1,-2.2002257E-1,-4.1901592E-2,-3.5498092E-1,6.3568014E-1,-1.837584E-1,2.751551E-2,3.9823003E-2,2.393179E-1],"categories":[],"categories_nodes":[],"categories_segments":[],"categories_sizes":[],"default_left":[1,0,0,1,0,0,0,1,1,0,0,0,0],"id":9,"left_children":[1,3,-1,5,7,-1,-1,9,11,-1,-1,-1,-1],"loss_changes":[2.0286865E0,2.203748E0,0E0,3.3519053E-1,1.7995582E0,0E0,0E0,4.3784535E-1,2.4952209E-1,0E0,0E0,0E0,0E0],"parents":[2147483647,0,0,1,1,3,3,4,4,7,7,8,8],"right_children":[2,4,-1,6,8,-1,-1,10,12,-1,-1,-1,-1],"split_conditions":[9.551423E-1,2.1101747E-1,2.203688E-1,3.26133E-1,-7.2713715E-1,-2.2002257E-1,-4.1901592E-2,8.356921E-1,3.8406545E-1,-1.837584E-1,2.751551E-2,3.9823003E-2,2.393179E-1],"split_indices":[1,0,0,1,1,0,0,0,0,0,0,0,0],"split_type":[0,0,0,0,0,0,0,0,0,0,0,0,0],"sum_hessian":[1.3246083E1,1.1239174E1,2.0069091E0,5.560701E0,5.6784735E0,3.6625607E0,1.8981401E0,2.3174987E0,3.3609746E0,1.2345059E0,1.0829928E0,1.2623218E0,2.0986526E0],"tree_param":{"num_deleted":"0","num_feature":"5","num_nodes":"13","size_leaf_vector":"1"}}]},"name":"gbtree"},"learner_model_param":{"base_score":"4.750208E-1","boost_from_average":"1","num_class":"0","num_feature":"5","num_target":"1"},"objective":{"name":"binary:logistic","reg_loss_param":{"scale_pos_weight":"1"}}},"version":[2,1,4]}