[
  { "nodeid": 0, "depth": 0, "split": "f2", "split_condition": -0.108760148, "yes": 1, "no": 2, "missing": 2 , "gain": 78.9848709, "cover": 90.5568085, "children": [
    { "nodeid": 1, "depth": 1, "split": "f1", "split_condition": -1.25850487, "yes": 3, "no": 4, "missing": 4 , "gain": 7.32525253, "cover": 40.4517746, "children": [
      { "nodeid": 3, "depth": 2, "split": "f5", "split_condition": -0.165631413, "yes": 7, "no": 8, "missing": 8 , "gain": 1.83629048, "cover": 4.59679222, "children": [
        { "nodeid": 7, "leaf": -0.036760848 , "cover": 2.29839611 }, 
        { "nodeid": 8, "depth": 3, "split": "f1", "split_condition": -1.56785941, "yes": 15, "no": 16, "missing": 16 , "gain": 0.202489972, "cover": 2.29839611, "children": [
          { "nodeid": 15, "leaf": 0.0701745823 , "cover": 1.14919806 }, 
          { "nodeid": 16, "leaf": 0.00666634878 , "cover": 1.14919806 }
        ]}
      ]}, 
      { "nodeid": 4, "depth": 2, "split": "f1", "split_condition": 1.07250738, "yes": 9, "no": 10, "missing": 10 , "gain": 4.99310684, "cover": 35.8549805, "children": [
        { "nodeid": 9, "depth": 3, "split": "f3", "split_condition": 1.27886581, "yes": 17, "no": 18, "missing": 18 , "gain": 1.23213577, "cover": 29.1896324, "children": [
          { "nodeid": 17, "depth": 4, "split": "f8", "split_condition": -1.63948417, "yes": 27, "no": 28, "missing": 28 , "gain": 0.234241486, "cover": 27.3509159, "children": [
            { "nodeid": 27, "leaf": -0.0250877682 , "cover": 1.14919806 }, 
            { "nodeid": 28, "leaf": -0.141173854 , "cover": 26.2017174 }
          ]}, 
          { "nodeid": 18, "leaf": -0.0225101672 , "cover": 1.83871698 }
        ]}, 
        { "nodeid": 10, "depth": 3, "split": "f2", "split_condition": -0.54872489, "yes": 19, "no": 20, "missing": 20 , "gain": 2.74557447, "cover": 6.66534901, "children": [
          { "nodeid": 19, "depth": 4, "split": "f3", "split_condition": 0.194736198, "yes": 29, "no": 30, "missing": 30 , "gain": 1.78668809, "cover": 4.59679222, "children": [
            { "nodeid": 29, "leaf": -0.0933088288 , "cover": 2.98791504 }, 
            { "nodeid": 30, "leaf": 0.013686006 , "cover": 1.60887742 }
          ]}, 
          { "nodeid": 20, "leaf": 0.0436981954 , "cover": 2.06855655 }
        ]}
      ]}
    ]}, 
    { "nodeid": 2, "depth": 1, "split": "f3", "split_condition": 0.19655478, "yes": 5, "no": 6, "missing": 6 , "gain": 51.3538933, "cover": 50.1050377, "children": [
      { "nodeid": 5, "depth": 2, "split": "f2", "split_condition": 1.44194496, "yes": 11, "no": 12, "missing": 12 , "gain": 15.2384024, "cover": 28.0404339, "children": [
        { "nodeid": 11, "depth": 3, "split": "f1", "split_condition": 0.917861938, "yes": 21, "no": 22, "missing": 22 , "gain": 4.3704257, "cover": 23.2138023, "children": [
          { "nodeid": 21, "depth": 4, "split": "f3", "split_condition": -0.0979152471, "yes": 31, "no": 32, "missing": 32 , "gain": 4.47993851, "cover": 20.2258873, "children": [
            { "nodeid": 31, "depth": 5, "split": "f1", "split_condition": -0.647541821, "yes": 39, "no": 40, "missing": 40 , "gain": 1.42892456, "cover": 16.7782917, "children": [
              { "nodeid": 39, "depth": 6, "split": "f6", "split_condition": 0.5514763, "yes": 43, "no": 44, "missing": 44 , "gain": 4.47089958, "cover": 4.82663202, "children": [
                { "nodeid": 43, "leaf": -0.0768947229 , "cover": 3.21775484 }, 
                { "nodeid": 44, "leaf": 0.0691049024 , "cover": 1.60887742 }
              ]}, 
              { "nodeid": 40, "depth": 6, "split": "f1", "split_condition": 0.582097709, "yes": 45, "no": 46, "missing": 46 , "gain": 1.33282948, "cover": 11.9516602, "children": [
                { "nodeid": 45, "leaf": -0.1165879 , "cover": 8.50406647 }, 
                { "nodeid": 46, "depth": 7, "split": "f9", "split_condition": -0.206611276, "yes": 47, "no": 48, "missing": 48 , "gain": 1.1696403, "cover": 3.4475944, "children": [
                  { "nodeid": 47, "leaf": -0.0635706484 , "cover": 1.37903774 }, 
                  { "nodeid": 48, "leaf": 0.0191194545 , "cover": 2.06855655 }
                ]}
              ]}
            ]}, 
            { "nodeid": 32, "depth": 5, "split": "f4", "split_condition": -0.487202913, "yes": 41, "no": 42, "missing": 42 , "gain": 1.7991246, "cover": 3.4475944, "children": [
              { "nodeid": 41, "leaf": -0.0339764245 , "cover": 1.37903774 }, 
              { "nodeid": 42, "leaf": 0.0682769343 , "cover": 2.06855655 }
            ]}
          ]}, 
          { "nodeid": 22, "depth": 4, "split": "f1", "split_condition": 1.51115489, "yes": 33, "no": 34, "missing": 34 , "gain": 0.626648903, "cover": 2.98791504, "children": [
            { "nodeid": 33, "leaf": 0.0691049024 , "cover": 1.60887742 }, 
            { "nodeid": 34, "leaf": -0.00438219961 , "cover": 1.37903774 }
          ]}
        ]}, 
        { "nodeid": 12, "depth": 3, "split": "f3", "split_condition": -1.14300489, "yes": 23, "no": 24, "missing": 24 , "gain": 1.75798416, "cover": 4.82663202, "children": [
          { "nodeid": 23, "leaf": 0.013686006 , "cover": 1.60887742 }, 
          { "nodeid": 24, "leaf": 0.15308927 , "cover": 3.21775484 }
        ]}
      ]}, 
      { "nodeid": 6, "depth": 2, "split": "f6", "split_condition": 1.41960299, "yes": 13, "no": 14, "missing": 14 , "gain": 3.51898956, "cover": 22.0646038, "children": [
        { "nodeid": 13, "depth": 3, "split": "f2", "split_condition": 0.0493083298, "yes": 25, "no": 26, "missing": 26 , "gain": 2.03238678, "cover": 20.9154053, "children": [
          { "nodeid": 25, "depth": 4, "split": "f2", "split_condition": -0.0235521514, "yes": 35, "no": 36, "missing": 36 , "gain": 2.04431486, "cover": 2.75807548, "children": [
            { "nodeid": 35, "leaf": 0.0968143567 , "cover": 1.60887742 }, 
            { "nodeid": 36, "leaf": -0.0250877682 , "cover": 1.14919806 }
          ]}, 
          { "nodeid": 26, "depth": 4, "split": "f4", "split_condition": -1.77601171, "yes": 37, "no": 38, "missing": 38 , "gain": 0.576675415, "cover": 18.1573296, "children": [
            { "nodeid": 37, "leaf": 0.0384204648 , "cover": 1.14919806 }, 
            { "nodeid": 38, "leaf": 0.21836476 , "cover": 17.0081329 }
          ]}
        ]}, 
        { "nodeid": 14, "leaf": 0.00666634878 , "cover": 1.14919806 }
      ]}
    ]}
  ]},
  { "nodeid": 0, "depth": 0, "split": "f2", "split_condition": -0.108760148, "yes": 1, "no": 2, "missing": 2 , "gain": 66.4880905, "cover": 89.3637238, "children": [
    { "nodeid": 1, "depth": 1, "split": "f3", "split_condition": 0.557810307, "yes": 3, "no": 4, "missing": 4 , "gain": 5.61938858, "cover": 37.428688, "children": [
      { "nodeid": 3, "depth": 2, "split": "f1", "split_condition": -1.25850487, "yes": 7, "no": 8, "missing": 8 , "gain": 2.78023529, "cover": 28.2038918, "children": [
        { "nodeid": 7, "leaf": -0.00590320211 , "cover": 2.07267141 }, 
        { "nodeid": 8, "leaf": -0.131903514 , "cover": 26.1312218 }
      ]}, 
      { "nodeid": 4, "depth": 2, "split": "f2", "split_condition": -0.879282773, "yes": 9, "no": 10, "missing": 10 , "gain": 5.18471813, "cover": 9.22479725, "children": [
        { "nodeid": 9, "depth": 3, "split": "f3", "split_condition": 0.757921875, "yes": 15, "no": 16, "missing": 16 , "gain": 1.21025991, "cover": 5.85599709, "children": [
          { "nodeid": 15, "leaf": 0.00766535243 , "cover": 1.13936901 }, 
          { "nodeid": 16, "leaf": -0.0918238088 , "cover": 4.71662807 }
        ]}, 
        { "nodeid": 10, "depth": 3, "split": "f8", "split_condition": -0.426357597, "yes": 17, "no": 18, "missing": 18 , "gain": 2.17345405, "cover": 3.36879969, "children": [
          { "nodeid": 17, "leaf": 0.100051299 , "cover": 1.58043289 }, 
          { "nodeid": 18, "leaf": -0.018612301 , "cover": 1.78836691 }
        ]}
      ]}
    ]}, 
    { "nodeid": 2, "depth": 1, "split": "f3", "split_condition": -0.0979152471, "yes": 5, "no": 6, "missing": 6 , "gain": 55.3692856, "cover": 51.9350357, "children": [
      { "nodeid": 5, "depth": 2, "split": "f2", "split_condition": 1.58601677, "yes": 11, "no": 12, "missing": 12 , "gain": 14.78759, "cover": 24.8069229, "children": [
        { "nodeid": 11, "depth": 3, "split": "f8", "split_condition": -1.70338249, "yes": 19, "no": 20, "missing": 20 , "gain": 3.12850571, "cover": 21.2578316, "children": [
          { "nodeid": 19, "leaf": 0.041128628 , "cover": 1.12563121 }, 
          { "nodeid": 20, "depth": 4, "split": "f6", "split_condition": 0.257752538, "yes": 23, "no": 24, "missing": 24 , "gain": 2.15615368, "cover": 20.1322002, "children": [
            { "nodeid": 23, "leaf": -0.10407275 , "cover": 12.6069498 }, 
            { "nodeid": 24, "depth": 5, "split": "f7", "split_condition": -0.247518629, "yes": 27, "no": 28, "missing": 28 , "gain": 2.24435782, "cover": 7.52525043, "children": [
              { "nodeid": 27, "depth": 6, "split": "f8", "split_condition": -0.0164228957, "yes": 31, "no": 32, "missing": 32 , "gain": 1.34277952, "cover": 3.65876985, "children": [
                { "nodeid": 31, "depth": 7, "split": "f6", "split_condition": 0.678946972, "yes": 37, "no": 38, "missing": 38 , "gain": 1.95448339, "cover": 2.30688643, "children": [
                  { "nodeid": 37, "leaf": -0.0239780713 , "cover": 1.13618171 }, 
                  { "nodeid": 38, "leaf": 0.0986198708 , "cover": 1.17070472 }
                ]}, 
                { "nodeid": 32, "leaf": -0.0317192785 , "cover": 1.35188329 }
              ]}, 
              { "nodeid": 28, "depth": 6, "split": "f2", "split_condition": 0.0861108676, "yes": 33, "no": 34, "missing": 34 , "gain": 1.03501153, "cover": 3.86648083, "children": [
                { "nodeid": 33, "leaf": 0.00680967746 , "cover": 1.14653134 }, 
                { "nodeid": 34, "leaf": -0.0885314122 , "cover": 2.71994948 }
              ]}
            ]}
          ]}
        ]}, 
        { "nodeid": 12, "leaf": 0.112132706 , "cover": 3.54909039 }
      ]}, 
      { "nodeid": 6, "depth": 2, "split": "f1", "split_condition": 1.64061451, "yes": 13, "no": 14, "missing": 14 , "gain": 5.77867126, "cover": 27.1281128, "children": [
        { "nodeid": 13, "depth": 3, "split": "f6", "split_condition": 1.6286155, "yes": 21, "no": 22, "missing": 22 , "gain": 2.91726685, "cover": 25.2289677, "children": [
          { "nodeid": 21, "depth": 4, "split": "f8", "split_condition": 1.42730534, "yes": 25, "no": 26, "missing": 26 , "gain": 1.42907715, "cover": 24.0776043, "children": [
            { "nodeid": 25, "depth": 5, "split": "f2", "split_condition": 0.132969677, "yes": 29, "no": 30, "missing": 30 , "gain": 2.83664703, "cover": 22.4145489, "children": [
              { "nodeid": 29, "depth": 6, "split": "f6", "split_condition": -1.15099359, "yes": 35, "no": 36, "missing": 36 , "gain": 2.44076276, "cover": 4.9169488, "children": [
                { "nodeid": 35, "leaf": -0.024960855 , "cover": 1.14722848 }, 
                { "nodeid": 36, "leaf": 0.102046229 , "cover": 3.76972032 }
              ]}, 
              { "nodeid": 30, "leaf": 0.209231406 , "cover": 17.4976006 }
            ]}, 
            { "nodeid": 26, "leaf": 0.0344976597 , "cover": 1.66305494 }
          ]}, 
          { "nodeid": 22, "leaf": 0.00641843304 , "cover": 1.15136385 }
        ]}, 
        { "nodeid": 14, "leaf": -0.0031838913 , "cover": 1.89914536 }
      ]}
    ]}
  ]},
  { "nodeid": 0, "depth": 0, "split": "f2", "split_condition": -0.0796413943, "yes": 1, "no": 2, "missing": 2 , "gain": 58.4320946, "cover": 87.7180557, "children": [
    { "nodeid": 1, "depth": 1, "split": "f1", "split_condition": 1.09098041, "yes": 3, "no": 4, "missing": 4 , "gain": 2.48667526, "cover": 37.7485313, "children": [
      { "nodeid": 3, "depth": 2, "split": "f1", "split_condition": -1.25850487, "yes": 7, "no": 8, "missing": 8 , "gain": 2.48437881, "cover": 30.4988976, "children": [
        { "nodeid": 7, "depth": 3, "split": "f2", "split_condition": -1.14301932, "yes": 15, "no": 16, "missing": 16 , "gain": 1.67787504, "cover": 4.08671999, "children": [
          { "nodeid": 15, "leaf": -0.067949675 , "cover": 1.58704734 }, 
          { "nodeid": 16, "depth": 4, "split": "f2", "split_condition": -0.596974313, "yes": 29, "no": 30, "missing": 30 , "gain": 3.06732273, "cover": 2.49967265, "children": [
            { "nodeid": 29, "leaf": 0.0847604349 , "cover": 1.37504506 }, 
            { "nodeid": 30, "leaf": -0.0547469445 , "cover": 1.12462771 }
          ]}
        ]}, 
        { "nodeid": 8, "depth": 3, "split": "f9", "split_condition": 1.32893336, "yes": 17, "no": 18, "missing": 18 , "gain": 0.306488037, "cover": 26.412178, "children": [
          { "nodeid": 17, "depth": 4, "split": "f4", "split_condition": -1.86974168, "yes": 31, "no": 32, "missing": 32 , "gain": 0.254024506, "cover": 25.3483906, "children": [
            { "nodeid": 31, "leaf": -0.0193935595 , "cover": 1.08255374 }, 
            { "nodeid": 32, "leaf": -0.122330047 , "cover": 24.2658367 }
          ]}, 
          { "nodeid": 18, "leaf": -0.0176389106 , "cover": 1.06378698 }
        ]}
      ]}, 
      { "nodeid": 4, "depth": 2, "split": "f8", "split_condition": 0.228996396, "yes": 9, "no": 10, "missing": 10 , "gain": 3.11145926, "cover": 7.24963474, "children": [
        { "nodeid": 9, "depth": 3, "split": "f5", "split_condition": 0.26587823, "yes": 19, "no": 20, "missing": 20 , "gain": 2.17320848, "cover": 4.40976906, "children": [
          { "nodeid": 19, "depth": 4, "split": "f1", "split_condition": 1.39200234, "yes": 33, "no": 34, "missing": 34 , "gain": 1.60506356, "cover": 2.68207216, "children": [
            { "nodeid": 33, "leaf": 0.104572847 , "cover": 1.12951398 }, 
            { "nodeid": 34, "leaf": -0.00931903999 , "cover": 1.55255818 }
          ]}, 
          { "nodeid": 20, "leaf": -0.0412146784 , "cover": 1.72769678 }
        ]}, 
        { "nodeid": 10, "leaf": -0.0868363753 , "cover": 2.83986568 }
      ]}
    ]}, 
    { "nodeid": 2, "depth": 1, "split": "f2", "split_condition": 0.343787879, "yes": 5, "no": 6, "missing": 6 , "gain": 9.58408928, "cover": 49.9695206, "children": [
      { "nodeid": 5, "depth": 2, "split": "f7", "split_condition": -0.309212387, "yes": 11, "no": 12, "missing": 12 , "gain": 5.65971136, "cover": 16.0480232, "children": [
        { "nodeid": 11, "depth": 3, "split": "f1", "split_condition": -0.505746722, "yes": 21, "no": 22, "missing": 22 , "gain": 0.880017281, "cover": 5.00837803, "children": [
          { "nodeid": 21, "leaf": 0.00369106606 , "cover": 1.15003633 }, 
          { "nodeid": 22, "leaf": -0.0859725773 , "cover": 3.85834146 }
        ]}, 
        { "nodeid": 12, "depth": 3, "split": "f1", "split_condition": 0.917861938, "yes": 23, "no": 24, "missing": 24 , "gain": 3.34755945, "cover": 11.0396461, "children": [
          { "nodeid": 23, "depth": 4, "split": "f9", "split_condition": -0.491636187, "yes": 35, "no": 36, "missing": 36 , "gain": 2.28029203, "cover": 8.6417017, "children": [
            { "nodeid": 35, "leaf": -0.0564873181 , "cover": 2.22807026 }, 
            { "nodeid": 36, "depth": 5, "split": "f8", "split_condition": 0.123204805, "yes": 43, "no": 44, "missing": 44 , "gain": 2.63773513, "cover": 6.41363192, "children": [
              { "nodeid": 43, "leaf": 0.0810582638 , "cover": 3.02188063 }, 
              { "nodeid": 44, "depth": 6, "split": "f8", "split_condition": 0.65045011, "yes": 51, "no": 52, "missing": 52 , "gain": 1.63543403, "cover": 3.39175105, "children": [
                { "nodeid": 51, "leaf": -0.0666771978 , "cover": 1.5679543 }, 
                { "nodeid": 52, "leaf": 0.0296652764 , "cover": 1.82379687 }
              ]}
            ]}
          ]}, 
          { "nodeid": 24, "leaf": 0.112300932 , "cover": 2.39794421 }
        ]}
      ]}, 
      { "nodeid": 6, "depth": 2, "split": "f1", "split_condition": -0.924466014, "yes": 13, "no": 14, "missing": 14 , "gain": 4.61634827, "cover": 33.9214973, "children": [
        { "nodeid": 13, "depth": 3, "split": "f1", "split_condition": -1.43586218, "yes": 25, "no": 26, "missing": 26 , "gain": 1.98678112, "cover": 6.72415352, "children": [
          { "nodeid": 25, "depth": 4, "split": "f1", "split_condition": -2.15339017, "yes": 37, "no": 38, "missing": 38 , "gain": 1.93786132, "cover": 4.558887, "children": [
            { "nodeid": 37, "leaf": -0.0307048764 , "cover": 1.18269765 }, 
            { "nodeid": 38, "depth": 5, "split": "f4", "split_condition": -0.177917883, "yes": 45, "no": 46, "missing": 46 , "gain": 0.87844491, "cover": 3.37618947, "children": [
              { "nodeid": 45, "leaf": 0.103345394 , "cover": 1.72966671 }, 
              { "nodeid": 46, "leaf": 0.00663014269 , "cover": 1.64652264 }
            ]}
          ]}, 
          { "nodeid": 26, "leaf": -0.0416636243 , "cover": 2.16526651 }
        ]}, 
        { "nodeid": 14, "depth": 3, "split": "f5", "split_condition": 0.470044196, "yes": 27, "no": 28, "missing": 28 , "gain": 2.7633934, "cover": 27.1973419, "children": [
          { "nodeid": 27, "depth": 4, "split": "f7", "split_condition": -1.54730403, "yes": 39, "no": 40, "missing": 40 , "gain": 0.681400299, "cover": 19.2217445, "children": [
            { "nodeid": 39, "leaf": 0.0223657098 , "cover": 1.38427424 }, 
            { "nodeid": 40, "depth": 5, "split": "f7", "split_condition": 1.10583305, "yes": 47, "no": 48, "missing": 48 , "gain": 0.660823822, "cover": 17.8374691, "children": [
              { "nodeid": 47, "depth": 6, "split": "f6", "split_condition": -1.38786852, "yes": 53, "no": 54, "missing": 54 , "gain": 0.426929474, "cover": 13.8527527, "children": [
                { "nodeid": 53, "leaf": 0.0356542394 , "cover": 1.62866306 }, 
                { "nodeid": 54, "leaf": 0.161886245 , "cover": 12.2240896 }
              ]}, 
              { "nodeid": 48, "depth": 6, "split": "f5", "split_condition": -0.193826139, "yes": 55, "no": 56, "missing": 56 , "gain": 3.92555046, "cover": 3.98471737, "children": [
                { "nodeid": 55, "leaf": 0.108206823 , "cover": 2.40571165 }, 
                { "nodeid": 56, "leaf": -0.0407806039 , "cover": 1.5790056 }
              ]}
            ]}
          ]}, 
          { "nodeid": 28, "depth": 4, "split": "f5", "split_condition": 0.575205028, "yes": 41, "no": 42, "missing": 42 , "gain": 2.12711596, "cover": 7.97559834, "children": [
            { "nodeid": 41, "leaf": -0.0341580734 , "cover": 1.3631326 }, 
            { "nodeid": 42, "depth": 5, "split": "f6", "split_condition": -0.999302208, "yes": 49, "no": 50, "missing": 50 , "gain": 1.28636241, "cover": 6.61246586, "children": [
              { "nodeid": 49, "leaf": -0.00915599987 , "cover": 1.38602269 }, 
              { "nodeid": 50, "depth": 6, "split": "f8", "split_condition": 0.613518, "yes": 57, "no": 58, "missing": 58 , "gain": 0.83183527, "cover": 5.22644281, "children": [
                { "nodeid": 57, "leaf": 0.0993311331 , "cover": 4.06636047 }, 
                { "nodeid": 58, "leaf": 0.00246895454 , "cover": 1.16008234 }
              ]}
            ]}
          ]}
        ]}
      ]}
    ]}
  ]},
  { "nodeid": 0, "depth": 0, "split": "f2", "split_condition": 0.343787879, "yes": 1, "no": 2, "missing": 2 , "gain": 58.8222771, "cover": 89.1417084, "children": [
    { "nodeid": 1, "depth": 1, "split": "f3", "split_condition": 0.399136126, "yes": 3, "no": 4, "missing": 4 , "gain": 13.0181599, "cover": 55.4541626, "children": [
      { "nodeid": 3, "depth": 2, "split": "f4", "split_condition": 1.61721253, "yes": 7, "no": 8, "missing": 8 , "gain": 3.27761459, "cover": 36.23106, "children": [
        { "nodeid": 7, "depth": 3, "split": "f3", "split_condition": -0.212208971, "yes": 15, "no": 16, "missing": 16 , "gain": 0.287586212, "cover": 32.9814453, "children": [
          { "nodeid": 15, "depth": 4, "split": "f3", "split_condition": -2.08589792, "yes": 27, "no": 28, "missing": 28 , "gain": 0.253341675, "cover": 20.2171001, "children": [
            { "nodeid": 27, "leaf": -0.0186316017 , "cover": 1.07095063 }, 
            { "nodeid": 28, "depth": 5, "split": "f9", "split_condition": -1.46752524, "yes": 39, "no": 40, "missing": 40 , "gain": 0.372598648, "cover": 19.1461506, "children": [
              { "nodeid": 39, "leaf": -0.0170965753 , "cover": 1.04562235 }, 
              { "nodeid": 40, "leaf": -0.123702623 , "cover": 18.1005287 }
            ]}
          ]}, 
          { "nodeid": 16, "depth": 4, "split": "f1", "split_condition": 1.15932977, "yes": 29, "no": 30, "missing": 30 , "gain": 1.35628176, "cover": 12.7643433, "children": [
            { "nodeid": 29, "depth": 5, "split": "f1", "split_condition": -1.25850487, "yes": 41, "no": 42, "missing": 42 , "gain": 0.391785622, "cover": 10.1123762, "children": [
              { "nodeid": 41, "leaf": -0.0132939443 , "cover": 1.59898353 }, 
              { "nodeid": 42, "depth": 6, "split": "f2", "split_condition": -0.108760148, "yes": 51, "no": 52, "missing": 52 , "gain": 0.903487206, "cover": 8.51339245, "children": [
                { "nodeid": 51, "leaf": -0.104575649 , "cover": 6.20177078 }, 
                { "nodeid": 52, "depth": 7, "split": "f8", "split_condition": 0.336144954, "yes": 55, "no": 56, "missing": 56 , "gain": 1.21133494, "cover": 2.31162167, "children": [
                  { "nodeid": 55, "leaf": 0.033115875 , "cover": 1.17799437 }, 
                  { "nodeid": 56, "leaf": -0.0557804964 , "cover": 1.1336273 }
                ]}
              ]}
            ]}, 
            { "nodeid": 30, "depth": 5, "split": "f1", "split_condition": 1.37391436, "yes": 43, "no": 44, "missing": 44 , "gain": 0.854248047, "cover": 2.65196657, "children": [
              { "nodeid": 43, "leaf": 0.0372732393 , "cover": 1.1411984 }, 
              { "nodeid": 44, "leaf": -0.0345137492 , "cover": 1.51076829 }
            ]}
          ]}
        ]}, 
        { "nodeid": 8, "depth": 3, "split": "f2", "split_condition": -0.269406825, "yes": 17, "no": 18, "missing": 18 , "gain": 1.66545451, "cover": 3.24961591, "children": [
          { "nodeid": 17, "leaf": -0.0435326211 , "cover": 1.87032485 }, 
          { "nodeid": 18, "leaf": 0.0525609925 , "cover": 1.37929118 }
        ]}
      ]}, 
      { "nodeid": 4, "depth": 2, "split": "f2", "split_condition": -0.637387156, "yes": 9, "no": 10, "missing": 10 , "gain": 10.0896692, "cover": 19.2231026, "children": [
        { "nodeid": 9, "depth": 3, "split": "f1", "split_condition": 0.968644977, "yes": 19, "no": 20, "missing": 20 , "gain": 2.33342886, "cover": 8.91740704, "children": [
          { "nodeid": 19, "depth": 4, "split": "f9", "split_condition": 0.692918599, "yes": 31, "no": 32, "missing": 32 , "gain": 1.15082741, "cover": 7.56659174, "children": [
            { "nodeid": 31, "leaf": -0.102773391 , "cover": 5.18998718 }, 
            { "nodeid": 32, "depth": 5, "split": "f2", "split_condition": -1.09231281, "yes": 45, "no": 46, "missing": 46 , "gain": 1.53814888, "cover": 2.37660432, "children": [
              { "nodeid": 45, "leaf": -0.055918932 , "cover": 1.27033281 }, 
              { "nodeid": 46, "leaf": 0.0429030582 , "cover": 1.10627151 }
            ]}
          ]}, 
          { "nodeid": 20, "leaf": 0.0278665721 , "cover": 1.35081553 }
        ]}, 
        { "nodeid": 10, "depth": 3, "split": "f3", "split_condition": 0.771796167, "yes": 21, "no": 22, "missing": 22 , "gain": 3.70918989, "cover": 10.3056955, "children": [
          { "nodeid": 21, "depth": 4, "split": "f6", "split_condition": 0.253739655, "yes": 33, "no": 34, "missing": 34 , "gain": 1.95274019, "cover": 4.51651669, "children": [
            { "nodeid": 33, "depth": 5, "split": "f1", "split_condition": 0.128617451, "yes": 47, "no": 48, "missing": 48 , "gain": 1.42003894, "cover": 3.17531896, "children": [
              { "nodeid": 47, "leaf": -0.0188597124 , "cover": 1.75754762 }, 
              { "nodeid": 48, "leaf": 0.0760613307 , "cover": 1.41777122 }
            ]}, 
            { "nodeid": 34, "leaf": -0.0615566447 , "cover": 1.34119761 }
          ]}, 
          { "nodeid": 22, "depth": 4, "split": "f6", "split_condition": 0.493317902, "yes": 35, "no": 36, "missing": 36 , "gain": 0.255480766, "cover": 5.78917933, "children": [
            { "nodeid": 35, "leaf": 0.125620902 , "cover": 3.96365142 }, 
            { "nodeid": 36, "leaf": 0.0286765546 , "cover": 1.82552791 }
          ]}
        ]}
      ]}
    ]}, 
    { "nodeid": 2, "depth": 1, "split": "f3", "split_condition": -0.124021389, "yes": 5, "no": 6, "missing": 6 , "gain": 12.3419991, "cover": 33.6875496, "children": [
      { "nodeid": 5, "depth": 2, "split": "f2", "split_condition": 1.44194496, "yes": 11, "no": 12, "missing": 12 , "gain": 5.52974415, "cover": 14.0855045, "children": [
        { "nodeid": 11, "depth": 3, "split": "f4", "split_condition": 1.17944014, "yes": 23, "no": 24, "missing": 24 , "gain": 4.3103857, "cover": 8.74591064, "children": [
          { "nodeid": 23, "depth": 4, "split": "f3", "split_condition": -0.982294023, "yes": 37, "no": 38, "missing": 38 , "gain": 1.35788512, "cover": 7.32548523, "children": [
            { "nodeid": 37, "leaf": -0.0897026882 , "cover": 3.0615952 }, 
            { "nodeid": 38, "depth": 5, "split": "f3", "split_condition": -0.91750282, "yes": 49, "no": 50, "missing": 50 , "gain": 2.66869164, "cover": 4.26388979, "children": [
              { "nodeid": 49, "leaf": 0.0656211823 , "cover": 1.17600119 }, 
              { "nodeid": 50, "depth": 6, "split": "f5", "split_condition": -0.0905332789, "yes": 53, "no": 54, "missing": 54 , "gain": 0.824928403, "cover": 3.08788872, "children": [
                { "nodeid": 53, "leaf": 0.00958125666 , "cover": 1.11902761 }, 
                { "nodeid": 54, "leaf": -0.0734772533 , "cover": 1.96886098 }
              ]}
            ]}
          ]}, 
          { "nodeid": 24, "leaf": 0.0781106874 , "cover": 1.42042601 }
        ]}, 
        { "nodeid": 12, "depth": 3, "split": "f1", "split_condition": -0.689727783, "yes": 25, "no": 26, "missing": 26 , "gain": 3.7225399, "cover": 5.33959341, "children": [
          { "nodeid": 25, "leaf": -0.0196648818 , "cover": 1.65504479 }, 
          { "nodeid": 26, "leaf": 0.1308503 , "cover": 3.68454838 }
        ]}
      ]}, 
      { "nodeid": 6, "depth": 2, "split": "f1", "split_condition": 1.35557294, "yes": 13, "no": 14, "missing": 14 , "gain": 0.900360107, "cover": 19.6020451, "children": [
        { "nodeid": 13, "leaf": 0.157449186 , "cover": 18.3709641 }, 
        { "nodeid": 14, "leaf": 0.0219968688 , "cover": 1.23108125 }
      ]}
    ]}
  ]},
  { "nodeid": 0, "depth": 0, "split": "f2", "split_condition": 0.343787879, "yes": 1, "no": 2, "missing": 2 , "gain": 41.6295319, "cover": 90.6139526, "children": [
    { "nodeid": 1, "depth": 1, "split": "f3", "split_condition": 0.311308682, "yes": 3, "no": 4, "missing": 4 , "gain": 16.0252476, "cover": 55.2605324, "children": [
      { "nodeid": 3, "depth": 2, "split": "f0", "split_condition": 1.31739402, "yes": 7, "no": 8, "missing": 8 , "gain": 9.30768967, "cover": 34.2509193, "children": [
        { "nodeid": 7, "depth": 3, "split": "f0", "split_condition": -1.4153707, "yes": 15, "no": 16, "missing": 16 , "gain": 3.47403336, "cover": 31.087038, "children": [
          { "nodeid": 15, "depth": 4, "split": "f2", "split_condition": -0.62671721, "yes": 31, "no": 32, "missing": 32 , "gain": 1.73307633, "cover": 2.88030648, "children": [
            { "nodeid": 31, "leaf": -0.0543029495 , "cover": 1.34363472 }, 
            { "nodeid": 32, "leaf": 0.0461713783 , "cover": 1.53667188 }
          ]}, 
          { "nodeid": 16, "depth": 4, "split": "f7", "split_condition": 1.65361726, "yes": 33, "no": 34, "missing": 34 , "gain": 0.368835449, "cover": 28.2067318, "children": [
            { "nodeid": 33, "depth": 5, "split": "f4", "split_condition": -1.51891077, "yes": 43, "no": 44, "missing": 44 , "gain": 0.618297577, "cover": 27.1526794, "children": [
              { "nodeid": 43, "leaf": -0.01356743 , "cover": 1.00903678 }, 
              { "nodeid": 44, "leaf": -0.126913637 , "cover": 26.1436424 }
            ]}, 
            { "nodeid": 34, "leaf": -0.0174845196 , "cover": 1.05405223 }
          ]}
        ]}, 
        { "nodeid": 8, "depth": 3, "split": "f3", "split_condition": -1.09162521, "yes": 17, "no": 18, "missing": 18 , "gain": 1.58422065, "cover": 3.16388226, "children": [
          { "nodeid": 17, "leaf": -0.0236020442 , "cover": 1.23322618 }, 
          { "nodeid": 18, "leaf": 0.0795007572 , "cover": 1.93065608 }
        ]}
      ]}, 
      { "nodeid": 4, "depth": 2, "split": "f2", "split_condition": -0.308034271, "yes": 9, "no": 10, "missing": 10 , "gain": 13.9581938, "cover": 21.009613, "children": [
        { "nodeid": 9, "depth": 3, "split": "f8", "split_condition": -0.539759696, "yes": 19, "no": 20, "missing": 20 , "gain": 3.17161274, "cover": 11.5118704, "children": [
          { "nodeid": 19, "depth": 4, "split": "f2", "split_condition": -1.04612112, "yes": 35, "no": 36, "missing": 36 , "gain": 1.57284951, "cover": 2.55297685, "children": [
            { "nodeid": 35, "leaf": -0.0297412556 , "cover": 1.42013061 }, 
            { "nodeid": 36, "leaf": 0.0713977888 , "cover": 1.13284624 }
          ]}, 
          { "nodeid": 20, "depth": 4, "split": "f7", "split_condition": 1.07684815, "yes": 37, "no": 38, "missing": 38 , "gain": 1.58565378, "cover": 8.95889378, "children": [
            { "nodeid": 37, "depth": 5, "split": "f7", "split_condition": -1.12004745, "yes": 45, "no": 46, "missing": 46 , "gain": 1.94077682, "cover": 7.88181353, "children": [
              { "nodeid": 45, "leaf": 0.012402351 , "cover": 1.0828321 }, 
              { "nodeid": 46, "leaf": -0.109732583 , "cover": 6.79898119 }
            ]}, 
            { "nodeid": 38, "leaf": 0.0132772941 , "cover": 1.07708049 }
          ]}
        ]}, 
        { "nodeid": 10, "depth": 3, "split": "f0", "split_condition": -1.26088393, "yes": 21, "no": 22, "missing": 22 , "gain": 3.3153944, "cover": 9.49774265, "children": [
          { "nodeid": 21, "leaf": -0.0282784533 , "cover": 1.15946627 }, 
          { "nodeid": 22, "depth": 4, "split": "f6", "split_condition": -0.982487381, "yes": 39, "no": 40, "missing": 40 , "gain": 2.34870911, "cover": 8.33827591, "children": [
            { "nodeid": 39, "leaf": -0.00412037177 , "cover": 1.35737288 }, 
            { "nodeid": 40, "depth": 5, "split": "f9", "split_condition": -0.792523444, "yes": 47, "no": 48, "missing": 48 , "gain": 0.331867218, "cover": 6.98090315, "children": [
              { "nodeid": 47, "leaf": 0.0317080282 , "cover": 1.66808772 }, 
              { "nodeid": 48, "leaf": 0.145215139 , "cover": 5.31281567 }
            ]}
          ]}
        ]}
      ]}
    ]}, 
    { "nodeid": 2, "depth": 1, "split": "f3", "split_condition": -0.525755048, "yes": 5, "no": 6, "missing": 6 , "gain": 19.191618, "cover": 35.3534203, "children": [
      { "nodeid": 5, "depth": 2, "split": "f2", "split_condition": 1.44194496, "yes": 11, "no": 12, "missing": 12 , "gain": 6.45940542, "cover": 11.6806688, "children": [
        { "nodeid": 11, "depth": 3, "split": "f0", "split_condition": -0.806376934, "yes": 23, "no": 24, "missing": 24 , "gain": 2.80221653, "cover": 7.7495513, "children": [
          { "nodeid": 23, "leaf": 0.0332566947 , "cover": 1.17930293 }, 
          { "nodeid": 24, "depth": 4, "split": "f0", "split_condition": 0.785800159, "yes": 41, "no": 42, "missing": 42 , "gain": 1.64521074, "cover": 6.57024813, "children": [
            { "nodeid": 41, "leaf": -0.108604766 , "cover": 5.44794464 }, 
            { "nodeid": 42, "leaf": 0.00817049947 , "cover": 1.12230337 }
          ]}
        ]}, 
        { "nodeid": 12, "depth": 3, "split": "f3", "split_condition": -1.35544753, "yes": 25, "no": 26, "missing": 26 , "gain": 0.88916564, "cover": 3.93111801, "children": [
          { "nodeid": 25, "leaf": -0.0048764199 , "cover": 1.22154188 }, 
          { "nodeid": 26, "leaf": 0.0835571215 , "cover": 2.70957613 }
        ]}
      ]}, 
      { "nodeid": 6, "depth": 2, "split": "f0", "split_condition": 0.807122588, "yes": 13, "no": 14, "missing": 14 , "gain": 8.6509819, "cover": 23.6727505, "children": [
        { "nodeid": 13, "depth": 3, "split": "f6", "split_condition": -1.51934612, "yes": 27, "no": 28, "missing": 28 , "gain": 0.610046387, "cover": 19.7417736, "children": [
          { "nodeid": 27, "leaf": 0.0423828326 , "cover": 2.18967271 }, 
          { "nodeid": 28, "leaf": 0.162266299 , "cover": 17.5521011 }
        ]}, 
        { "nodeid": 14, "depth": 3, "split": "f3", "split_condition": 1.0235306, "yes": 29, "no": 30, "missing": 30 , "gain": 3.79396415, "cover": 3.93097639, "children": [
          { "nodeid": 29, "leaf": -0.068943128 , "cover": 2.18973112 }, 
          { "nodeid": 30, "leaf": 0.0696693286 , "cover": 1.74124527 }
        ]}
      ]}
    ]}
  ]},
  { "nodeid": 0, "depth": 0, "split": "f2", "split_condition": 0.343787879, "yes": 1, "no": 2, "missing": 2 , "gain": 35.2716522, "cover": 88.5666199, "children": [
    { "nodeid": 1, "depth": 1, "split": "f3", "split_condition": 0.779660523, "yes": 3, "no": 4, "missing": 4 , "gain": 13.5736694, "cover": 52.9385643, "children": [
      { "nodeid": 3, "depth": 2, "split": "f1", "split_condition": 0.778936505, "yes": 7, "no": 8, "missing": 8 , "gain": 3.54398918, "cover": 42.1506386, "children": [
        { "nodeid": 7, "depth": 3, "split": "f1", "split_condition": -2.01992726, "yes": 15, "no": 16, "missing": 16 , "gain": 3.72699356, "cover": 30.5887051, "children": [
          { "nodeid": 15, "leaf": 0.0296186637 , "cover": 1.32270229 }, 
          { "nodeid": 16, "depth": 4, "split": "f7", "split_condition": 1.44730568, "yes": 29, "no": 30, "missing": 30 , "gain": 0.184406281, "cover": 29.2660027, "children": [
            { "nodeid": 29, "depth": 5, "split": "f1", "split_condition": 0.458386689, "yes": 37, "no": 38, "missing": 38 , "gain": 0.13401413, "cover": 26.8719807, "children": [
              { "nodeid": 37, "leaf": -0.117312603 , "cover": 22.8770485 }, 
              { "nodeid": 38, "depth": 6, "split": "f6", "split_condition": -0.0265212599, "yes": 47, "no": 48, "missing": 48 , "gain": 0.764009714, "cover": 3.99493265, "children": [
                { "nodeid": 47, "leaf": -0.0705829188 , "cover": 2.11984539 }, 
                { "nodeid": 48, "leaf": 0.00320870965 , "cover": 1.87508714 }
              ]}
            ]}, 
            { "nodeid": 30, "depth": 5, "split": "f1", "split_condition": -0.546041787, "yes": 39, "no": 40, "missing": 40 , "gain": 0.477425069, "cover": 2.39402318, "children": [
              { "nodeid": 39, "leaf": 0.00990127958 , "cover": 1.09003782 }, 
              { "nodeid": 40, "leaf": -0.0525732227 , "cover": 1.30398536 }
            ]}
          ]}
        ]}, 
        { "nodeid": 8, "depth": 3, "split": "f5", "split_condition": -0.501757026, "yes": 17, "no": 18, "missing": 18 , "gain": 2.02759886, "cover": 11.5619335, "children": [
          { "nodeid": 17, "leaf": -0.073454313 , "cover": 3.75969362 }, 
          { "nodeid": 18, "depth": 4, "split": "f2", "split_condition": -0.54872489, "yes": 31, "no": 32, "missing": 32 , "gain": 3.03362823, "cover": 7.80223942, "children": [
            { "nodeid": 31, "depth": 5, "split": "f3", "split_condition": 0.194051936, "yes": 41, "no": 42, "missing": 42 , "gain": 2.64602947, "cover": 4.15458488, "children": [
              { "nodeid": 41, "leaf": -0.0814191252 , "cover": 3.05401659 }, 
              { "nodeid": 42, "leaf": 0.0426272079 , "cover": 1.10056841 }
            ]}, 
            { "nodeid": 32, "depth": 5, "split": "f2", "split_condition": 0.0675282031, "yes": 43, "no": 44, "missing": 44 , "gain": 2.68199229, "cover": 3.64765429, "children": [
              { "nodeid": 43, "leaf": 0.0978244469 , "cover": 2.31637836 }, 
              { "nodeid": 44, "leaf": -0.0315623954 , "cover": 1.33127606 }
            ]}
          ]}
        ]}
      ]}, 
      { "nodeid": 4, "depth": 2, "split": "f2", "split_condition": -0.79241991, "yes": 9, "no": 10, "missing": 10 , "gain": 9.61495495, "cover": 10.7879248, "children": [
        { "nodeid": 9, "depth": 3, "split": "f1", "split_condition": -1.33534431, "yes": 19, "no": 20, "missing": 20 , "gain": 1.05922675, "cover": 4.22280788, "children": [
          { "nodeid": 19, "leaf": 0.00976915658 , "cover": 1.11179233 }, 
          { "nodeid": 20, "leaf": -0.0830413774 , "cover": 3.11101532 }
        ]}, 
        { "nodeid": 10, "depth": 3, "split": "f7", "split_condition": 0.297244281, "yes": 21, "no": 22, "missing": 22 , "gain": 0.338529587, "cover": 6.56511688, "children": [
          { "nodeid": 21, "leaf": 0.118941106 , "cover": 4.27924538 }, 
          { "nodeid": 22, "leaf": 0.0297198538 , "cover": 2.28587151 }
        ]}
      ]}
    ]}, 
    { "nodeid": 2, "depth": 1, "split": "f3", "split_condition": -0.525755048, "yes": 5, "no": 6, "missing": 6 , "gain": 15.8558693, "cover": 35.6280556, "children": [
      { "nodeid": 5, "depth": 2, "split": "f2", "split_condition": 1.58601677, "yes": 11, "no": 12, "missing": 12 , "gain": 4.61195183, "cover": 10.9851007, "children": [
        { "nodeid": 11, "depth": 3, "split": "f8", "split_condition": -1.39449501, "yes": 23, "no": 24, "missing": 24 , "gain": 0.799067974, "cover": 8.25788212, "children": [
          { "nodeid": 23, "leaf": 0.00643357402 , "cover": 1.13078237 }, 
          { "nodeid": 24, "depth": 4, "split": "f6", "split_condition": 0.69638747, "yes": 33, "no": 34, "missing": 34 , "gain": 1.06516838, "cover": 7.12709999, "children": [
            { "nodeid": 33, "leaf": -0.0908265039 , "cover": 5.11028576 }, 
            { "nodeid": 34, "leaf": -0.00413047476 , "cover": 2.01681376 }
          ]}
        ]}, 
        { "nodeid": 12, "depth": 3, "split": "f7", "split_condition": -0.47874862, "yes": 25, "no": 26, "missing": 26 , "gain": 0.403191924, "cover": 2.7272191, "children": [
          { "nodeid": 25, "leaf": 0.0786794648 , "cover": 1.24694395 }, 
          { "nodeid": 26, "leaf": 0.00610484183 , "cover": 1.48027503 }
        ]}
      ]}, 
      { "nodeid": 6, "depth": 2, "split": "f1", "split_condition": -2.15339017, "yes": 13, "no": 14, "missing": 14 , "gain": 5.03076553, "cover": 24.6429539, "children": [
        { "nodeid": 13, "leaf": -0.0391160101 , "cover": 1.2223599 }, 
        { "nodeid": 14, "depth": 3, "split": "f7", "split_condition": -1.96850419, "yes": 27, "no": 28, "missing": 28 , "gain": 1.44765091, "cover": 23.4205933, "children": [
          { "nodeid": 27, "leaf": 0.00361891999 , "cover": 1.13590777 }, 
          { "nodeid": 28, "depth": 4, "split": "f8", "split_condition": 0.975312471, "yes": 35, "no": 36, "missing": 36 , "gain": 1.65707779, "cover": 22.284687, "children": [
            { "nodeid": 35, "leaf": 0.136866882 , "cover": 19.1144199 }, 
            { "nodeid": 36, "depth": 5, "split": "f9", "split_condition": 0.514438808, "yes": 45, "no": 46, "missing": 46 , "gain": 2.26060772, "cover": 3.17026711, "children": [
              { "nodeid": 45, "leaf": 0.0750430152 , "cover": 1.96602404 }, 
              { "nodeid": 46, "leaf": -0.041491963 , "cover": 1.20424294 }
            ]}
          ]}
        ]}
      ]}
    ]}
  ]},
  { "nodeid": 0, "depth": 0, "split": "f2", "split_condition": 0.0596303716, "yes": 1, "no": 2, "missing": 2 , "gain": 29.5411167, "cover": 83.5658188, "children": [
    { "nodeid": 1, "depth": 1, "split": "f1", "split_condition": -1.25850487, "yes": 3, "no": 4, "missing": 4 , "gain": 5.50609779, "cover": 40.3923225, "children": [
      { "nodeid": 3, "depth": 2, "split": "f0", "split_condition": -0.409686595, "yes": 7, "no": 8, "missing": 8 , "gain": 6.17220688, "cover": 4.75706673, "children": [
        { "nodeid": 7, "depth": 3, "split": "f2", "split_condition": -1.05890763, "yes": 15, "no": 16, "missing": 16 , "gain": 0.309077263, "cover": 2.72568297, "children": [
          { "nodeid": 15, "leaf": 0.0148354052 , "cover": 1.05941582 }, 
          { "nodeid": 16, "leaf": 0.115691677 , "cover": 1.66626728 }
        ]}, 
        { "nodeid": 8, "leaf": -0.0706448182 , "cover": 2.03138375 }
      ]}, 
      { "nodeid": 4, "depth": 2, "split": "f4", "split_condition": 1.25923324, "yes": 9, "no": 10, "missing": 10 , "gain": 3.68525505, "cover": 35.6352577, "children": [
        { "nodeid": 9, "depth": 3, "split": "f0", "split_condition": 0.913771629, "yes": 17, "no": 18, "missing": 18 , "gain": 2.35453796, "cover": 32.0131302, "children": [
          { "nodeid": 17, "depth": 4, "split": "f4", "split_condition": -1.91131687, "yes": 25, "no": 26, "missing": 26 , "gain": 1.93984795, "cover": 27.9596825, "children": [
            { "nodeid": 25, "leaf": 0.013723189 , "cover": 1.04604852 }, 
            { "nodeid": 26, "depth": 5, "split": "f9", "split_condition": 1.45582235, "yes": 35, "no": 36, "missing": 36 , "gain": 1.47054482, "cover": 26.9136333, "children": [
              { "nodeid": 35, "leaf": -0.10730958 , "cover": 25.668354 }, 
              { "nodeid": 36, "leaf": 0.00146590127 , "cover": 1.24528074 }
            ]}
          ]}, 
          { "nodeid": 18, "depth": 4, "split": "f1", "split_condition": 0.887079775, "yes": 27, "no": 28, "missing": 28 , "gain": 3.17666602, "cover": 4.0534482, "children": [
            { "nodeid": 27, "leaf": -0.0686751679 , "cover": 2.17198992 }, 
            { "nodeid": 28, "leaf": 0.0573479831 , "cover": 1.88145828 }
          ]}
        ]}, 
        { "nodeid": 10, "depth": 3, "split": "f2", "split_condition": -0.364952743, "yes": 19, "no": 20, "missing": 20 , "gain": 2.29924035, "cover": 3.6221261, "children": [
          { "nodeid": 19, "leaf": -0.0430075489 , "cover": 2.0359211 }, 
          { "nodeid": 20, "leaf": 0.0675558671 , "cover": 1.58620489 }
        ]}
      ]}
    ]}, 
    { "nodeid": 2, "depth": 1, "split": "f2", "split_condition": 1.17312467, "yes": 5, "no": 6, "missing": 6 , "gain": 4.68096638, "cover": 43.1734962, "children": [
      { "nodeid": 5, "depth": 2, "split": "f8", "split_condition": 1.32864082, "yes": 11, "no": 12, "missing": 12 , "gain": 3.46413255, "cover": 31.2633266, "children": [
        { "nodeid": 11, "depth": 3, "split": "f8", "split_condition": -0.553649306, "yes": 21, "no": 22, "missing": 22 , "gain": 3.56530905, "cover": 29.0707188, "children": [
          { "nodeid": 21, "depth": 4, "split": "f5", "split_condition": 0.547119141, "yes": 29, "no": 30, "missing": 30 , "gain": 1.86613679, "cover": 7.78104973, "children": [
            { "nodeid": 29, "depth": 5, "split": "f0", "split_condition": -0.48770538, "yes": 37, "no": 38, "missing": 38 , "gain": 1.60014462, "cover": 6.58386469, "children": [
              { "nodeid": 37, "leaf": 0.0276498999 , "cover": 1.54138243 }, 
              { "nodeid": 38, "depth": 6, "split": "f8", "split_condition": -1.28996086, "yes": 45, "no": 46, "missing": 46 , "gain": 0.73651576, "cover": 5.04248238, "children": [
                { "nodeid": 45, "leaf": -0.0006466622 , "cover": 1.616781 }, 
                { "nodeid": 46, "leaf": -0.0783517584 , "cover": 3.42570138 }
              ]}
            ]}, 
            { "nodeid": 30, "leaf": 0.0522073172 , "cover": 1.19718492 }
          ]}, 
          { "nodeid": 22, "depth": 4, "split": "f5", "split_condition": 0.404050857, "yes": 31, "no": 32, "missing": 32 , "gain": 4.18996668, "cover": 21.289669, "children": [
            { "nodeid": 31, "depth": 5, "split": "f5", "split_condition": -1.68466759, "yes": 39, "no": 40, "missing": 40 , "gain": 0.740005493, "cover": 14.8167763, "children": [
              { "nodeid": 39, "leaf": 0.00192669895 , "cover": 1.11016405 }, 
              { "nodeid": 40, "depth": 6, "split": "f6", "split_condition": -0.900620759, "yes": 47, "no": 48, "missing": 48 , "gain": 0.796002388, "cover": 13.7066116, "children": [
                { "nodeid": 47, "leaf": 0.00264821504 , "cover": 1.09341335 }, 
                { "nodeid": 48, "depth": 7, "split": "f4", "split_condition": -1.36685836, "yes": 53, "no": 54, "missing": 54 , "gain": 0.380428314, "cover": 12.6131983, "children": [
                  { "nodeid": 53, "leaf": 0.0134440316 , "cover": 1.20149553 }, 
                  { "nodeid": 54, "leaf": 0.101575807 , "cover": 11.4117031 }
                ]}
              ]}
            ]}, 
            { "nodeid": 32, "depth": 5, "split": "f2", "split_condition": 0.476357758, "yes": 41, "no": 42, "missing": 42 , "gain": 1.82960045, "cover": 6.47289276, "children": [
              { "nodeid": 41, "depth": 6, "split": "f1", "split_condition": -0.0715992525, "yes": 49, "no": 50, "missing": 50 , "gain": 0.189662099, "cover": 2.72723079, "children": [
                { "nodeid": 49, "leaf": 0.054173898 , "cover": 1.1649394 }, 
                { "nodeid": 50, "leaf": 0.00461200811 , "cover": 1.56229138 }
              ]}, 
              { "nodeid": 42, "depth": 6, "split": "f6", "split_condition": -0.164335206, "yes": 51, "no": 52, "missing": 52 , "gain": 0.179581404, "cover": 3.74566174, "children": [
                { "nodeid": 51, "depth": 7, "split": "f0", "split_condition": 0.113517344, "yes": 55, "no": 56, "missing": 56 , "gain": 0.353300422, "cover": 2.43678713, "children": [
                  { "nodeid": 55, "leaf": -0.0328966491 , "cover": 1.11005747 }, 
                  { "nodeid": 56, "leaf": 0.0152122695 , "cover": 1.32672977 }
                ]}, 
                { "nodeid": 52, "leaf": -0.0616168045 , "cover": 1.30887461 }
              ]}
            ]}
          ]}
        ]}, 
        { "nodeid": 12, "leaf": -0.0606242009 , "cover": 2.19260812 }
      ]}, 
      { "nodeid": 6, "depth": 2, "split": "f9", "split_condition": -1.02279258, "yes": 13, "no": 14, "missing": 14 , "gain": 3.8337307, "cover": 11.9101686, "children": [
        { "nodeid": 13, "leaf": -0.0249904562 , "cover": 1.43527186 }, 
        { "nodeid": 14, "depth": 3, "split": "f2", "split_condition": 1.44194496, "yes": 23, "no": 24, "missing": 24 , "gain": 0.109201431, "cover": 10.4748974, "children": [
          { "nodeid": 23, "depth": 4, "split": "f0", "split_condition": -0.573661983, "yes": 33, "no": 34, "missing": 34 , "gain": 0.392028213, "cover": 3.6045773, "children": [
            { "nodeid": 33, "leaf": 0.0737112388 , "cover": 1.21480811 }, 
            { "nodeid": 34, "depth": 5, "split": "f1", "split_condition": 0.420191556, "yes": 43, "no": 44, "missing": 44 , "gain": 0.800112426, "cover": 2.38976908, "children": [
              { "nodeid": 43, "leaf": -0.0284955855 , "cover": 1.23834896 }, 
              { "nodeid": 44, "leaf": 0.0428581946 , "cover": 1.15142024 }
            ]}
          ]}, 
          { "nodeid": 24, "leaf": 0.136338532 , "cover": 6.87031984 }
        ]}
      ]}
    ]}
  ]},
  { "nodeid": 0, "depth": 0, "split": "f3", "split_condition": 0.254420847, "yes": 1, "no": 2, "missing": 2 , "gain": 21.6331215, "cover": 83.9035339, "children": [
    { "nodeid": 1, "depth": 1, "split": "f0", "split_condition": 1.23087454, "yes": 3, "no": 4, "missing": 4 , "gain": 6.42308712, "cover": 48.4449844, "children": [
      { "nodeid": 3, "depth": 2, "split": "f7", "split_condition": 1.44730568, "yes": 7, "no": 8, "missing": 8 , "gain": 4.02953148, "cover": 43.871357, "children": [
        { "nodeid": 7, "depth": 3, "split": "f7", "split_condition": -0.945506871, "yes": 15, "no": 16, "missing": 16 , "gain": 2.51044464, "cover": 39.4498253, "children": [
          { "nodeid": 15, "depth": 4, "split": "f0", "split_condition": 0.113517344, "yes": 25, "no": 26, "missing": 26 , "gain": 1.97311211, "cover": 9.40230274, "children": [
            { "nodeid": 25, "depth": 5, "split": "f6", "split_condition": -0.221042469, "yes": 37, "no": 38, "missing": 38 , "gain": 1.05894411, "cover": 5.13218832, "children": [
              { "nodeid": 37, "leaf": -0.0222929269 , "cover": 1.99470329 }, 
              { "nodeid": 38, "depth": 6, "split": "f6", "split_condition": 0.852468669, "yes": 49, "no": 50, "missing": 50 , "gain": 0.599003077, "cover": 3.13748527, "children": [
                { "nodeid": 49, "leaf": 0.0692287311 , "cover": 1.8064748 }, 
                { "nodeid": 50, "leaf": -0.00365230488 , "cover": 1.33101046 }
              ]}
            ]}, 
            { "nodeid": 26, "depth": 5, "split": "f7", "split_condition": -1.29611671, "yes": 39, "no": 40, "missing": 40 , "gain": 0.699004292, "cover": 4.27011395, "children": [
              { "nodeid": 39, "leaf": -0.0761451051 , "cover": 2.47457194 }, 
              { "nodeid": 40, "leaf": -0.00106934353 , "cover": 1.79554212 }
            ]}
          ]}, 
          { "nodeid": 16, "depth": 4, "split": "f0", "split_condition": 0.862223506, "yes": 27, "no": 28, "missing": 28 , "gain": 2.72328377, "cover": 30.0475235, "children": [
            { "nodeid": 27, "depth": 5, "split": "f0", "split_condition": -1.57699645, "yes": 41, "no": 42, "missing": 42 , "gain": 2.49530983, "cover": 26.8985043, "children": [
              { "nodeid": 41, "depth": 6, "split": "f4", "split_condition": 0.0600859933, "yes": 51, "no": 52, "missing": 52 , "gain": 2.40436935, "cover": 2.35418296, "children": [
                { "nodeid": 51, "leaf": 0.0656994209 , "cover": 1.16206861 }, 
                { "nodeid": 52, "leaf": -0.0574390553 , "cover": 1.19211435 }
              ]}, 
              { "nodeid": 42, "depth": 6, "split": "f9", "split_condition": -1.43077505, "yes": 53, "no": 54, "missing": 54 , "gain": 0.270954132, "cover": 24.5443211, "children": [
                { "nodeid": 53, "leaf": -0.0216538813 , "cover": 1.72824705 }, 
                { "nodeid": 54, "leaf": -0.100833528 , "cover": 22.8160744 }
              ]}
            ]}, 
            { "nodeid": 28, "depth": 5, "split": "f6", "split_condition": -0.508140206, "yes": 43, "no": 44, "missing": 44 , "gain": 0.956220984, "cover": 3.14901924, "children": [
              { "nodeid": 43, "leaf": -0.0331321172 , "cover": 1.50778878 }, 
              { "nodeid": 44, "leaf": 0.0402153209 , "cover": 1.64123046 }
            ]}
          ]}
        ]}, 
        { "nodeid": 8, "depth": 3, "split": "f4", "split_condition": 0.307345629, "yes": 17, "no": 18, "missing": 18 , "gain": 1.57668149, "cover": 4.4215312, "children": [
          { "nodeid": 17, "depth": 4, "split": "f5", "split_condition": 0.113140456, "yes": 29, "no": 30, "missing": 30 , "gain": 0.46730125, "cover": 2.12607217, "children": [
            { "nodeid": 29, "leaf": 0.0131097306 , "cover": 1.02407396 }, 
            { "nodeid": 30, "leaf": -0.0472406372 , "cover": 1.10199833 }
          ]}, 
          { "nodeid": 18, "depth": 4, "split": "f5", "split_condition": 0.301547348, "yes": 31, "no": 32, "missing": 32 , "gain": 0.223048449, "cover": 2.29545879, "children": [
            { "nodeid": 31, "leaf": 0.0774537101 , "cover": 1.21978486 }, 
            { "nodeid": 32, "leaf": 0.00743378792 , "cover": 1.07567406 }
          ]}
        ]}
      ]}, 
      { "nodeid": 4, "depth": 2, "split": "f3", "split_condition": -0.147602588, "yes": 9, "no": 10, "missing": 10 , "gain": 1.56005478, "cover": 4.57362509, "children": [
        { "nodeid": 9, "depth": 3, "split": "f4", "split_condition": -0.470042139, "yes": 19, "no": 20, "missing": 20 , "gain": 0.524212122, "cover": 3.46856117, "children": [
          { "nodeid": 19, "leaf": 0.00675494364 , "cover": 1.21575308 }, 
          { "nodeid": 20, "leaf": 0.0940234885 , "cover": 2.25280833 }
        ]}, 
        { "nodeid": 10, "leaf": -0.0232318565 , "cover": 1.1050638 }
      ]}
    ]}, 
    { "nodeid": 2, "depth": 1, "split": "f8", "split_condition": 1.32864082, "yes": 5, "no": 6, "missing": 6 , "gain": 3.3035326, "cover": 35.4585533, "children": [
      { "nodeid": 5, "depth": 2, "split": "f5", "split_condition": 1.61629999, "yes": 11, "no": 12, "missing": 12 , "gain": 2.34955025, "cover": 33.2785873, "children": [
        { "nodeid": 11, "depth": 3, "split": "f6", "split_condition": 0.296120286, "yes": 21, "no": 22, "missing": 22 , "gain": 2.17349243, "cover": 30.6534519, "children": [
          { "nodeid": 21, "depth": 4, "split": "f8", "split_condition": -1.39449501, "yes": 33, "no": 34, "missing": 34 , "gain": 1.06394958, "cover": 20.6724892, "children": [
            { "nodeid": 33, "leaf": 0.00405069441 , "cover": 1.53582883 }, 
            { "nodeid": 34, "depth": 5, "split": "f0", "split_condition": -0.828994989, "yes": 45, "no": 46, "missing": 46 , "gain": 1.49163055, "cover": 19.1366615, "children": [
              { "nodeid": 45, "depth": 6, "split": "f6", "split_condition": -0.989604831, "yes": 55, "no": 56, "missing": 56 , "gain": 1.83707857, "cover": 4.0349822, "children": [
                { "nodeid": 55, "leaf": -0.0387525819 , "cover": 1.36950517 }, 
                { "nodeid": 56, "depth": 7, "split": "f4", "split_condition": -0.0598261431, "yes": 61, "no": 62, "missing": 62 , "gain": 0.294783711, "cover": 2.66547704, "children": [
                  { "nodeid": 61, "leaf": 0.0744019076 , "cover": 1.62086368 }, 
                  { "nodeid": 62, "leaf": 0.00443920493 , "cover": 1.04461348 }
                ]}
              ]}, 
              { "nodeid": 46, "depth": 6, "split": "f3", "split_condition": 0.369642198, "yes": 57, "no": 58, "missing": 58 , "gain": 0.943937302, "cover": 15.1016788, "children": [
                { "nodeid": 57, "depth": 7, "split": "f9", "split_condition": 0.407052279, "yes": 63, "no": 64, "missing": 64 , "gain": 0.785484195, "cover": 2.41559052, "children": [
                  { "nodeid": 63, "leaf": 0.0523327999 , "cover": 1.33866119 }, 
                  { "nodeid": 64, "leaf": -0.0213527195 , "cover": 1.07692933 }
                ]}, 
                { "nodeid": 58, "leaf": 0.120130621 , "cover": 12.6860886 }
              ]}
            ]}
          ]}, 
          { "nodeid": 22, "depth": 4, "split": "f8", "split_condition": 0.534505665, "yes": 35, "no": 36, "missing": 36 , "gain": 4.30338717, "cover": 9.98096275, "children": [
            { "nodeid": 35, "depth": 5, "split": "f3", "split_condition": 0.453534305, "yes": 47, "no": 48, "missing": 48 , "gain": 2.29941678, "cover": 7.4709506, "children": [
              { "nodeid": 47, "leaf": -0.0305418111 , "cover": 1.19008291 }, 
              { "nodeid": 48, "depth": 6, "split": "f5", "split_condition": 0.404050857, "yes": 59, "no": 60, "missing": 60 , "gain": 0.865175724, "cover": 6.28086758, "children": [
                { "nodeid": 59, "depth": 7, "split": "f0", "split_condition": 0.395420998, "yes": 65, "no": 66, "missing": 66 , "gain": 0.2506814, "cover": 4.73232365, "children": [
                  { "nodeid": 65, "leaf": 0.108969413 , "cover": 3.56265116 }, 
                  { "nodeid": 66, "leaf": 0.0165155884 , "cover": 1.16967249 }
                ]}, 
                { "nodeid": 60, "leaf": 0.00614813948 , "cover": 1.54854369 }
              ]}
            ]}, 
            { "nodeid": 36, "leaf": -0.0587883852 , "cover": 2.51001215 }
          ]}
        ]}, 
        { "nodeid": 12, "depth": 3, "split": "f4", "split_condition": 0.428816497, "yes": 23, "no": 24, "missing": 24 , "gain": 1.01927888, "cover": 2.62513304, "children": [
          { "nodeid": 23, "leaf": 0.0258294791 , "cover": 1.56936681 }, 
          { "nodeid": 24, "leaf": -0.0542018116 , "cover": 1.05576611 }
        ]}
      ]}, 
      { "nodeid": 6, "depth": 2, "split": "f3", "split_condition": 0.784002781, "yes": 13, "no": 14, "missing": 14 , "gain": 0.252517879, "cover": 2.17996716, "children": [
        { "nodeid": 13, "leaf": -0.0525217019 , "cover": 1.0577054 }, 
        { "nodeid": 14, "leaf": 0.001082198 , "cover": 1.12226176 }
      ]}
    ]}
  ]},
  { "nodeid": 0, "depth": 0, "split": "f2", "split_condition": -0.269406825, "yes": 1, "no": 2, "missing": 2 , "gain": 26.3481693, "cover": 83.0896912, "children": [
    { "nodeid": 1, "depth": 1, "split": "f1", "split_condition": -2.01992726, "yes": 3, "no": 4, "missing": 4 , "gain": 2.98792076, "cover": 25.9862137, "children": [
      { "nodeid": 3, "leaf": 0.0355219431 , "cover": 1.15911973 }, 
      { "nodeid": 4, "depth": 2, "split": "f1", "split_condition": 1.33133912, "yes": 7, "no": 8, "missing": 8 , "gain": 3.28231621, "cover": 24.827095, "children": [
        { "nodeid": 7, "depth": 3, "split": "f3", "split_condition": 1.18901658, "yes": 13, "no": 14, "missing": 14 , "gain": 3.05080986, "cover": 21.5507126, "children": [
          { "nodeid": 13, "depth": 4, "split": "f9", "split_condition": -1.29921639, "yes": 25, "no": 26, "missing": 26 , "gain": 0.484512329, "cover": 19.7990723, "children": [
            { "nodeid": 25, "leaf": -0.012233085 , "cover": 1.03436852 }, 
            { "nodeid": 26, "leaf": -0.112100363 , "cover": 18.7647038 }
          ]}, 
          { "nodeid": 14, "leaf": 0.0143088875 , "cover": 1.7516402 }
        ]}, 
        { "nodeid": 8, "depth": 3, "split": "f0", "split_condition": 0.825098276, "yes": 15, "no": 16, "missing": 16 , "gain": 2.94903803, "cover": 3.27638197, "children": [
          { "nodeid": 15, "leaf": -0.0587698407 , "cover": 1.69316196 }, 
          { "nodeid": 16, "leaf": 0.0686638281 , "cover": 1.58322001 }
        ]}
      ]}
    ]}, 
    { "nodeid": 2, "depth": 1, "split": "f3", "split_condition": -0.0979152471, "yes": 5, "no": 6, "missing": 6 , "gain": 23.1280975, "cover": 57.1034775, "children": [
      { "nodeid": 5, "depth": 2, "split": "f2", "split_condition": 1.44194496, "yes": 9, "no": 10, "missing": 10 , "gain": 6.8710537, "cover": 25.2158718, "children": [
        { "nodeid": 9, "depth": 3, "split": "f0", "split_condition": 1.10552597, "yes": 17, "no": 18, "missing": 18 , "gain": 8.46685123, "cover": 20.3176994, "children": [
          { "nodeid": 17, "depth": 4, "split": "f2", "split_condition": 0.562880874, "yes": 27, "no": 28, "missing": 28 , "gain": 2.50884247, "cover": 17.5436573, "children": [
            { "nodeid": 27, "depth": 5, "split": "f6", "split_condition": 0.977815568, "yes": 37, "no": 38, "missing": 38 , "gain": 0.272117615, "cover": 11.1248722, "children": [
              { "nodeid": 37, "leaf": -0.11203634 , "cover": 10.0412636 }, 
              { "nodeid": 38, "leaf": -0.0163926613 , "cover": 1.08360851 }
            ]}, 
            { "nodeid": 28, "depth": 5, "split": "f6", "split_condition": -0.0265212599, "yes": 39, "no": 40, "missing": 40 , "gain": 1.38308191, "cover": 6.41878605, "children": [
              { "nodeid": 39, "depth": 6, "split": "f4", "split_condition": 0.598794401, "yes": 43, "no": 44, "missing": 44 , "gain": 0.688735127, "cover": 3.31843472, "children": [
                { "nodeid": 43, "leaf": -0.0730616674 , "cover": 2.19703698 }, 
                { "nodeid": 44, "leaf": 0.00588657474 , "cover": 1.12139785 }
              ]}, 
              { "nodeid": 40, "depth": 6, "split": "f0", "split_condition": -0.348652124, "yes": 45, "no": 46, "missing": 46 , "gain": 2.21206212, "cover": 3.10035133, "children": [
                { "nodeid": 45, "leaf": 0.0733665824 , "cover": 1.43072248 }, 
                { "nodeid": 46, "leaf": -0.0398671143 , "cover": 1.66962898 }
              ]}
            ]}
          ]}, 
          { "nodeid": 18, "depth": 4, "split": "f3", "split_condition": -1.23766243, "yes": 29, "no": 30, "missing": 30 , "gain": 2.2030406, "cover": 2.77404165, "children": [
            { "nodeid": 29, "leaf": -0.0210449882 , "cover": 1.08380926 }, 
            { "nodeid": 30, "leaf": 0.111307375 , "cover": 1.6902324 }
          ]}
        ]}, 
        { "nodeid": 10, "depth": 3, "split": "f1", "split_condition": -0.689727783, "yes": 19, "no": 20, "missing": 20 , "gain": 2.43376184, "cover": 4.89817238, "children": [
          { "nodeid": 19, "leaf": -0.0312048383 , "cover": 1.17690575 }, 
          { "nodeid": 20, "depth": 4, "split": "f0", "split_condition": -0.49693203, "yes": 31, "no": 32, "missing": 32 , "gain": 0.484572887, "cover": 3.72126651, "children": [
            { "nodeid": 31, "leaf": 0.0117240231 , "cover": 1.24059236 }, 
            { "nodeid": 32, "leaf": 0.106298678 , "cover": 2.48067403 }
          ]}
        ]}
      ]}, 
      { "nodeid": 6, "depth": 2, "split": "f0", "split_condition": 0.807122588, "yes": 11, "no": 12, "missing": 12 , "gain": 2.95186806, "cover": 31.8876038, "children": [
        { "nodeid": 11, "depth": 3, "split": "f1", "split_condition": 1.64061451, "yes": 21, "no": 22, "missing": 22 , "gain": 3.98088074, "cover": 26.872179, "children": [
          { "nodeid": 21, "depth": 4, "split": "f2", "split_condition": -0.108760148, "yes": 33, "no": 34, "missing": 34 , "gain": 3.02885056, "cover": 25.2314606, "children": [
            { "nodeid": 33, "leaf": -0.00876014493 , "cover": 1.55580091 }, 
            { "nodeid": 34, "depth": 5, "split": "f6", "split_condition": -1.09170091, "yes": 41, "no": 42, "missing": 42 , "gain": 2.57266998, "cover": 23.6756611, "children": [
              { "nodeid": 41, "depth": 6, "split": "f2", "split_condition": 0.672861218, "yes": 47, "no": 48, "missing": 48 , "gain": 2.77397585, "cover": 5.09853792, "children": [
                { "nodeid": 47, "depth": 7, "split": "f4", "split_condition": -0.65568769, "yes": 51, "no": 52, "missing": 52 , "gain": 1.36864328, "cover": 2.70779657, "children": [
                  { "nodeid": 51, "leaf": -0.0649889782 , "cover": 1.26431298 }, 
                  { "nodeid": 52, "leaf": 0.0281228125 , "cover": 1.44348371 }
                ]}, 
                { "nodeid": 48, "leaf": 0.0908627808 , "cover": 2.39074135 }
              ]}, 
              { "nodeid": 42, "depth": 6, "split": "f6", "split_condition": 1.6286155, "yes": 49, "no": 50, "missing": 50 , "gain": 0.569465637, "cover": 18.5771217, "children": [
                { "nodeid": 49, "leaf": 0.146635517 , "cover": 17.3658581 }, 
                { "nodeid": 50, "leaf": 0.0228225272 , "cover": 1.21126378 }
              ]}
            ]}
          ]}, 
          { "nodeid": 22, "leaf": -0.0217811894 , "cover": 1.64071798 }
        ]}, 
        { "nodeid": 12, "depth": 3, "split": "f1", "split_condition": 0.146793008, "yes": 23, "no": 24, "missing": 24 , "gain": 6.40859652, "cover": 5.01542521, "children": [
          { "nodeid": 23, "depth": 4, "split": "f6", "split_condition": -0.448542833, "yes": 35, "no": 36, "missing": 36 , "gain": 0.281765461, "cover": 2.83717847, "children": [
            { "nodeid": 35, "leaf": -0.00777462265 , "cover": 1.17662013 }, 
            { "nodeid": 36, "leaf": -0.0804118738 , "cover": 1.66055834 }
          ]}, 
          { "nodeid": 24, "leaf": 0.10365995 , "cover": 2.1782465 }
        ]}
      ]}
    ]}
  ]},
  { "nodeid": 0, "depth": 0, "split": "f2", "split_condition": -0.108760148, "yes": 1, "no": 2, "missing": 2 , "gain": 26.4931946, "cover": 80.4438705, "children": [
    { "nodeid": 1, "depth": 1, "split": "f0", "split_condition": 1.53075087, "yes": 3, "no": 4, "missing": 4 , "gain": 4.23235703, "cover": 29.2650433, "children": [
      { "nodeid": 3, "depth": 2, "split": "f1", "split_condition": -1.25850487, "yes": 7, "no": 8, "missing": 8 , "gain": 3.15632057, "cover": 27.0011978, "children": [
        { "nodeid": 7, "depth": 3, "split": "f0", "split_condition": -0.409686595, "yes": 15, "no": 16, "missing": 16 , "gain": 3.39665103, "cover": 4.16954899, "children": [
          { "nodeid": 15, "leaf": 0.0607502237 , "cover": 2.20767069 }, 
          { "nodeid": 16, "leaf": -0.0682853833 , "cover": 1.96187854 }
        ]}, 
        { "nodeid": 8, "depth": 3, "split": "f3", "split_condition": 1.18901658, "yes": 17, "no": 18, "missing": 18 , "gain": 1.9955368, "cover": 22.8316479, "children": [
          { "nodeid": 17, "depth": 4, "split": "f1", "split_condition": 1.79521132, "yes": 27, "no": 28, "missing": 28 , "gain": 0.267093658, "cover": 20.6348114, "children": [
            { "nodeid": 27, "leaf": -0.109532647 , "cover": 19.5417767 }, 
            { "nodeid": 28, "leaf": -0.0163138006 , "cover": 1.09303451 }
          ]}, 
          { "nodeid": 18, "depth": 4, "split": "f1", "split_condition": -0.340907872, "yes": 29, "no": 30, "missing": 30 , "gain": 1.38136649, "cover": 2.19683743, "children": [
            { "nodeid": 29, "leaf": 0.0453808382 , "cover": 1.06862569 }, 
            { "nodeid": 30, "leaf": -0.0491053835 , "cover": 1.12821174 }
          ]}
        ]}
      ]}, 
      { "nodeid": 4, "depth": 2, "split": "f1", "split_condition": 0.233216137, "yes": 9, "no": 10, "missing": 10 , "gain": 2.54406834, "cover": 2.26384616, "children": [
        { "nodeid": 9, "leaf": -0.0441661142 , "cover": 1.03794754 }, 
        { "nodeid": 10, "leaf": 0.0873823613 , "cover": 1.2258985 }
      ]}
    ]}, 
    { "nodeid": 2, "depth": 1, "split": "f3", "split_condition": 0.0146881947, "yes": 5, "no": 6, "missing": 6 , "gain": 16.3122005, "cover": 51.1788254, "children": [
      { "nodeid": 5, "depth": 2, "split": "f2", "split_condition": 1.44194496, "yes": 11, "no": 12, "missing": 12 , "gain": 5.80070162, "cover": 23.7181282, "children": [
        { "nodeid": 11, "depth": 3, "split": "f0", "split_condition": -1.17011297, "yes": 19, "no": 20, "missing": 20 , "gain": 4.9207468, "cover": 18.4136982, "children": [
          { "nodeid": 19, "leaf": 0.0745834932 , "cover": 1.40659094 }, 
          { "nodeid": 20, "depth": 4, "split": "f0", "split_condition": 1.09654713, "yes": 31, "no": 32, "missing": 32 , "gain": 5.92566061, "cover": 17.0071068, "children": [
            { "nodeid": 31, "depth": 5, "split": "f2", "split_condition": 0.843105316, "yes": 39, "no": 40, "missing": 40 , "gain": 2.23547363, "cover": 14.1889734, "children": [
              { "nodeid": 39, "leaf": -0.105592601 , "cover": 10.5114937 }, 
              { "nodeid": 40, "depth": 6, "split": "f3", "split_condition": -0.612236738, "yes": 45, "no": 46, "missing": 46 , "gain": 2.31713343, "cover": 3.67747927, "children": [
                { "nodeid": 45, "leaf": -0.0541783385 , "cover": 2.49374866 }, 
                { "nodeid": 46, "leaf": 0.0577238984 , "cover": 1.1837306 }
              ]}
            ]}, 
            { "nodeid": 32, "depth": 5, "split": "f1", "split_condition": 0.742682397, "yes": 41, "no": 42, "missing": 42 , "gain": 2.63818121, "cover": 2.81813407, "children": [
              { "nodeid": 41, "leaf": -0.033140026 , "cover": 1.35376096 }, 
              { "nodeid": 42, "leaf": 0.0987129435 , "cover": 1.46437311 }
            ]}
          ]}
        ]}, 
        { "nodeid": 12, "depth": 3, "split": "f3", "split_condition": -1.35544753, "yes": 21, "no": 22, "missing": 22 , "gain": 2.62806106, "cover": 5.30443048, "children": [
          { "nodeid": 21, "leaf": -0.0339998752 , "cover": 1.17700303 }, 
          { "nodeid": 22, "leaf": 0.0897147208 , "cover": 4.1274271 }
        ]}
      ]}, 
      { "nodeid": 6, "depth": 2, "split": "f1", "split_condition": -0.957568944, "yes": 13, "no": 14, "missing": 14 , "gain": 3.32250023, "cover": 27.4606972, "children": [
        { "nodeid": 13, "depth": 3, "split": "f0", "split_condition": 0.204758883, "yes": 23, "no": 24, "missing": 24 , "gain": 5.81783199, "cover": 5.06583834, "children": [
          { "nodeid": 23, "leaf": 0.0932765231 , "cover": 2.37917137 }, 
          { "nodeid": 24, "depth": 4, "split": "f9", "split_condition": -0.309116453, "yes": 33, "no": 34, "missing": 34 , "gain": 0.122409821, "cover": 2.68666673, "children": [
            { "nodeid": 33, "leaf": -0.0795992017 , "cover": 1.4786731 }, 
            { "nodeid": 34, "leaf": -0.0121519314 , "cover": 1.20799363 }
          ]}
        ]}, 
        { "nodeid": 14, "depth": 3, "split": "f2", "split_condition": 0.0493083298, "yes": 25, "no": 26, "missing": 26 , "gain": 1.94698524, "cover": 22.3948593, "children": [
          { "nodeid": 25, "depth": 4, "split": "f2", "split_condition": 0.0180168729, "yes": 35, "no": 36, "missing": 36 , "gain": 2.3553834, "cover": 4.10823774, "children": [
            { "nodeid": 35, "depth": 5, "split": "f7", "split_condition": 0.126177907, "yes": 43, "no": 44, "missing": 44 , "gain": 2.22771478, "cover": 3.06750131, "children": [
              { "nodeid": 43, "leaf": 0.101243429 , "cover": 1.98378181 }, 
              { "nodeid": 44, "leaf": -0.0259376615 , "cover": 1.08371949 }
            ]}, 
            { "nodeid": 36, "leaf": -0.0502618365 , "cover": 1.04073644 }
          ]}, 
          { "nodeid": 26, "depth": 4, "split": "f5", "split_condition": 1.47267067, "yes": 37, "no": 38, "missing": 38 , "gain": 1.09761047, "cover": 18.2866211, "children": [
            { "nodeid": 37, "leaf": 0.127302453 , "cover": 17.0964947 }, 
            { "nodeid": 38, "leaf": 0.00972259324 , "cover": 1.19012761 }
          ]}
        ]}
      ]}
    ]}
  ]},
  { "nodeid": 0, "depth": 0, "split": "f2", "split_condition": -0.108760148, "yes": 1, "no": 2, "missing": 2 , "gain": 19.5631828, "cover": 79.6308441, "children": [
    { "nodeid": 1, "depth": 1, "split": "f1", "split_condition": -1.25850487, "yes": 3, "no": 4, "missing": 4 , "gain": 4.81941223, "cover": 28.9074745, "children": [
      { "nodeid": 3, "depth": 2, "split": "f0", "split_condition": -0.409686595, "yes": 7, "no": 8, "missing": 8 , "gain": 4.28154993, "cover": 4.23295927, "children": [
        { "nodeid": 7, "leaf": 0.0842497572 , "cover": 2.52642655 }, 
        { "nodeid": 8, "leaf": -0.0621929541 , "cover": 1.7065326 }
      ]}, 
      { "nodeid": 4, "depth": 2, "split": "f3", "split_condition": 0.779660523, "yes": 9, "no": 10, "missing": 10 , "gain": 2.22984886, "cover": 24.6745148, "children": [
        { "nodeid": 9, "depth": 3, "split": "f0", "split_condition": 0.913771629, "yes": 15, "no": 16, "missing": 16 , "gain": 2.70236015, "cover": 19.8099861, "children": [
          { "nodeid": 15, "leaf": -0.109226458 , "cover": 16.782505 }, 
          { "nodeid": 16, "depth": 4, "split": "f3", "split_condition": -0.37482205, "yes": 25, "no": 26, "missing": 26 , "gain": 2.14797807, "cover": 3.02748132, "children": [
            { "nodeid": 25, "leaf": -0.0567529202 , "cover": 1.6241926 }, 
            { "nodeid": 26, "leaf": 0.0539448522 , "cover": 1.4032886 }
          ]}
        ]}, 
        { "nodeid": 10, "depth": 3, "split": "f2", "split_condition": -0.79241991, "yes": 17, "no": 18, "missing": 18 , "gain": 3.2787056, "cover": 4.86452818, "children": [
          { "nodeid": 17, "leaf": -0.070766449 , "cover": 2.49957752 }, 
          { "nodeid": 18, "depth": 4, "split": "f0", "split_condition": -0.0122467726, "yes": 27, "no": 28, "missing": 28 , "gain": 1.54609764, "cover": 2.36495066, "children": [
            { "nodeid": 27, "leaf": 0.0874287933 , "cover": 1.33680439 }, 
            { "nodeid": 28, "leaf": -0.0222227294 , "cover": 1.02814639 }
          ]}
        ]}
      ]}
    ]}, 
    { "nodeid": 2, "depth": 1, "split": "f3", "split_condition": 0.254420847, "yes": 5, "no": 6, "missing": 6 , "gain": 16.8542595, "cover": 50.7233696, "children": [
      { "nodeid": 5, "depth": 2, "split": "f2", "split_condition": 1.44194496, "yes": 11, "no": 12, "missing": 12 , "gain": 5.83462, "cover": 27.2632256, "children": [
        { "nodeid": 11, "depth": 3, "split": "f0", "split_condition": -1.55066347, "yes": 19, "no": 20, "missing": 20 , "gain": 3.90762973, "cover": 22.2769241, "children": [
          { "nodeid": 19, "leaf": 0.0651255548 , "cover": 1.47171414 }, 
          { "nodeid": 20, "depth": 4, "split": "f3", "split_condition": -0.212208971, "yes": 29, "no": 30, "missing": 30 , "gain": 2.75369692, "cover": 20.8052101, "children": [
            { "nodeid": 29, "depth": 5, "split": "f4", "split_condition": 1.20121396, "yes": 35, "no": 36, "missing": 36 , "gain": 2.64607334, "cover": 13.7425413, "children": [
              { "nodeid": 35, "depth": 6, "split": "f0", "split_condition": 1.09654713, "yes": 43, "no": 44, "missing": 44 , "gain": 1.01759052, "cover": 11.4753208, "children": [
                { "nodeid": 43, "leaf": -0.102478541 , "cover": 10.1590414 }, 
                { "nodeid": 44, "leaf": -0.00380463013 , "cover": 1.31627941 }
              ]}, 
              { "nodeid": 36, "depth": 6, "split": "f7", "split_condition": -0.183196619, "yes": 45, "no": 46, "missing": 46 , "gain": 0.577827811, "cover": 2.26721978, "children": [
                { "nodeid": 45, "leaf": 0.0404737964 , "cover": 1.08096921 }, 
                { "nodeid": 46, "leaf": -0.0214928519 , "cover": 1.18625057 }
              ]}
            ]}, 
            { "nodeid": 30, "depth": 5, "split": "f0", "split_condition": 0.481866062, "yes": 37, "no": 38, "missing": 38 , "gain": 2.07537127, "cover": 7.06266975, "children": [
              { "nodeid": 37, "depth": 6, "split": "f2", "split_condition": 0.324340224, "yes": 47, "no": 48, "missing": 48 , "gain": 3.37420607, "cover": 4.30098677, "children": [
                { "nodeid": 47, "leaf": -0.0547596216 , "cover": 1.20822334 }, 
                { "nodeid": 48, "depth": 7, "split": "f4", "split_condition": 0.0454914756, "yes": 51, "no": 52, "missing": 52 , "gain": 0.211612463, "cover": 3.09276319, "children": [
                  { "nodeid": 51, "leaf": 0.0931791589 , "cover": 1.95019889 }, 
                  { "nodeid": 52, "leaf": 0.0127082886 , "cover": 1.1425643 }
                ]}
              ]}, 
              { "nodeid": 38, "depth": 6, "split": "f1", "split_condition": -0.455539525, "yes": 49, "no": 50, "missing": 50 , "gain": 0.86765039, "cover": 2.76168323, "children": [
                { "nodeid": 49, "leaf": -0.0741129369 , "cover": 1.72580659 }, 
                { "nodeid": 50, "leaf": 0.0115789752 , "cover": 1.03587651 }
              ]}
            ]}
          ]}
        ]}, 
        { "nodeid": 12, "depth": 3, "split": "f3", "split_condition": -1.14300489, "yes": 21, "no": 22, "missing": 22 , "gain": 0.96036768, "cover": 4.98630142, "children": [
          { "nodeid": 21, "leaf": -0.00749050174 , "cover": 1.16914082 }, 
          { "nodeid": 22, "leaf": 0.0805803463 , "cover": 3.81716061 }
        ]}
      ]}, 
      { "nodeid": 6, "depth": 2, "split": "f5", "split_condition": 1.81806195, "yes": 13, "no": 14, "missing": 14 , "gain": 2.20724678, "cover": 23.460144, "children": [
        { "nodeid": 13, "depth": 3, "split": "f0", "split_condition": 0.825098276, "yes": 23, "no": 24, "missing": 24 , "gain": 0.618684769, "cover": 22.2807255, "children": [
          { "nodeid": 23, "depth": 4, "split": "f0", "split_condition": -0.607646346, "yes": 31, "no": 32, "missing": 32 , "gain": 0.992671967, "cover": 18.7155762, "children": [
            { "nodeid": 31, "depth": 5, "split": "f1", "split_condition": 0.543360174, "yes": 39, "no": 40, "missing": 40 , "gain": 4.74856567, "cover": 4.96496296, "children": [
              { "nodeid": 39, "leaf": 0.0922265425 , "cover": 3.55254936 }, 
              { "nodeid": 40, "leaf": -0.0621486604 , "cover": 1.41241348 }
            ]}, 
            { "nodeid": 32, "depth": 5, "split": "f9", "split_condition": 1.65540707, "yes": 41, "no": 42, "missing": 42 , "gain": 1.13559341, "cover": 13.7506132, "children": [
              { "nodeid": 41, "leaf": 0.132310644 , "cover": 12.3904753 }, 
              { "nodeid": 42, "leaf": 0.0133829433 , "cover": 1.36013854 }
            ]}
          ]}, 
          { "nodeid": 24, "depth": 4, "split": "f1", "split_condition": -1.12464213, "yes": 33, "no": 34, "missing": 34 , "gain": 2.29224539, "cover": 3.56514835, "children": [
            { "nodeid": 33, "leaf": -0.0337182768 , "cover": 1.69601405 }, 
            { "nodeid": 34, "leaf": 0.0802805796 , "cover": 1.86913431 }
          ]}
        ]}, 
        { "nodeid": 14, "leaf": -0.0164548513 , "cover": 1.1794194 }
      ]}
    ]}
  ]},
  { "nodeid": 0, "depth": 0, "split": "f2", "split_condition": -0.108760148, "yes": 1, "no": 2, "missing": 2 , "gain": 21.3943443, "cover": 70.2801056, "children": [
    { "nodeid": 1, "depth": 1, "split": "f3", "split_condition": 0.894924402, "yes": 3, "no": 4, "missing": 4 , "gain": 5.35512257, "cover": 26.1879616, "children": [
      { "nodeid": 3, "depth": 2, "split": "f1", "split_condition": -1.66858411, "yes": 7, "no": 8, "missing": 8 , "gain": 1.63759804, "cover": 21.0822601, "children": [
        { "nodeid": 7, "leaf": 0.0108587481 , "cover": 1.05451119 }, 
        { "nodeid": 8, "depth": 3, "split": "f0", "split_condition": -1.78115845, "yes": 15, "no": 16, "missing": 16 , "gain": 0.293111801, "cover": 20.02775, "children": [
          { "nodeid": 15, "leaf": -0.0140025159 , "cover": 1.09573174 }, 
          { "nodeid": 16, "depth": 4, "split": "f0", "split_condition": 1.51639402, "yes": 27, "no": 28, "missing": 28 , "gain": 0.278024673, "cover": 18.9320183, "children": [
            { "nodeid": 27, "leaf": -0.105024658 , "cover": 17.8771458 }, 
            { "nodeid": 28, "leaf": -0.0144662382 , "cover": 1.0548718 }
          ]}
        ]}
      ]}, 
      { "nodeid": 4, "depth": 2, "split": "f2", "split_condition": -0.813014388, "yes": 9, "no": 10, "missing": 10 , "gain": 2.59867883, "cover": 5.10570002, "children": [
        { "nodeid": 9, "depth": 3, "split": "f0", "split_condition": -0.238932103, "yes": 17, "no": 18, "missing": 18 , "gain": 0.618183315, "cover": 2.77218962, "children": [
          { "nodeid": 17, "leaf": 0.0109521756 , "cover": 1.05830264 }, 
          { "nodeid": 18, "leaf": -0.0597150438 , "cover": 1.71388686 }
        ]}, 
        { "nodeid": 10, "leaf": 0.0682467669 , "cover": 2.33351064 }
      ]}
    ]}, 
    { "nodeid": 2, "depth": 1, "split": "f3", "split_condition": -0.0979152471, "yes": 5, "no": 6, "missing": 6 , "gain": 16.8502235, "cover": 44.092144, "children": [
      { "nodeid": 5, "depth": 2, "split": "f2", "split_condition": 1.47789407, "yes": 11, "no": 12, "missing": 12 , "gain": 5.63447571, "cover": 19.8902397, "children": [
        { "nodeid": 11, "depth": 3, "split": "f6", "split_condition": 0.69638747, "yes": 19, "no": 20, "missing": 20 , "gain": 3.01963329, "cover": 15.3248034, "children": [
          { "nodeid": 19, "depth": 4, "split": "f0", "split_condition": 1.02945745, "yes": 29, "no": 30, "missing": 30 , "gain": 2.46817684, "cover": 11.4353828, "children": [
            { "nodeid": 29, "depth": 5, "split": "f1", "split_condition": 1.47535622, "yes": 39, "no": 40, "missing": 40 , "gain": 0.908000946, "cover": 10.0080185, "children": [
              { "nodeid": 39, "leaf": -0.1053406 , "cover": 8.44805336 }, 
              { "nodeid": 40, "leaf": -0.0095133502 , "cover": 1.55996537 }
            ]}, 
            { "nodeid": 30, "leaf": 0.0210206397 , "cover": 1.42736411 }
          ]}, 
          { "nodeid": 20, "depth": 4, "split": "f0", "split_condition": -0.348652124, "yes": 31, "no": 32, "missing": 32 , "gain": 3.38086987, "cover": 3.88942099, "children": [
            { "nodeid": 31, "leaf": 0.0813113749 , "cover": 1.67398202 }, 
            { "nodeid": 32, "leaf": -0.0505350493 , "cover": 2.21543908 }
          ]}
        ]}, 
        { "nodeid": 12, "depth": 3, "split": "f1", "split_condition": -0.634285867, "yes": 21, "no": 22, "missing": 22 , "gain": 0.931877017, "cover": 4.56543541, "children": [
          { "nodeid": 21, "leaf": -0.0105933733 , "cover": 1.20349431 }, 
          { "nodeid": 22, "depth": 4, "split": "f0", "split_condition": -0.397195309, "yes": 33, "no": 34, "missing": 34 , "gain": 0.530237436, "cover": 3.3619411, "children": [
            { "nodeid": 33, "leaf": 0.00501259323 , "cover": 1.21081448 }, 
            { "nodeid": 34, "leaf": 0.0894413069 , "cover": 2.15112662 }
          ]}
        ]}
      ]}, 
      { "nodeid": 6, "depth": 2, "split": "f9", "split_condition": -1.05130994, "yes": 13, "no": 14, "missing": 14 , "gain": 2.38146591, "cover": 24.2019043, "children": [
        { "nodeid": 13, "depth": 3, "split": "f6", "split_condition": 0.00717846677, "yes": 23, "no": 24, "missing": 24 , "gain": 0.687602818, "cover": 2.31558728, "children": [
          { "nodeid": 23, "leaf": -0.0349922627 , "cover": 1.16280079 }, 
          { "nodeid": 24, "leaf": 0.0310571995 , "cover": 1.15278649 }
        ]}, 
        { "nodeid": 14, "depth": 3, "split": "f4", "split_condition": -0.65783453, "yes": 25, "no": 26, "missing": 26 , "gain": 2.57904243, "cover": 21.8863163, "children": [
          { "nodeid": 25, "depth": 4, "split": "f0", "split_condition": 0.515294313, "yes": 35, "no": 36, "missing": 36 , "gain": 1.62802744, "cover": 5.9743681, "children": [
            { "nodeid": 35, "depth": 5, "split": "f2", "split_condition": 0.0262047537, "yes": 41, "no": 42, "missing": 42 , "gain": 1.94352245, "cover": 4.77394772, "children": [
              { "nodeid": 41, "leaf": -0.0269721542 , "cover": 1.22623301 }, 
              { "nodeid": 42, "leaf": 0.0812354907 , "cover": 3.54771471 }
            ]}, 
            { "nodeid": 36, "leaf": -0.0368116312 , "cover": 1.2004205 }
          ]}, 
          { "nodeid": 26, "depth": 4, "split": "f8", "split_condition": -1.36502182, "yes": 37, "no": 38, "missing": 38 , "gain": 1.42805099, "cover": 15.9119492, "children": [
            { "nodeid": 37, "leaf": 0.00856384542 , "cover": 1.36481428 }, 
            { "nodeid": 38, "leaf": 0.128877684 , "cover": 14.5471344 }
          ]}
        ]}
      ]}
    ]}
  ]},
  { "nodeid": 0, "depth": 0, "split": "f2", "split_condition": -0.108760148, "yes": 1, "no": 2, "missing": 2 , "gain": 17.30896, "cover": 72.2072296, "children": [
    { "nodeid": 1, "depth": 1, "split": "f0", "split_condition": -0.907756209, "yes": 3, "no": 4, "missing": 4 , "gain": 3.53210163, "cover": 26.9438095, "children": [
      { "nodeid": 3, "depth": 2, "split": "f1", "split_condition": -0.21345678, "yes": 7, "no": 8, "missing": 8 , "gain": 5.51054192, "cover": 7.12516689, "children": [
        { "nodeid": 7, "depth": 3, "split": "f2", "split_condition": -0.985726058, "yes": 15, "no": 16, "missing": 16 , "gain": 2.39513397, "cover": 3.89127207, "children": [
          { "nodeid": 15, "leaf": -0.0229629893 , "cover": 1.332142 }, 
          { "nodeid": 16, "leaf": 0.103160165 , "cover": 2.55913019 }
        ]}, 
        { "nodeid": 8, "leaf": -0.0741600022 , "cover": 3.23389482 }
      ]}, 
      { "nodeid": 4, "depth": 2, "split": "f1", "split_condition": 1.15932977, "yes": 9, "no": 10, "missing": 10 , "gain": 3.20311165, "cover": 19.8186417, "children": [
        { "nodeid": 9, "depth": 3, "split": "f4", "split_condition": 1.30547881, "yes": 17, "no": 18, "missing": 18 , "gain": 0.151859283, "cover": 15.6399364, "children": [
          { "nodeid": 17, "depth": 4, "split": "f4", "split_condition": -1.5630343, "yes": 29, "no": 30, "missing": 30 , "gain": 0.115373611, "cover": 14.5064812, "children": [
            { "nodeid": 29, "leaf": -0.0187124591 , "cover": 1.12790227 }, 
            { "nodeid": 30, "leaf": -0.106171392 , "cover": 13.3785782 }
          ]}, 
          { "nodeid": 18, "leaf": -0.0172858201 , "cover": 1.13345611 }
        ]}, 
        { "nodeid": 10, "depth": 3, "split": "f0", "split_condition": 0.825098276, "yes": 19, "no": 20, "missing": 20 , "gain": 3.07931662, "cover": 4.17870474, "children": [
          { "nodeid": 19, "leaf": -0.0625799 , "cover": 2.06181955 }, 
          { "nodeid": 20, "leaf": 0.0601461604 , "cover": 2.11688542 }
        ]}
      ]}
    ]}, 
    { "nodeid": 2, "depth": 1, "split": "f3", "split_condition": -0.0979152471, "yes": 5, "no": 6, "missing": 6 , "gain": 9.28509712, "cover": 45.2634201, "children": [
      { "nodeid": 5, "depth": 2, "split": "f2", "split_condition": 0.843105316, "yes": 11, "no": 12, "missing": 12 , "gain": 5.10600328, "cover": 19.1516438, "children": [
        { "nodeid": 11, "depth": 3, "split": "f0", "split_condition": 1.02945745, "yes": 21, "no": 22, "missing": 22 , "gain": 6.24179745, "cover": 11.0428419, "children": [
          { "nodeid": 21, "depth": 4, "split": "f1", "split_condition": -1.25850487, "yes": 31, "no": 32, "missing": 32 , "gain": 1.68879604, "cover": 9.01372814, "children": [
            { "nodeid": 31, "leaf": 0.0116721559 , "cover": 1.08424962 }, 
            { "nodeid": 32, "leaf": -0.101220034 , "cover": 7.92947865 }
          ]}, 
          { "nodeid": 22, "leaf": 0.0634024516 , "cover": 2.02911353 }
        ]}, 
        { "nodeid": 12, "depth": 3, "split": "f3", "split_condition": -1.05771089, "yes": 23, "no": 24, "missing": 24 , "gain": 2.06954741, "cover": 8.10880089, "children": [
          { "nodeid": 23, "depth": 4, "split": "f0", "split_condition": 0.128104419, "yes": 33, "no": 34, "missing": 34 , "gain": 1.2834456, "cover": 2.99261522, "children": [
            { "nodeid": 33, "leaf": 0.0364074372 , "cover": 1.0369252 }, 
            { "nodeid": 34, "leaf": -0.0517135747 , "cover": 1.95569015 }
          ]}, 
          { "nodeid": 24, "depth": 4, "split": "f9", "split_condition": 0.662051857, "yes": 35, "no": 36, "missing": 36 , "gain": 0.997108221, "cover": 5.11618567, "children": [
            { "nodeid": 35, "depth": 5, "split": "f0", "split_condition": -0.601706624, "yes": 41, "no": 42, "missing": 42 , "gain": 1.5405817, "cover": 4.05061769, "children": [
              { "nodeid": 41, "leaf": -0.00668074051 , "cover": 1.15570319 }, 
              { "nodeid": 42, "leaf": 0.11113435 , "cover": 2.89491439 }
            ]}, 
            { "nodeid": 36, "leaf": -0.00692626834 , "cover": 1.06556821 }
          ]}
        ]}
      ]}, 
      { "nodeid": 6, "depth": 2, "split": "f1", "split_condition": -0.974806547, "yes": 13, "no": 14, "missing": 14 , "gain": 2.12581253, "cover": 26.1117783, "children": [
        { "nodeid": 13, "depth": 3, "split": "f0", "split_condition": 0.145521194, "yes": 25, "no": 26, "missing": 26 , "gain": 5.5541687, "cover": 4.64283991, "children": [
          { "nodeid": 25, "leaf": 0.084809646 , "cover": 2.4358232 }, 
          { "nodeid": 26, "leaf": -0.0757417902 , "cover": 2.20701694 }
        ]}, 
        { "nodeid": 14, "depth": 3, "split": "f5", "split_condition": 1.14644086, "yes": 27, "no": 28, "missing": 28 , "gain": 3.07198524, "cover": 21.4689388, "children": [
          { "nodeid": 27, "depth": 4, "split": "f9", "split_condition": -1.05130994, "yes": 37, "no": 38, "missing": 38 , "gain": 0.882633209, "cover": 18.9758625, "children": [
            { "nodeid": 37, "depth": 5, "split": "f9", "split_condition": -1.85790145, "yes": 43, "no": 44, "missing": 44 , "gain": 1.16289389, "cover": 2.17712879, "children": [
              { "nodeid": 43, "leaf": 0.055986464 , "cover": 1.12606227 }, 
              { "nodeid": 44, "leaf": -0.0324522667 , "cover": 1.05106652 }
            ]}, 
            { "nodeid": 38, "depth": 5, "split": "f7", "split_condition": -1.56564808, "yes": 45, "no": 46, "missing": 46 , "gain": 0.959892273, "cover": 16.7987347, "children": [
              { "nodeid": 45, "leaf": 0.00606902922 , "cover": 1.13502812 }, 
              { "nodeid": 46, "leaf": 0.112633802 , "cover": 15.6637058 }
            ]}
          ]}, 
          { "nodeid": 28, "depth": 4, "split": "f0", "split_condition": -0.2430612, "yes": 39, "no": 40, "missing": 40 , "gain": 1.63299429, "cover": 2.49307632, "children": [
            { "nodeid": 39, "leaf": -0.0595459826 , "cover": 1.12305319 }, 
            { "nodeid": 40, "leaf": 0.0412867106 , "cover": 1.37002301 }
          ]}
        ]}
      ]}
    ]}
  ]},
  { "nodeid": 0, "depth": 0, "split": "f2", "split_condition": -0.64354986, "yes": 1, "no": 2, "missing": 2 , "gain": 13.5943518, "cover": 67.0397644, "children": [
    { "nodeid": 1, "depth": 1, "split": "f9", "split_condition": 0.810798645, "yes": 3, "no": 4, "missing": 4 , "gain": 1.47024345, "cover": 13.1271229, "children": [
      { "nodeid": 3, "leaf": -0.0989663228 , "cover": 9.48817539 }, 
      { "nodeid": 4, "depth": 2, "split": "f9", "split_condition": 0.975545108, "yes": 7, "no": 8, "missing": 8 , "gain": 1.32425416, "cover": 3.63894677, "children": [
        { "nodeid": 7, "leaf": 0.0379867367 , "cover": 1.21457684 }, 
        { "nodeid": 8, "leaf": -0.047486525 , "cover": 2.42437005 }
      ]}
    ]}, 
    { "nodeid": 2, "depth": 1, "split": "f3", "split_condition": 0.369642198, "yes": 5, "no": 6, "missing": 6 , "gain": 10.3260756, "cover": 53.9126434, "children": [
      { "nodeid": 5, "depth": 2, "split": "f2", "split_condition": 0.562880874, "yes": 9, "no": 10, "missing": 10 , "gain": 4.81411409, "cover": 33.5157127, "children": [
        { "nodeid": 9, "depth": 3, "split": "f0", "split_condition": 1.24608517, "yes": 13, "no": 14, "missing": 14 , "gain": 4.45171547, "cover": 19.1181812, "children": [
          { "nodeid": 13, "depth": 4, "split": "f0", "split_condition": -0.861703098, "yes": 19, "no": 20, "missing": 20 , "gain": 4.0854578, "cover": 17.1138515, "children": [
            { "nodeid": 19, "depth": 5, "split": "f8", "split_condition": -0.168143824, "yes": 29, "no": 30, "missing": 30 , "gain": 0.869601846, "cover": 3.15974808, "children": [
              { "nodeid": 29, "leaf": 0.0651073083 , "cover": 1.1146543 }, 
              { "nodeid": 30, "depth": 6, "split": "f0", "split_condition": -1.18896341, "yes": 39, "no": 40, "missing": 40 , "gain": 0.120399147, "cover": 2.04509377, "children": [
                { "nodeid": 39, "leaf": -0.022090992 , "cover": 1.0137651 }, 
                { "nodeid": 40, "leaf": 0.00784011371 , "cover": 1.03132868 }
              ]}
            ]}, 
            { "nodeid": 20, "depth": 5, "split": "f3", "split_condition": -0.0979152471, "yes": 31, "no": 32, "missing": 32 , "gain": 1.19771481, "cover": 13.9541044, "children": [
              { "nodeid": 31, "leaf": -0.0985972583 , "cover": 8.88015842 }, 
              { "nodeid": 32, "depth": 6, "split": "f2", "split_condition": 0.321678549, "yes": 41, "no": 42, "missing": 42 , "gain": 1.60713768, "cover": 5.07394552, "children": [
                { "nodeid": 41, "depth": 7, "split": "f0", "split_condition": 0.654365659, "yes": 47, "no": 48, "missing": 48 , "gain": 0.692952275, "cover": 3.58806205, "children": [
                  { "nodeid": 47, "leaf": -0.0715767071 , "cover": 2.51799703 }, 
                  { "nodeid": 48, "leaf": 0.00684516877 , "cover": 1.07006514 }
                ]}, 
                { "nodeid": 42, "leaf": 0.0350918882 , "cover": 1.48588359 }
              ]}
            ]}
          ]}, 
          { "nodeid": 14, "leaf": 0.0625111982 , "cover": 2.00432849 }
        ]}, 
        { "nodeid": 10, "depth": 3, "split": "f0", "split_condition": 0.317453265, "yes": 15, "no": 16, "missing": 16 , "gain": 3.07380557, "cover": 14.3975334, "children": [
          { "nodeid": 15, "depth": 4, "split": "f0", "split_condition": -1.24386322, "yes": 21, "no": 22, "missing": 22 , "gain": 1.6064868, "cover": 8.37744427, "children": [
            { "nodeid": 21, "leaf": -0.0154444203 , "cover": 1.39070106 }, 
            { "nodeid": 22, "depth": 5, "split": "f7", "split_condition": 0.370061129, "yes": 33, "no": 34, "missing": 34 , "gain": 1.46906567, "cover": 6.98674297, "children": [
              { "nodeid": 33, "leaf": 0.10564889 , "cover": 4.70684767 }, 
              { "nodeid": 34, "depth": 6, "split": "f3", "split_condition": -0.56155777, "yes": 43, "no": 44, "missing": 44 , "gain": 1.79302967, "cover": 2.27989554, "children": [
                { "nodeid": 43, "leaf": -0.0481965207 , "cover": 1.19226587 }, 
                { "nodeid": 44, "leaf": 0.0588585027 , "cover": 1.08762968 }
              ]}
            ]}
          ]}, 
          { "nodeid": 16, "depth": 4, "split": "f4", "split_condition": 1.14927328, "yes": 23, "no": 24, "missing": 24 , "gain": 1.30617285, "cover": 6.02008915, "children": [
            { "nodeid": 23, "depth": 5, "split": "f2", "split_condition": 1.44194496, "yes": 35, "no": 36, "missing": 36 , "gain": 1.07836092, "cover": 4.63211298, "children": [
              { "nodeid": 35, "leaf": -0.0634228811 , "cover": 3.2735877 }, 
              { "nodeid": 36, "leaf": 0.0175064523 , "cover": 1.35852504 }
            ]}, 
            { "nodeid": 24, "leaf": 0.0364220031 , "cover": 1.38797617 }
          ]}
        ]}
      ]}, 
      { "nodeid": 6, "depth": 2, "split": "f5", "split_condition": 1.81806195, "yes": 11, "no": 12, "missing": 12 , "gain": 2.51237583, "cover": 20.3969269, "children": [
        { "nodeid": 11, "depth": 3, "split": "f2", "split_condition": -0.308034271, "yes": 17, "no": 18, "missing": 18 , "gain": 0.877922058, "cover": 19.0442924, "children": [
          { "nodeid": 17, "depth": 4, "split": "f9", "split_condition": 0.0355660729, "yes": 25, "no": 26, "missing": 26 , "gain": 0.692234278, "cover": 2.26677203, "children": [
            { "nodeid": 25, "leaf": -0.0230964478 , "cover": 1.25216579 }, 
            { "nodeid": 26, "leaf": 0.044687327 , "cover": 1.01460624 }
          ]}, 
          { "nodeid": 18, "depth": 4, "split": "f0", "split_condition": -1.54280317, "yes": 27, "no": 28, "missing": 28 , "gain": 0.687459946, "cover": 16.7775211, "children": [
            { "nodeid": 27, "leaf": 0.00679555116 , "cover": 1.15031362 }, 
            { "nodeid": 28, "depth": 5, "split": "f0", "split_condition": 0.807122588, "yes": 37, "no": 38, "missing": 38 , "gain": 0.357160568, "cover": 15.6272068, "children": [
              { "nodeid": 37, "leaf": 0.10892614 , "cover": 12.6638489 }, 
              { "nodeid": 38, "depth": 6, "split": "f0", "split_condition": 1.10552597, "yes": 45, "no": 46, "missing": 46 , "gain": 0.939847946, "cover": 2.96335793, "children": [
                { "nodeid": 45, "leaf": -0.0205204543 , "cover": 1.12540555 }, 
                { "nodeid": 46, "leaf": 0.0591481924 , "cover": 1.83795249 }
              ]}
            ]}
          ]}
        ]}, 
        { "nodeid": 12, "leaf": -0.024759518 , "cover": 1.35263515 }
      ]}
    ]}
  ]},
  { "nodeid": 0, "depth": 0, "split": "f2", "split_condition": 0.216624975, "yes": 1, "no": 2, "missing": 2 , "gain": 15.251914, "cover": 64.4090042, "children": [
    { "nodeid": 1, "depth": 1, "split": "f0", "split_condition": 1.31739402, "yes": 3, "no": 4, "missing": 4 , "gain": 6.47588921, "cover": 32.9284821, "children": [
      { "nodeid": 3, "depth": 2, "split": "f1", "split_condition": -0.546041787, "yes": 7, "no": 8, "missing": 8 , "gain": 2.6777277, "cover": 28.4463425, "children": [
        { "nodeid": 7, "depth": 3, "split": "f0", "split_condition": -0.556118727, "yes": 15, "no": 16, "missing": 16 , "gain": 6.2247591, "cover": 9.20962238, "children": [
          { "nodeid": 15, "depth": 4, "split": "f6", "split_condition": -0.248691127, "yes": 25, "no": 26, "missing": 26 , "gain": 0.782045126, "cover": 3.68965435, "children": [
            { "nodeid": 25, "leaf": 0.00500290096 , "cover": 1.86576164 }, 
            { "nodeid": 26, "leaf": 0.0898605809 , "cover": 1.82389271 }
          ]}, 
          { "nodeid": 16, "depth": 4, "split": "f4", "split_condition": 0.994447351, "yes": 27, "no": 28, "missing": 28 , "gain": 0.560519218, "cover": 5.51996803, "children": [
            { "nodeid": 27, "leaf": -0.0862844065 , "cover": 4.50335646 }, 
            { "nodeid": 28, "leaf": -0.00210640277 , "cover": 1.01661146 }
          ]}
        ]}, 
        { "nodeid": 8, "depth": 3, "split": "f4", "split_condition": -1.51891077, "yes": 17, "no": 18, "missing": 18 , "gain": 2.97969818, "cover": 19.2367191, "children": [
          { "nodeid": 17, "leaf": 0.0159840044 , "cover": 1.9389106 }, 
          { "nodeid": 18, "leaf": -0.099820219 , "cover": 17.2978096 }
        ]}
      ]}, 
      { "nodeid": 4, "depth": 2, "split": "f1", "split_condition": 0.233216137, "yes": 9, "no": 10, "missing": 10 , "gain": 4.74538136, "cover": 4.48214149, "children": [
        { "nodeid": 9, "leaf": -0.0552610867 , "cover": 1.57599115 }, 
        { "nodeid": 10, "leaf": 0.101327851 , "cover": 2.90615058 }
      ]}
    ]}, 
    { "nodeid": 2, "depth": 1, "split": "f0", "split_condition": 0.572006285, "yes": 5, "no": 6, "missing": 6 , "gain": 3.08008337, "cover": 31.4805183, "children": [
      { "nodeid": 5, "depth": 2, "split": "f1", "split_condition": 0.191897735, "yes": 11, "no": 12, "missing": 12 , "gain": 4.77060699, "cover": 23.7464008, "children": [
        { "nodeid": 11, "depth": 3, "split": "f0", "split_condition": 0.204758883, "yes": 19, "no": 20, "missing": 20 , "gain": 0.183020592, "cover": 11.4310369, "children": [
          { "nodeid": 19, "depth": 4, "split": "f6", "split_condition": -1.00560141, "yes": 29, "no": 30, "missing": 30 , "gain": 0.24672699, "cover": 9.78103352, "children": [
            { "nodeid": 29, "depth": 5, "split": "f0", "split_condition": -0.451949358, "yes": 35, "no": 36, "missing": 36 , "gain": 0.35805738, "cover": 2.03751397, "children": [
              { "nodeid": 35, "leaf": -0.00817400031 , "cover": 1.01323164 }, 
              { "nodeid": 36, "leaf": 0.048088748 , "cover": 1.02428234 }
            ]}, 
            { "nodeid": 30, "depth": 5, "split": "f0", "split_condition": 0.071566239, "yes": 37, "no": 38, "missing": 38 , "gain": 0.376494408, "cover": 7.74351978, "children": [
              { "nodeid": 37, "leaf": 0.127498239 , "cover": 6.66374111 }, 
              { "nodeid": 38, "leaf": 0.0179285984 , "cover": 1.07977867 }
            ]}
          ]}, 
          { "nodeid": 20, "leaf": 0.0241716374 , "cover": 1.65000343 }
        ]}, 
        { "nodeid": 12, "depth": 3, "split": "f0", "split_condition": -0.601706624, "yes": 21, "no": 22, "missing": 22 , "gain": 4.13727522, "cover": 12.3153648, "children": [
          { "nodeid": 21, "depth": 4, "split": "f1", "split_condition": 0.458386689, "yes": 31, "no": 32, "missing": 32 , "gain": 1.36614132, "cover": 4.42198181, "children": [
            { "nodeid": 31, "leaf": 0.0213291999 , "cover": 1.07815564 }, 
            { "nodeid": 32, "depth": 5, "split": "f2", "split_condition": 1.16316378, "yes": 39, "no": 40, "missing": 40 , "gain": 0.736120701, "cover": 3.34382606, "children": [
              { "nodeid": 39, "leaf": -0.0939928219 , "cover": 2.1194582 }, 
              { "nodeid": 40, "leaf": -0.00210370147 , "cover": 1.22436774 }
            ]}
          ]}, 
          { "nodeid": 22, "depth": 4, "split": "f0", "split_condition": 0.0340274125, "yes": 33, "no": 34, "missing": 34 , "gain": 0.715731382, "cover": 7.89338255, "children": [
            { "nodeid": 33, "leaf": 0.0799619108 , "cover": 3.06601477 }, 
            { "nodeid": 34, "depth": 5, "split": "f1", "split_condition": 0.550797582, "yes": 41, "no": 42, "missing": 42 , "gain": 0.857474804, "cover": 4.82736826, "children": [
              { "nodeid": 41, "leaf": -0.0307768621 , "cover": 1.08654797 }, 
              { "nodeid": 42, "depth": 6, "split": "f0", "split_condition": 0.195845261, "yes": 43, "no": 44, "missing": 44 , "gain": 0.845536888, "cover": 3.74082017, "children": [
                { "nodeid": 43, "leaf": -0.0186440274 , "cover": 1.04840624 }, 
                { "nodeid": 44, "leaf": 0.0563596673 , "cover": 2.69241381 }
              ]}
            ]}
          ]}
        ]}
      ]}, 
      { "nodeid": 6, "depth": 2, "split": "f1", "split_condition": -0.0498801544, "yes": 13, "no": 14, "missing": 14 , "gain": 6.52064085, "cover": 7.73411608, "children": [
        { "nodeid": 13, "depth": 3, "split": "f6", "split_condition": -0.717918873, "yes": 23, "no": 24, "missing": 24 , "gain": 1.05019927, "cover": 5.06291962, "children": [
          { "nodeid": 23, "leaf": -0.00230528135 , "cover": 1.8985343 }, 
          { "nodeid": 24, "leaf": -0.0918020904 , "cover": 3.16438532 }
        ]}, 
        { "nodeid": 14, "leaf": 0.0840567574 , "cover": 2.67119646 }
      ]}
    ]}
  ]},
  { "nodeid": 0, "depth": 0, "split": "f2", "split_condition": -0.308034271, "yes": 1, "no": 2, "missing": 2 , "gain": 12.622879, "cover": 65.8292236, "children": [
    { "nodeid": 1, "depth": 1, "split": "f1", "split_condition": 1.33133912, "yes": 3, "no": 4, "missing": 4 , "gain": 1.54652309, "cover": 18.095253, "children": [
      { "nodeid": 3, "depth": 2, "split": "f1", "split_condition": -1.25850487, "yes": 7, "no": 8, "missing": 8 , "gain": 1.66689873, "cover": 15.3297796, "children": [
