{"learner":{"attributes":{},"feature_names":[],"feature_types":[],"gradient_booster":{"model":{"gbtree_model_param":{"num_parallel_tree":"1","num_trees":"10"},"iteration_indptr":[0,1,2,3,4,5,6,7,8,9,10],"tree_info":[0,0,0,0,0,0,0,0,0,0],"trees":[{"base_weights":[-4.2391744E-7,-8.411482E-1,1.3922433E0,-1.7518965E0,6.100686E-1,-9.4554234E-1,5.667457E-1,-5.508917E-1,-8.1336135E-1,-8.850918E-1,1.39698E0,-4.5578033E-1,1.224032E-1,-3.9734522E-1,6.889052E-2,-4.8765424E-1,2.7528045E-1,2.3999868E-3,4.7323653E-1],"categories":[],"categories_nodes":[],"categories_segments":[],"categories_sizes":[],"default_left":[0,0,0,0,0,0,0,0,0,0,0,0,0,0,0,0,0,0,0],"id":0,"left_children":[1,3,5,7,9,11,-1,-1,13,15,17,-1,-1,-1,-1,-1,-1,-1,-1],"loss_changes":[9.0169464E1,6.450728E1,3.5473167E1,8.6315155E-1,2.3884256E1,5.0849757E0,0E0,0E0,2.5697424E0,1.1168171E1,3.2460346E0,0E0,0E0,0E0,0E0,0E0,0E0,0E0,0E0],"parents":[2147483647,0,0,1,1,2,2,3,3,4,4,5,5,8,8,9,9,10,10],"right_children":[2,4,6,8,10,12,-1,-1,14,16,18,-1,-1,-1,-1,-1,-1,-1,-1],"split_conditions":[3.26133E-1,2.5049284E-1,-7.778167E-1,1.2810442E-1,-8.3921754E-1,1.1593298E0,5.667457E-1,-5.508917E-1,-6.465729E-1,1.0098171E0,3.8406545E-1,-4.5578033E-1,1.224032E-1,-3.9734522E-1,6.889052E-2,-4.8765424E-1,2.7528045E-1,2.3999868E-3,4.7323653E-1],"split_indices":[1,0,0,0,1,1,0,0,1,0,0,0,0,0,0,0,0,0,0],"split_type":[0,0,0,0,0,0,0,0,0,0,0,0,0,0,0,0,0,0,0],"sum_hessian":[7.499666E1,4.6997906E1,2.7998753E1,2.874872E1,1.8249187E1,4.7497883E0,2.3248964E1,2.5498865E1,3.2498553E0,6.2497215E0,1.1999466E1,3.2498553E0,1.4999332E0,1.999911E0,1.2499443E0,4.4997997E0,1.749922E0,1.4999332E0,1.0499533E1],"tree_param":{"num_deleted":"0","num_feature":"5","num_nodes":"19","size_leaf_vector":"1"}},{"base_weights":[-6.068615E-3,-9.52255E-1,7.6519805E-1,-1.4879299E0,4.828414E-1,-8.0461246E-1,1.3441163E0,-4.6507812E-1,-6.4448583E-1,-3.410183E-1,3.460691E-1,-4.2566827E-1,4.0737706E-1,5.8836555E-1,4.6532777E-1,-2.7101192E-1,-2.7236428E-2,-3.048681E-1,2.9268107E-1,-1.4000697E-1,3.2561257E-1,-2.3789798E-1,3.886585E-1],"categories":[],"categories_nodes":[],"categories_segments":[],"categories_sizes":[],"default_left":[0,0,0,0,0,0,0,0,0,0,0,0,0,0,0,0,0,0,0,0,0,0,0],"id":1,"left_children":[1,3,5,7,9,11,13,-1,15,17,-1,-1,19,21,-1,-1,-1,-1,-1,-1,-1,-1,-1],"loss_changes":[5.2748787E1,2.5669838E1,3.7275368E1,2.563095E-1,5.6855736E0,9.032379E0,3.6972656E0,0E0,3.9888263E-1,5.498449E0,0E0,0E0,3.230504E0,8.79036E0,0E0,0E0,0E0,0E0,0E0,0E0,0E0,0E0,0E0],"parents":[2147483647,0,0,1,1,2,2,3,3,4,4,5,5,6,6,8,8,9,9,12,12,13,13],"right_children":[2,4,6,8,10,12,14,-1,16,18,-1,-1,20,22,-1,-1,-1,-1,-1,-1,-1,-1,-1],"split_conditions":[-9.671311E-2,6.427228E-1,-5.73662E-1,-2.4869113E-1,-8.9725435E-1,8.3352894E-1,-6.26791E-2,-4.6507812E-1,-6.127887E-1,1.247742E0,3.460691E-1,-4.2566827E-1,-1.209641E0,2.8916866E-1,4.6532777E-1,-2.7101192E-1,-2.7236428E-2,-3.048681E-1,2.9268107E-1,-1.4000697E-1,3.2561257E-1,-2.3789798E-1,3.886585E-1],"split_indices":[1,0,0,1,1,1,0,0,4,0,0,0,0,1,0,0,0,0,0,0,0,0,0],"split_type":[0,0,0,0,0,0,0,0,0,0,0,0,0,0,0,0,0,0,0,0,0,0,0],"sum_hessian":[7.0283676E1,3.1457317E1,3.882636E1,2.2880102E1,8.577215E0,1.0355701E1,2.8470655E1,2.0525278E1,2.3548245E0,4.069789E0,4.5074267E0,6.7591805E0,3.596521E0,6.9470253E0,2.152363E1,1.1742597E0,1.1805649E0,2.8409886E0,1.2288003E0,1.7072368E0,1.8892841E0,2.3111312E0,4.6358943E0],"tree_param":{"num_deleted":"0","num_feature":"5","num_nodes":"23","size_leaf_vector":"1"}},{"base_weights":[-5.5293846E-3,-7.922089E-1,6.41688E-1,-1.1118855E0,3.087831E-1,-6.611466E-1,1.1406289E0,-1.2659136E0,-2.589444E-1,-3.6319548E-1,3.451466E-1,4.898411E-1,3.9686924E-1,-3.9676967E-1,-1.6730364E-1,-2.9233998E-1,2.5997737E-1,-1.1465036E-1,2.8074303E-1,-2.003955E-1,3.341568E-1],"categories":[],"categories_nodes":[],"categories_segments":[],"categories_sizes":[],"default_left":[0,0,0,0,0,0,0,0,0,0,0,0,0,0,0,0,0,0,0,0,0],"id":2,"left_children":[1,3,5,7,-1,9,11,13,15,-1,17,19,-1,-1,-1,-1,-1,-1,-1,-1,-1],"loss_changes":[3.2289852E1,1.7810736E1,2.3374268E1,2.9342365E0,0E0,6.0963683E0,2.3801842E0,9.5962524E-2,4.915596E0,0E0,2.2501163E0,5.9269757E0,0E0,0E0,0E0,0E0,0E0,0E0,0E0,0E0,0E0],"parents":[2147483647,0,0,1,1,2,2,3,3,5,5,6,6,7,7,8,8,10,10,11,11],"right_children":[2,4,6,8,-1,10,12,14,16,-1,18,20,-1,-1,-1,-1,-1,-1,-1,-1,-1],"split_conditions":[-9.671311E-2,1.0098171E0,-5.73662E-1,6.427228E-1,3.087831E-1,8.3352894E-1,-6.26791E-2,-2.4869113E-1,-7.2713715E-1,-3.6319548E-1,-1.209641E0,2.8916866E-1,3.9686924E-1,-3.9676967E-1,-1.6730364E-1,-2.9233998E-1,2.5997737E-1,-1.1465036E-1,2.8074303E-1,-2.003955E-1,3.341568E-1],"split_indices":[1,0,0,0,0,1,0,1,1,0,0,1,0,0,0,0,0,0,0,0,0],"split_type":[0,0,0,0,0,0,0,0,0,0,0,0,0,0,0,0,0,0,0,0,0],"sum_hessian":[6.142038E1,2.762217E1,3.3798206E1,2.3829576E1,3.7925947E0,9.269249E0,2.452896E1,1.9774439E1,4.055136E0,5.8640146E0,3.4052336E0,6.1736093E0,1.835535E1,1.7506666E1,2.2677727E0,2.561174E0,1.4939623E0,1.6842792E0,1.7209544E0,2.13737E0,4.036239E0],"tree_param":{"num_deleted":"0","num_feature":"5","num_nodes":"21","size_leaf_vector":"1"}},{"base_weights":[-3.4528826E-3,-6.8267375E-1,5.626578E-1,-9.730246E-1,8.694979E-1,-5.604671E-1,1.0146803E0,-1.1230365E0,-2.0499125E-1,7.683227E-2,2.9466575E-1,-3.2253936E-1,2.9974076E-1,4.202626E-1,3.5652208E-1,-3.5628766E-1,-1.3724032E-1,-2.4691258E-1,2.3050639E-1,-9.429634E-2,2.4757053E-1,-1.7050226E-1,2.9674715E-1],"categories":[],"categories_nodes":[],"categories_segments":[],"categories_sizes":[],"default_left":[0,0,0,0,0,0,0,0,0,0,0,0,0,0,0,0,0,0,0,0,0,0,0],"id":3,"left_children":[1,3,5,7,9,11,13,15,17,-1,-1,-1,19,21,-1,-1,-1,-1,-1,-1,-1,-1,-1],"loss_changes":[2.0754465E1,1.1903053E1,1.551599E1,2.2054214E0,5.2277327E-2,4.3480453E0,1.7052021E0,2.073803E-1,3.446357E0,0E0,0E0,0E0,1.6101362E0,4.1478453E0,0E0,0E0,0E0,0E0,0E0,0E0,0E0,0E0,0E0],"parents":[2147483647,0,0,1,1,2,2,3,3,4,4,5,5,6,6,7,7,8,8,12,12,13,13],"right_children":[2,4,6,8,10,12,14,16,18,-1,-1,-1,20,22,-1,-1,-1,-1,-1,-1,-1,-1,-1],"split_conditions":[-9.671311E-2,1.0098171E0,-5.73662E-1,6.427228E-1,-3.220615E-1,8.3352894E-1,-6.26791E-2,-2.4869113E-1,-7.2713715E-1,7.683227E-2,2.9466575E-1,-3.2253936E-1,-1.209641E0,2.8916866E-1,3.5652208E-1,-3.5628766E-1,-1.3724032E-1,-2.4691258E-1,2.3050639E-1,-9.429634E-2,2.4757053E-1,-1.7050226E-1,2.9674715E-1],"split_indices":[1,0,0,0,2,1,0,1,1,0,0,0,0,1,0,0,0,0,0,0,0,0,0],"split_type":[0,0,0,0,0,0,0,0,0,0,0,0,0,0,0,0,0,0,0,0,0,0,0],"sum_hessian":[5.197686E1,2.3534369E1,2.844249E1,2.0140066E1,3.394301E0,8.093337E0,2.0349154E1,1.6462414E1,3.6776536E0,1.03488E0,2.359421E0,4.9073877E0,3.1859496E0,5.375527E0,1.4973626E1,1.4291173E1,2.1712403E0,2.343811E0,1.3338425E0,1.6544788E0,1.5314709E0,1.96383E0,3.411697E0],"tree_param":{"num_deleted":"0","num_feature":"5","num_nodes":"23","size_leaf_vector":"1"}},{"base_weights":[1.3203161E-3,-4.1518152E-1,7.206673E-1,-9.727019E-1,3.5223445E-1,-4.1328457E-1,1.0468775E0,-3.2499966E-1,-4.7618887E-1,-1.3982992E-1,3.2165778E-1,-2.580115E-1,9.950721E-2,9.1904715E-2,3.2513073E-1,-2.6409894E-1,1.0930473E-1,-2.615538E-1,1.8319133E-1],"categories":[],"categories_nodes":[],"categories_segments":[],"categories_sizes":[],"default_left":[0,0,0,0,0,0,0,0,0,0,0,0,0,0,0,0,0,0,0],"id":4,"left_children":[1,3,5,7,9,11,13,-1,15,17,-1,-1,-1,-1,-1,-1,-1,-1,-1],"loss_changes":[1.3612145E1,1.2654123E1,6.5949507E0,4.1423607E-1,4.6995845E0,1.7625587E0,2.9157639E-2,0E0,1.9749653E0,5.209177E0,0E0,0E0,0E0,0E0,0E0,0E0,0E0,0E0,0E0],"parents":[2147483647,0,0,1,1,2,2,3,3,4,4,5,5,6,6,8,8,9,9],"right_children":[2,4,6,8,10,12,14,-1,16,18,-1,-1,-1,-1,-1,-1,-1,-1,-1],"split_conditions":[3.26133E-1,2.5049284E-1,-7.778167E-1,-1.9637799E-2,-3.7283316E-1,1.1593298E0,-6.231405E-1,-3.2499966E-1,-2.975635E-1,8.8365996E-1,3.2165778E-1,-2.580115E-1,9.950721E-2,9.1904715E-2,3.2513073E-1,-2.6409894E-1,1.0930473E-1,-2.615538E-1,1.8319133E-1],"split_indices":[1,0,0,1,1,1,0,0,0,0,0,0,0,0,0,0,0,0,0],"split_type":[0,0,0,0,0,0,0,0,0,0,0,0,0,0,0,0,0,0,0],"sum_hessian":[4.343432E1,2.7775272E1,1.5659045E1,1.5932766E1,1.1842506E1,3.438705E0,1.222034E1,1.2063061E1,3.869705E0,7.513257E0,4.329249E0,2.0530567E0,1.3856483E0,1.0214139E0,1.1198926E1,2.581262E0,1.288443E0,3.7215102E0,3.791747E0],"tree_param":{"num_deleted":"0","num_feature":"5","num_nodes":"19","size_leaf_vector":"1"}},{"base_weights":[1.5684057E-3,-3.6516818E-1,6.473085E-1,-9.0995276E-1,2.923477E-1,-3.586775E-1,9.718494E-1,-3.1157088E-1,-4.115421E-1,-4.530084E-1,6.983621E-1,-2.3267524E-1,8.2522884E-2,8.027044E-2,3.0638954E-1,-2.4003318E-1,9.028479E-2,-2.5678495E-1,1.04482844E-1,6.3785724E-2,2.9775748E-1],"categories":[],"categories_nodes":[],"categories_segments":[],"categories_sizes":[],"default_left":[0,0,0,0,0,0,0,0,0,0,0,0,0,0,0,0,0,0,0,0,0],"id":5,"left_children":[1,3,5,7,9,11,13,-1,15,17,19,-1,-1,-1,-1,-1,-1,-1,-1,-1,-1],"loss_changes":[9.111652E0,9.057003E0,4.898338E0,4.4853973E-1,3.9107003E0,1.30445E0,1.0306549E-1,0E0,1.4753416E0,1.8462291E0,9.4383264E-1,0E0,0E0,0E0,0E0,0E0,0E0,0E0,0E0,0E0,0E0],"parents":[2147483647,0,0,1,1,2,2,3,3,4,4,5,5,6,6,8,8,9,9,10,10],"right_children":[2,4,6,8,10,12,14,-1,16,18,20,-1,-1,-1,-1,-1,-1,-1,-1,-1,-1],"split_conditions":[3.26133E-1,2.1101747E-1,-7.778167E-1,-1.9637799E-2,-8.3921754E-1,1.1593298E0,4.2545757E-1,-3.1157088E-1,-2.975635E-1,1.0098171E0,-3.7283316E-1,-2.3267524E-1,8.2522884E-2,8.027044E-2,3.0638954E-1,-2.4003318E-1,9.028479E-2,-2.5678495E-1,1.04482844E-1,6.3785724E-2,2.9775748E-1],"split_indices":[1,0,0,1,1,1,1,0,0,0,1,0,0,0,0,0,0,0,0,0,0],"split_type":[0,0,0,0,0,0,0,0,0,0,0,0,0,0,0,0,0,0,0,0,0],"sum_hessian":[3.6477432E1,2.354179E1,1.2935643E1,1.2664608E1,1.0877182E1,3.1295934E0,9.80605E0,9.205365E0,3.4592428E0,3.7948678E0,7.0823145E0,1.7527655E0,1.3768277E0,1.0639309E0,8.742119E0,2.158885E0,1.3003579E0,2.4796872E0,1.3151805E0,3.3210871E0,3.7612271E0],"tree_param":{"num_deleted":"0","num_feature":"5","num_nodes":"21","size_leaf_vector":"1"}},{"base_weights":[-3.6325937E-4,-5.5490285E-1,3.4149995E-1,-2.936702E-1,3.9831802E-1,-3.0605334E-1,8.430572E-1,-6.958722E-2,2.3507091E-1,-8.1436294E-1,4.925031E-1,4.9592275E-2,2.8460702E-1,-2.8573453E-1,-6.698165E-2,-6.438308E-2,2.3240195E-1],"categories":[],"categories_nodes":[],"categories_segments":[],"categories_sizes":[],"default_left":[0,0,0,0,0,0,0,0,0,0,0,0,0,0,0,0,0],"id":6,"left_children":[1,3,5,-1,7,9,11,-1,-1,13,15,-1,-1,-1,-1,-1,-1],"loss_changes":[6.2154517E0,5.4433355E0,6.845622E0,0E0,1.2890251E0,4.2924314E0,6.8054295E-1,0E0,0E0,2.9623175E-1,1.0345707E0,0E0,0E0,0E0,0E0,0E0,0E0],"parents":[2147483647,0,0,1,1,2,2,4,4,5,5,6,6,9,9,10,10],"right_children":[2,4,6,-1,8,10,12,-1,-1,14,16,-1,-1,-1,-1,-1,-1],"split_conditions":[-2.4903604E-1,8.3352894E-1,-2.4869113E-1,-2.936702E-1,-1.209641E0,8.8365996E-1,-6.26791E-2,-6.958722E-2,2.3507091E-1,-5.624668E-1,-1.2242982E0,4.9592275E-2,2.8460702E-1,-2.8573453E-1,-6.698165E-2,-6.438308E-2,2.3240195E-1],"split_indices":[0,1,1,0,0,0,0,0,0,1,1,0,0,0,0,0,0],"split_type":[0,0,0,0,0,0,0,0,0,0,0,0,0,0,0,0,0],"sum_hessian":[3.0786362E1,1.1503406E1,1.9282957E1,7.94326E0,3.5601456E0,8.586651E0,1.0696305E1,1.501532E0,2.0586138E0,5.2347517E0,3.3518994E0,1.7881703E0,8.908135E0,3.747867E0,1.4868845E0,1.0243428E0,2.3275566E0],"tree_param":{"num_deleted":"0","num_feature":"5","num_nodes":"17","size_leaf_vector":"1"}},{"base_weights":[-7.297648E-4,-3.5976356E-1,4.737025E-1,-2.6890394E-1,1.700316E-1,-1.56045E-1,2.9781735E-1,-3.5420606E-1,4.9120733E-1,-2.1043247E-1,3.2428077E-1,-2.1827233E-1,8.164643E-2,4.979349E-3,2.1344002E-1,-5.7689037E-2,2.084987E-1],"categories":[],"categories_nodes":[],"categories_segments":[],"categories_sizes":[],"default_left":[0,0,0,0,0,0,0,0,0,0,0,0,0,0,0,0,0],"id":7,"left_children":[1,3,5,-1,7,9,-1,11,13,-1,15,-1,-1,-1,-1,-1,-1],"loss_changes":[4.7953115E0,4.7076035E0,4.118883E0,0E0,1.6730738E0,1.8892695E0,0E0,1.12492E0,6.091347E-1,0E0,9.105418E-1,0E0,0E0,0E0,0E0,0E0,0E0],"parents":[2147483647,0,0,1,1,2,2,4,4,5,5,7,7,8,8,10,10],"right_children":[2,4,6,-1,8,10,-1,12,14,-1,16,-1,-1,-1,-1,-1,-1],"split_conditions":[8.704707E-2,2.1101747E-1,-2.975635E-1,-2.6890394E-1,-8.3921754E-1,8.3352894E-1,2.9781735E-1,1.0098171E0,5.382961E-1,-2.1043247E-1,-1.209641E0,-2.1827233E-1,8.164643E-2,4.979349E-3,2.1344002E-1,-5.7689037E-2,2.084987E-1],"split_indices":[1,0,0,0,1,1,0,0,0,0,0,0,0,0,0,0,0],"split_type":[0,0,0,0,0,0,0,0,0,0,0,0,0,0,0,0,0],"sum_hessian":[2.615138E1,1.502368E1,1.1127701E1,7.1202908E0,7.903389E0,5.3435426E0,5.784158E0,2.9634573E0,4.939932E0,2.286706E0,3.0568364E0,1.7554553E0,1.208002E0,1.9067242E0,3.0332077E0,1.4782418E0,1.5785946E0],"tree_param":{"num_deleted":"0","num_feature":"5","num_nodes":"17","size_leaf_vector":"1"}},{"base_weights":[2.5140315E-3,-4.1824478E-1,3.4951192E-1,-6.766136E-1,2.1383919E-1,-3.4826168E-1,7.313908E-1,-7.951294E-1,4.765674E-2,-2.078426E-1,1.5167207E-1,2.2312786E-1,2.75331E-1,-2.6342684E-1,-3.765083E-2,-8.807971E-2,1.9044308E-1],"categories":[],"categories_nodes":[],"categories_segments":[],"categories_sizes":[],"default_left":[0,0,0,0,0,0,0,0,0,0,0,0,0,0,0,0,0],"id":8,"left_children":[1,3,5,7,-1,9,11,13,-1,-1,-1,15,-1,-1,-1,-1,-1],"loss_changes":[3.5516376E0,3.6959348E0,3.806035E0,1.0635171E0,0E0,1.9363565E0,6.4173126E-1,3.5953665E-1,0E0,0E0,0E0,9.7748053E-1,0E0,0E0,0E0,0E0,0E0],"parents":[2147483647,0,0,1,1,2,2,3,3,5,5,6,6,7,7,11,11],"right_children":[2,4,6,8,-1,10,12,14,-1,-1,-1,16,-1,-1,-1,-1,-1],"split_conditions":[-1.382643E-1,1.247742E0,-5.73662E-1,1.5615112E0,2.1383919E-1,1.5380366E0,-6.26791E-2,8.8365996E-1,4.765674E-2,-2.078426E-1,1.5167207E-1,2.8916866E-1,2.75331E-1,-2.6342684E-1,-3.765083E-2,-8.807971E-2,1.9044308E-1],"split_indices":[1,0,0,2,0,1,0,0,0,0,0,1,0,0,0,0,0],"split_type":[0,0,0,0,0,0,0,0,0,0,0,0,0,0,0,0,0],"sum_hessian":[2.2324656E1,9.997127E0,1.2327528E1,8.46517E0,1.531957E0,4.39145E0,7.936078E0,7.455808E0,1.009362E0,3.2632337E0,1.1282161E0,2.718848E0,5.2172303E0,6.356936E0,1.0988722E0,1.3328015E0,1.3860464E0],"tree_param":{"num_deleted":"0","num_feature":"5","num_nodes":"17","size_leaf_vector":"1"}},{"base_weights":[1.662078E-2,-3.9426067E-1,3.0115253E-1,-6.533631E-1,1.9168136E-1,-1.2115432E-1,2.4020673E-1,-2.5839484E-1,-1.682285E-1,-5.004382E-1,3.5148835E-1,-1.817505E-1,1.0675097E-1,-2.2418883E-1,5.616118E-3,-4.551284E-2,2.0403898E-1],"categories":[],"categories_nodes":[],"categories_segments":[],"categories_sizes":[],"default_left":[0,0,0,0,0,0,0,0,0,0,0,0,0,0,0,0,0],"id":9,"left_children":[1,3,5,7,-1,9,-1,-1,11,13,15,-1,-1,-1,-1,-1,-1],"loss_changes":[2.4874296E0,2.752635E0,2.7420144E0,6.085589E-1,0E0,1.5495805E0,0E0,0E0,1.0144756E0,6.1170256E-1,7.644979E-1,0E0,0E0,0E0,0E0,0E0,0E0],"parents":[2147483647,0,0,1,1,2,2,3,3,5,5,8,8,9,9,10,10],"right_children":[2,4,6,8,-1,10,-1,-1,12,14,16,-1,-1,-1,-1,-1,-1],"split_conditions":[-2.4869113E-1,1.247742E0,-6.26791E-2,6.427228E-1,1.9168136E-1,8.3352894E-1,2.4020673E-1,-2.5839484E-1,-8.9725435E-1,-3.6096618E-1,-1.209641E0,-1.817505E-1,1.0675097E-1,-2.2418883E-1,5.616118E-3,-4.551284E-2,2.0403898E-1],"split_indices":[1,0,0,0,0,1,0,0,1,0,0,0,0,0,0,0,0],"split_type":[0,0,0,0,0,0,0,0,0,0,0,0,0,0,0,0,0],"sum_hessian":[1.9261065E1,7.7229705E0,1.15380945E1,6.4684596E0,1.2545105E0,6.662826E0,4.8752685E0,3.9849107E0,2.483549E0,3.6638608E0,2.9989653E0,1.2683867E0,1.2151625E0,2.185315E0,1.4785458E0,1.3975254E0,1.6014398E0],"tree_param":{"num_deleted":"0","num_feature":"5","num_nodes":"17","size_leaf_vector":"1"}}]},"name":"gbtree"},"learner_model_param":{"base_score":"4.9666676E-1","boost_from_average":"1","num_class":"0","num_feature":"5","num_target":"1"},"objective":{"name":"binary:logistic","reg_loss_param":{"scale_pos_weight":"1"}}},"version":[2,1,4]}