{"learner":{"attributes":{"go_learning_rate":"0.3"},"feature_names":[],"feature_types":[],"gradient_booster":{"name":"gbtree","model":{"gbtree_model_param":{"num_parallel_tree":"1","num_trees":"10"},"trees":[{"base_weights":[-7.953836594329479E-18,-0.4162722234986692,0.4245976679686426,-0.039422983075024405,-0.6689180575034958,0.18483147185593055,0.8278527729212083,-0.42217188057313326,0.14671175996113242,-0.9090680027046454,-0.4376069524023795,0.43067816633449674,-0.0907691437610752,0.9545667797985253,0.32756844265860857,-0.6737980432717922,-0.25414161116649053,0.032183770328164364,0.3976424291090434,-1.145784231563125,-0.7241760805915972,-0.5063600856938199,-0.275092295334541,0.4879653357517685,0.21732876953632294,-0.164191928117174,0.10695232112240789,0.17880336932106045,0.9758867812683967,-0.006540362232158908,0.37014958854897434],"categories":[],"categories_nodes":[],"categories_segments":[],"categories_sizes":[],"default_left":[1,1,1,1,1,1,1,1,1,1,1,1,1,1,1,0,0,0,0,0,0,0,0,0,0,0,0,0,0,0,0],"id":0,"left_children":[1,3,5,7,9,11,13,15,17,19,21,23,25,27,29,-1,-1,-1,-1,-1,-1,-1,-1,-1,-1,-1,-1,-1,-1,-1,-1],"loss_changes":[396.7015499800738,107.6109677790445,105.7297890139098,33.9348669144296,33.22995359879309,48.61604789466104,22.58729147724,4.674347182158822,9.118014828411397,4.883234487820687,2.549179708602452,3.4389479705108954,5.1955086962418395,3.3905243325693277,1.449572602977561,0.0,0.0,0.0,0.0,0.0,0.0,0.0,0.0,0.0,0.0,0.0,0.0,0.0,0.0,0.0,0.0],"parents":[2147483647,0,0,1,1,2,2,3,3,4,4,5,5,6,6,7,7,8,8,9,9,10,10,11,11,12,12,13,13,14,14],"right_children":[2,4,6,8,10,12,14,16,18,20,22,24,26,28,30,-1,-1,-1,-1,-1,-1,-1,-1,-1,-1,-1,-1,-1,-1,-1,-1],"split_conditions":[0.10306249558925629,-0.23003502190113068,0.904921293258667,-0.8051861524581909,-0.7019999027252197,0.2897225022315979,0.8671551942825317,-1.364280343055725,0.6033269166946411,-0.3124005198478699,-0.04675289988517761,-0.07385692745447159,0.21269623935222626,-1.7590664625167847,-1.1064348220825195,0.0,0.0,0.0,0.0,0.0,0.0,0.0,0.0,0.0,0.0,0.0,0.0,0.0,0.0,0.0,0.0],"split_indices":[0,1,0,0,0,1,1,0,2,2,0,1,2,2,2,0,0,0,0,0,0,0,0,0,0,0,0,0,0,0,0],"split_type":[0,0,0,0,0,0,0,0,0,0,0,0,0,0,0,0,0,0,0,0,0,0,0,0,0,0,0,0,0,0,0],"sum_hessian":[200.0,101.0,99.0,41.0,60.0,63.0,36.0,13.0,28.0,28.0,32.0,33.0,30.0,28.0,8.0,4.0,9.0,20.0,8.0,10.0,18.0,21.0,11.0,25.0,8.0,22.0,8.0,1.0,27.0,1.0,7.0],"tree_param":{"num_nodes":"31","num_feature":"5","num_deleted":"0","size_leaf_vector":"1"}},{"base_weights":[-0.001467421302962029,-0.18323477793493476,0.5095666081209416,-0.519689754955647,-0.01818993979681752,0.7157546476701374,0.31424703581574026,-0.8576121195084805,-0.3993013831243404,0.18419340064336134,-0.20495585945289202,0.5051475198776133,0.845149710944434,0.16737069295350473,0.4821432506497604,-0.09826387649574987,-0.9177106982827515,-0.1864961102179795,-0.5156671210606351,0.0415257909087672,0.2656931162663912,-0.3225588508193183,-0.08843322963217852,0.20040139884680527,0.5460566041990944,0.2265201421877039,0.8753119745266668,0.006132892852603684,0.2340420352578299,0.5069898406072291,0.09199208558006834],"categories":[],"categories_nodes":[],"categories_segments":[],"categories_sizes":[],"default_left":[1,1,1,1,1,1,1,1,1,1,1,1,1,1,1,0,0,0,0,0,0,0,0,0,0,0,0,0,0,0,0],"id":1,"left_children":[1,3,5,7,9,11,13,15,17,19,21,23,25,27,29,-1,-1,-1,-1,-1,-1,-1,-1,-1,-1,-1,-1,-1,-1,-1,-1],"loss_changes":[208.490228493702,91.82822556548102,21.216909862841703,18.34409483241342,42.83756552747365,2.826253169549176,7.049364760862829,5.082791018697506,9.387036747302801,6.207866607615312,7.752842222243679,0.4463567756854232,0.6994884516452089,2.014595942716203,0.8820220605948279,0.0,0.0,0.0,0.0,0.0,0.0,0.0,0.0,0.0,0.0,0.0,0.0,0.0,0.0,0.0,0.0],"parents":[2147483647,0,0,1,1,2,2,3,3,4,4,5,5,6,6,7,7,8,8,9,9,10,10,11,11,12,12,13,13,14,14],"right_children":[2,4,6,8,10,12,14,16,18,20,22,24,26,28,30,-1,-1,-1,-1,-1,-1,-1,-1,-1,-1,-1,-1,-1,-1,-1,-1],"split_conditions":[0.6037182807922363,-0.6063280701637268,-0.10329114645719528,-1.4320402145385742,-0.01633678562939167,0.963548481464386,1.18279230594635,-1.414182186126709,-0.20580287277698517,-0.2394084334373474,0.09852129966020584,-0.5841983556747437,-1.5241326093673706,-0.7142634987831116,1.328562617301941,0.0,0.0,0.0,0.0,0.0,0.0,0.0,0.0,0.0,0.0,0.0,0.0,0.0,0.0,0.0,0.0],"split_indices":[0,0,1,0,1,0,0,1,1,2,0,4,2,2,1,0,0,0,0,0,0,0,0,0,0,0,0,0,0,0,0],"split_type":[0,0,0,0,0,0,0,0,0,0,0,0,0,0,0,0,0,0,0,0,0,0,0,0,0,0,0,0,0,0,0],"sum_hessian":[200.0,148.0,52.0,48.0,100.0,24.0,28.0,11.0,37.0,48.0,52.0,11.0,13.0,16.0,12.0,1.0,10.0,14.0,23.0,18.0,30.0,25.0,27.0,2.0,9.0,1.0,12.0,5.0,11.0,11.0,1.0],"tree_param":{"num_nodes":"31","num_feature":"5","num_deleted":"0","size_leaf_vector":"1"}},{"base_weights":[0.00026464985617219455,-0.1480549039555242,0.33517550282038694,-0.4069853300699282,-0.0367101281902666,0.5050822481367448,0.19843501319921866,-0.6582929183502738,-0.29657641428173215,0.1392109523390934,-0.16346832222548827,0.3903106002382921,0.6611629895402856,0.09888419375708002,0.347808858482788,-0.22037120457589607,-0.41509759514908,0.05376228028383216,0.22209951580941031,-0.26669606404249785,-0.09297647822502414,0.45447071561668934,0.25330161656320943,-0.027862938636060288,0.1683401936091589,0.3695452915491112,0.03261761431029279],"categories":[],"categories_nodes":[],"categories_segments":[],"categories_sizes":[],"default_left":[1,1,1,1,1,1,1,0,1,1,1,1,0,1,1,0,0,0,0,0,0,0,0,0,0,0,0],"id":2,"left_children":[1,3,5,7,9,11,13,-1,15,17,19,21,-1,23,25,-1,-1,-1,-1,-1,-1,-1,-1,-1,-1,-1,-1],"loss_changes":[111.4895984536227,44.68151721325667,14.891423924257396,10.779144194295014,24.782233204625612,2.506771798797729,5.565973274340566,0.0,2.0946035295600716,3.1725951779848582,4.4139215980508055,0.47901169624575957,0.0,2.3018608342861127,0.9318020173190931,0.0,0.0,0.0,0.0,0.0,0.0,0.0,0.0,0.0,0.0,0.0,0.0],"parents":[2147483647,0,0,1,1,2,2,3,3,4,4,5,5,6,6,8,8,9,9,10,10,11,11,13,13,14,14],"right_children":[2,4,6,8,10,12,14,-1,16,18,20,22,-1,24,26,-1,-1,-1,-1,-1,-1,-1,-1,-1,-1,-1,-1],"split_conditions":[0.5099054574966431,-0.7019999027252197,-0.10329114645719528,-0.3124005198478699,-0.2595301866531372,1.275707721710205,1.1317883729934692,0.0,0.4595945179462433,-0.03913097456097603,-0.04675289988517761,-0.8248316049575806,0.0,-0.4456196129322052,1.2826004028320312,0.0,0.0,0.0,0.0,0.0,0.0,0.0,0.0,0.0,0.0,0.0,0.0],"split_indices":[0,0,1,2,1,0,0,0,1,2,0,1,0,2,3,0,0,0,0,0,0,0,0,0,0,0,0],"split_type":[0,0,0,0,0,0,0,0,0,0,0,0,0,0,0,0,0,0,0,0,0,0,0,0,0,0,0],"sum_hessian":[200.0,139.0,61.0,41.0,98.0,26.0,35.0,11.0,30.0,41.0,57.0,17.0,9.0,22.0,13.0,20.0,10.0,21.0,20.0,22.0,35.0,10.0,7.0,8.0,14.0,12.0,1.0],"tree_param":{"num_nodes":"27","num_feature":"5","num_deleted":"0","size_leaf_vector":"1"}},{"base_weights":[0.0009822743296237597,-0.14340665639117067,0.19182991523263218,0.09670035831983058,-0.21117749779222467,0.26220084255341947,-0.01538487568405497,-0.042044789478972354,0.16070069009035257,-0.5309224849197886,-0.16909567842101653,0.21166544858104575,0.5189789645433699,0.06333003984522567,-0.10701296897465438,-0.16959050523223312,0.018624058626564025,0.25181698174028416,0.06262595859637891,-0.5672014592612702,-0.10220585792322716,-0.23687459135358543,-0.09002929548456819,0.3483397602411062,0.1578135408790945,0.020983621925301312,0.15336357468373019,-0.15330125943327047,0.01231685418624138],"categories":[],"categories_nodes":[],"categories_segments":[],"categories_sizes":[],"default_left":[1,1,1,1,1,1,1,1,1,1,1,1,0,1,1,0,0,0,0,0,0,0,0,0,0,0,0,0,0],"id":3,"left_children":[1,3,5,7,9,11,13,15,17,19,21,23,-1,25,27,-1,-1,-1,-1,-1,-1,-1,-1,-1,-1,-1,-1,-1,-1],"loss_changes":[61.8480370406021,21.019224413671907,14.140655173532146,2.6403305493498386,12.457931928968286,8.151277955021634,1.9184953436569787,0.8088992045763577,1.6120158357439243,1.0840298149627117,4.586178441139975,3.968854714945696,0.0,0.514951630463954,0.6960833102480211,0.0,0.0,0.0,0.0,0.0,0.0,0.0,0.0,0.0,0.0,0.0,0.0,0.0,0.0],"parents":[2147483647,0,0,1,1,2,2,3,3,4,4,5,5,6,6,7,7,8,8,9,9,10,10,11,11,13,13,14,14],"right_children":[2,4,6,8,10,12,14,16,18,20,22,24,-1,26,28,-1,-1,-1,-1,-1,-1,-1,-1,-1,-1,-1,-1,-1,-1],"split_conditions":[0.26309385895729065,-1.0404809713363647,0.9145892262458801,-0.6598644852638245,-1.4320402145385742,1.5536305904388428,1.4455875158309937,-1.5400261878967285,-1.3098466396331787,0.33300700783729553,-0.32663729786872864,-0.8248316049575806,0.0,0.9354485273361206,-0.011540762148797512,0.0,0.0,0.0,0.0,0.0,0.0,0.0,0.0,0.0,0.0,0.0,0.0,0.0,0.0],"split_indices":[0,1,1,0,0,0,1,0,1,2,0,1,0,0,2,0,0,0,0,0,0,0,0,0,0,0,0,0,0],"split_type":[0,0,0,0,0,0,0,0,0,0,0,0,0,0,0,0,0,0,0,0,0,0,0,0,0,0,0,0,0],"sum_hessian":[200.0,114.0,86.0,25.0,89.0,64.0,22.0,8.0,17.0,9.0,80.0,55.0,9.0,12.0,10.0,2.0,6.0,8.0,9.0,8.0,1.0,42.0,38.0,14.0,41.0,9.0,3.0,7.0,3.0],"tree_param":{"num_nodes":"29","num_feature":"5","num_deleted":"0","size_leaf_vector":"1"}},{"base_weights":[0.0010243985183991926,-0.07228541074430739,0.19694289966566206,-0.27631096992612825,-0.030229114888292472,0.16165163187944107,0.4582129812732274,-0.4552373097154315,-0.20881751949303082,0.048891085316797284,-0.13564996582552039,0.23320007144953803,0.0807751894513626,-0.01934789318864186,-0.22879481723859393,0.030350053613881628,0.2446939198294033,-0.2105352290323488,-0.06641611941185724,0.13519418989588206,0.2860041105520804,-0.007771981583657139,0.11564197716407346],"categories":[],"categories_nodes":[],"categories_segments":[],"categories_sizes":[],"default_left":[1,1,1,1,1,1,0,0,1,1,1,1,1,0,0,0,0,0,0,0,0,0,0],"id":4,"left_children":[1,3,5,7,9,11,-1,-1,13,15,17,19,21,-1,-1,-1,-1,-1,-1,-1,-1,-1,-1],"loss_changes":[32.234982626376514,13.92210642198576,4.811772295872888,2.298304170535168,11.472945448683967,3.00547091926758,0.0,0.0,0.791945834249109,2.781455248130376,2.8977843566458326,1.0654074712757513,0.8675850299199466,0.0,0.0,0.0,0.0,0.0,0.0,0.0,0.0,0.0,0.0],"parents":[2147483647,0,0,1,1,2,2,3,3,4,4,5,5,8,8,9,9,10,10,11,11,12,12],"right_children":[2,4,6,8,10,12,-1,-1,14,16,18,20,22,-1,-1,-1,-1,-1,-1,-1,-1,-1,-1],"split_conditions":[0.5883352160453796,-1.0416511297225952,1.9072619676589966,-2.0221588611602783,0.43855997920036316,0.15830384194850922,0.0,0.0,-1.414182186126709,1.0974135398864746,0.01863694190979004,-0.41467663645744324,-0.4456196129322052,0.0,0.0,0.0,0.0,0.0,0.0,0.0,0.0,0.0,0.0],"split_indices":[0,0,0,0,1,1,0,0,1,2,0,2,2,0,0,0,0,0,0,0,0,0,0],"split_type":[0,0,0,0,0,0,0,0,0,0,0,0,0,0,0,0,0,0,0,0,0,0,0],"sum_hessian":[200.0,146.0,54.0,24.0,122.0,49.0,5.0,5.0,19.0,70.0,52.0,25.0,24.0,2.0,17.0,65.0,5.0,24.0,28.0,10.0,15.0,7.0,17.0],"tree_param":{"num_nodes":"23","num_feature":"5","num_deleted":"0","size_leaf_vector":"1"}},{"base_weights":[0.0011379653541600547,-0.09653246874479794,0.0844610149491044,-0.053856560169266716,-0.27135672335566335,0.13575759469086973,-0.03779042914377524,0.1062975359999556,-0.07695632735617651,-0.29261120788874756,-0.0675472313939928,0.10303737259314487,0.25406360565137387,0.008846674941499587,-0.1631390039202303,-0.015478314550913485,0.13867628795653705,-0.16755186893672197,-0.05204347718055033,-0.3858935609797426,-0.2293592934434373,0.17151012540953917,0.07112783449985764,0.1820962976993144,0.34365973595492066,-0.03255653475025066,0.056413196670083245,-0.2034548582261007,-0.014689009233122496],"categories":[],"categories_nodes":[],"categories_segments":[],"categories_sizes":[],"default_left":[1,1,1,1,1,1,1,1,1,1,0,1,1,1,1,0,0,0,0,0,0,0,0,0,0,0,0,0,0],"id":5,"left_children":[1,3,5,7,9,11,13,15,17,19,-1,21,23,25,27,-1,-1,-1,-1,-1,-1,-1,-1,-1,-1,-1,-1,-1,-1],"loss_changes":[18.265901262084014,7.547095151235753,7.651979570695984,3.2149329497614594,0.6467611726108267,3.0209874785517563,2.1595306354227235,0.4619552866514174,1.5833173272090493,0.06551471312017298,0.0,1.369630654159252,0.45098568031306563,0.5674642781517321,0.5652827214067488,0.0,0.0,0.0,0.0,0.0,0.0,0.0,0.0,0.0,0.0,0.0,0.0,0.0,0.0],"parents":[2147483647,0,0,1,1,2,2,3,3,4,4,5,5,6,6,7,7,8,8,9,9,11,11,12,12,13,13,14,14],"right_children":[2,4,6,8,10,12,14,16,18,20,-1,22,24,26,28,-1,-1,-1,-1,-1,-1,-1,-1,-1,-1,-1,-1,-1,-1],"split_conditions":[0.02828330732882023,0.9792689085006714,0.8671551942825317,-1.3098466396331787,1.0513242483139038,1.275707721710205,1.8587696552276611,-1.2705923318862915,-1.100467324256897,-1.4320402145385742,0.0,-0.6580764055252075,1.8374624252319336,0.5099054574966431,0.8744146227836609,0.0,0.0,0.0,0.0,0.0,0.0,0.0,0.0,0.0,0.0,0.0,0.0,0.0,0.0],"split_indices":[0,1,1,1,4,0,1,0,0,0,0,1,0,0,0,0,0,0,0,0,0,0,0,0,0,0,0,0,0],"split_type":[0,0,0,0,0,0,0,0,0,0,0,0,0,0,0,0,0,0,0,0,0,0,0,0,0,0,0,0,0],"sum_hessian":[200.0,92.0,108.0,75.0,17.0,76.0,32.0,9.0,66.0,15.0,2.0,61.0,15.0,24.0,8.0,2.0,7.0,13.0,53.0,4.0,11.0,18.0,43.0,10.0,5.0,13.0,11.0,6.0,2.0],"tree_param":{"num_nodes":"29","num_feature":"5","num_deleted":"0","size_leaf_vector":"1"}},{"base_weights":[0.0004904702695469859,-0.08979620328430263,0.051579126852194075,-0.05539037920031343,-0.21913936446237334,0.10519328530565823,-0.0062578214531121305,0.10342273800534038,-0.07201053334908399,-0.2604181939313579,-0.11381808793700353,0.06465777893602616,0.1501810417692301,-0.02342176089582228,0.1607032300686047,0.01527345742409912,0.11799790263676879,-0.1250326752827201,-0.04202633251330145,0.1107755538228022,0.03176976144743193,0.03957103335878245,0.16061886290753583,-0.0012765465085342862,-0.12959113530395122,0.04002459450280803,0.17683403828120245],"categories":[],"categories_nodes":[],"categories_segments":[],"categories_sizes":[],"default_left":[1,1,1,1,1,1,1,1,1,0,0,1,1,1,1,0,0,0,0,0,0,0,0,0,0,0,0],"id":6,"left_children":[1,3,5,7,9,11,13,15,17,-1,-1,19,21,23,25,-1,-1,-1,-1,-1,-1,-1,-1,-1,-1,-1,-1],"loss_changes":[10.352991182840734,3.4747036127975113,4.451907910047984,1.8130881929296243,0.39525315888803014,1.2496769682529951,2.0478182602142283,0.06562784130695254,0.8955107671949158,0.0,0.0,0.5844378666695786,0.3270499735397019,1.5133433025706893,0.05113503197244307,0.0,0.0,0.0,0.0,0.0,0.0,0.0,0.0,0.0,0.0,0.0,0.0],"parents":[2147483647,0,0,1,1,2,2,3,3,4,4,5,5,6,6,7,7,8,8,11,11,12,12,13,13,14,14],"right_children":[2,4,6,8,10,12,14,16,18,-1,-1,20,22,24,26,-1,-1,-1,-1,-1,-1,-1,-1,-1,-1,-1,-1],"split_conditions":[-0.24749784171581268,0.8733631372451782,0.15830384194850922,-1.6464186906814575,0.33300700783729553,0.5774029493331909,1.3915417194366455,-0.6598644852638245,-0.33221784234046936,0.0,0.0,-0.6580764055252075,-1.110434889793396,1.8587696552276611,1.5536305904388428,0.0,0.0,0.0,0.0,0.0,0.0,0.0,0.0,0.0,0.0,0.0,0.0],"split_indices":[0,1,1,1,2,0,0,0,2,0,0,1,2,1,0,0,0,0,0,0,0,0,0,0,0,0,0],"split_type":[0,0,0,0,0,0,0,0,0,0,0,0,0,0,0,0,0,0,0,0,0,0,0,0,0,0,0],"sum_hessian":[200.0,72.0,128.0,58.0,14.0,66.0,62.0,5.0,53.0,9.0,5.0,36.0,30.0,57.0,5.0,1.0,4.0,18.0,35.0,14.0,22.0,3.0,27.0,48.0,9.0,1.0,4.0],"tree_param":{"num_nodes":"27","num_feature":"5","num_deleted":"0","size_leaf_vector":"1"}},{"base_weights":[0.00037422804376430896,-0.041618170977249645,0.06309899413634364,-0.01770414134096601,-0.13273987912694016,0.048080203174486094,0.21500046956533955,-0.07973903644029362,0.008625077488330603,-0.286535605568719,-0.10690826788988463,0.06939257931796965,-0.006417456594722893,0.23872672396871814,0.03632147157253416,-0.12899878185393068,-0.03165306942584285,-0.05225617543177632,0.049007220447251164,-0.12248358715649399,-0.042364265441742335,0.021816628327718676,0.101419275988526,0.020955034279840152,-0.03569495058563505],"categories":[],"categories_nodes":[],"categories_segments":[],"categories_sizes":[],"default_left":[1,1,1,1,1,1,1,1,1,0,1,1,1,0,0,0,0,0,0,0,0,0,0,0,0],"id":7,"left_children":[1,3,5,7,9,11,13,15,17,-1,19,21,23,-1,-1,-1,-1,-1,-1,-1,-1,-1,-1,-1,-1],"loss_changes":[5.911696770939887,2.9035501016845875,1.9383803416469,1.7680088577337778,0.7631862233775912,0.9728435629037973,0.23338641802436122,0.7178796100226648,1.9133166286203815,0.0,0.19925357815069056,0.8896355901567246,0.20420826143620183,0.0,0.0,0.0,0.0,0.0,0.0,0.0,0.0,0.0,0.0,0.0,0.0],"parents":[2147483647,0,0,1,1,2,2,3,3,4,4,5,5,6,6,7,7,8,8,10,10,11,11,12,12],"right_children":[2,4,6,8,10,12,14,16,18,-1,20,22,24,-1,-1,-1,-1,-1,-1,-1,-1,-1,-1,-1,-1],"split_conditions":[0.33852261304855347,0.9792689085006714,1.8374624252319336,-0.5391733646392822,-2.0221588611602783,0.9145892262458801,0.7990225553512573,-0.16078311204910278,-0.6810626983642578,0.0,0.8468664884567261,-0.37843531370162964,1.4455875158309937,0.0,0.0,0.0,0.0,0.0,0.0,0.0,0.0,0.0,0.0,0.0,0.0],"split_indices":[0,1,0,2,0,1,4,4,0,0,3,2,1,0,0,0,0,0,0,0,0,0,0,0,0],"split_type":[0,0,0,0,0,0,0,0,0,0,0,0,0,0,0,0,0,0,0,0,0,0,0,0,0],"sum_hessian":[200.0,120.0,80.0,96.0,24.0,74.0,6.0,28.0,68.0,2.0,22.0,53.0,21.0,5.0,1.0,13.0,15.0,27.0,41.0,17.0,5.0,22.0,31.0,11.0,10.0],"tree_param":{"num_nodes":"25","num_feature":"5","num_deleted":"0","size_leaf_vector":"1"}},{"base_weights":[-8.392108709565016E-05,-0.02570633897965992,0.057774505139454216,-0.17347397901496134,-0.01662477913558419,0.04460346517880737,0.1732703005756904,-0.03828835934749612,-0.18731644477495693,-0.025012924040753712,0.13793510402043194,0.09773558151363525,0.029773272544095605,0.030873250836654063,0.19557506035616687,-0.23507471151454676,-0.09272906684162781,0.001460766051361755,-0.06581162210363876,0.1697718041287897,-0.026542548314857337,0.009852270938042728,0.11432701653494948,-0.014088855114032534,0.04396105138276536],"categories":[],"categories_nodes":[],"categories_segments":[],"categories_sizes":[],"default_left":[1,1,1,1,1,1,1,0,1,1,1,1,1,0,0,0,0,0,0,0,0,0,0,0,0],"id":8,"left_children":[1,3,5,7,9,11,13,-1,15,17,19,21,23,-1,-1,-1,-1,-1,-1,-1,-1,-1,-1,-1,-1],"loss_changes":[3.3273577651714694,2.055450296143171,0.9620658652705205,0.08664865714096015,1.9542306989529827,0.4667087172606388,0.14465282257218748,0.0,0.1091449549106609,1.525198118283751,0.4573461795229594,0.18189935666705148,0.32494938386128175,0.0,0.0,0.0,0.0,0.0,0.0,0.0,0.0,0.0,0.0,0.0,0.0],"parents":[2147483647,0,0,1,1,2,2,3,3,4,4,5,5,6,6,8,8,9,9,10,10,11,11,12,12],"right_children":[2,4,6,8,10,12,14,-1,16,18,20,22,24,-1,-1,-1,-1,-1,-1,-1,-1,-1,-1,-1,-1],"split_conditions":[0.5099054574966431,-1.574562430381775,1.9072619676589966,-1.2667640447616577,1.51822829246521,-1.0918397903442383,-1.110434889793396,0.0,-0.5391733646392822,0.5023308396339417,0.8070116639137268,-1.0103280544281006,-0.5391733646392822,0.0,0.0,0.0,0.0,0.0,0.0,0.0,0.0,0.0,0.0,0.0,0.0],"split_indices":[0,0,0,2,2,1,2,0,2,1,1,2,2,0,0,0,0,0,0,0,0,0,0,0,0],"split_type":[0,0,0,0,0,0,0,0,0,0,0,0,0,0,0,0,0,0,0,0,0,0,0,0,0],"sum_hessian":[200.0,139.0,61.0,7.0,132.0,56.0,5.0,1.0,6.0,126.0,6.0,11.0,45.0,1.0,4.0,3.0,3.0,77.0,49.0,5.0,1.0,2.0,9.0,11.0,34.0],"tree_param":{"num_nodes":"25","num_feature":"5","num_deleted":"0","size_leaf_vector":"1"}},{"base_weights":[8.048815991741773E-05,-0.049434038442489024,0.01907181008851225,-0.15219621169692735,-0.03637507612936905,0.06913405220127372,0.0038400575051281433,-0.18218290142377372,-0.061481888162156384,0.01771354834665605,-0.048387246811056724,0.023505001698362626,0.08716678150672158,-0.0043008136795508025,0.07971911882483754,0.04579621436305981,-0.008640931391456417,-0.06423143608501472,-0.003424153952410494,-0.04507775086369457,0.04375425236367473,0.06977965106513966,0.13928194697170493,-0.0531577370436892,0.010410023500685104,0.040597449724894756,0.10555426812064074],"categories":[],"categories_nodes":[],"categories_segments":[],"categories_sizes":[],"default_left":[1,1,1,1,1,1,1,0,0,1,1,1,1,1,1,0,0,0,0,0,0,0,0,0,0,0,0],"id":9,"left_children":[1,3,5,7,9,11,13,-1,-1,15,17,19,21,23,25,-1,-1,-1,-1,-1,-1,-1,-1,-1,-1,-1,-1],"loss_changes":[2.1105822875287354,0.7734891409620841,1.2340525707346508,0.056893165236822085,0.37769912313421194,0.2880766600320692,0.779393389868999,0.0,0.0,0.08663069412793953,0.3300113258360884,0.1916509568298316,0.13364611843137997,0.8286908499976632,0.0759180187511399,0.0,0.0,0.0,0.0,0.0,0.0,0.0,0.0,0.0,0.0,0.0,0.0],"parents":[2147483647,0,0,1,1,2,2,3,3,4,4,5,5,6,6,9,9,10,10,11,11,12,12,13,13,14,14],"right_children":[2,4,6,8,10,12,14,-1,-1,16,18,20,22,24,26,-1,-1,-1,-1,-1,-1,-1,-1,-1,-1,-1,-1],"split_conditions":[-0.5387033820152283,-2.0221588611602783,-0.7495235204696655,-0.5391733646392822,-1.0928065776824951,-0.5099843740463257,1.4604474306106567,0.0,0.0,-0.24304018914699554,0.48745208978652954,-0.4181712865829468,1.253265142440796,-0.7142634987831116,-0.15176065266132355,0.0,0.0,0.0,0.0,0.0,0.0,0.0,0.0,0.0,0.0,0.0,0.0],"split_indices":[0,0,1,2,1,2,0,0,0,3,2,0,0,2,4,0,0,0,0,0,0,0,0,0,0,0,0],"split_type":[0,0,0,0,0,0,0,0,0,0,0,0,0,0,0,0,0,0,0,0,0,0,0,0,0,0,0],"sum_hessian":[200.0,55.0,145.0,5.0,50.0,33.0,112.0,3.0,2.0,9.0,41.0,10.0,23.0,102.0,10.0,4.0,5.0,30.0,11.0,2.0,8.0,19.0,4.0,23.0,79.0,5.0,5.0],"tree_param":{"num_nodes":"27","num_feature":"5","num_deleted":"0","size_leaf_vector":"1"}}],"tree_info":[0,0,0,0,0,0,0,0,0,0],"iteration_indptr":[0,1,2,3,4,5,6,7,8,9,10],"cats":{"enc":[],"feature_segments":[],"sorted_idx":[]}}},"learner_model_param":{"base_score":"[1.4170999231010104E-02]","boost_from_average":"1","num_feature":"5","num_class":"0","num_target":"1"},"objective":{"name":"reg:squarederror","reg_loss_param":{"scale_pos_weight":"1"}}},"version":[3,2,0]}
