{"learner":{"attributes":{},"feature_names":[],"feature_types":[],"gradient_booster":{"model":{"gbtree_model_param":{"num_parallel_tree":"1","num_trees":"10"},"iteration_indptr":[0,1,2,3,4,5,6,7,8,9,10],"tree_info":[0,0,0,0,0,0,0,0,0,0],"trees":[{"base_weights":[-4.396213E-8,-1.609058E0,1.5775077E0,-2.8475666E0,-9.8435444E-1,1.0761582E0,3.7109745E0,-9.1560876E-1,-9.247413E-1,5.5766803E-1,-1.3247463E0,1.439775E0,-8.447675E-1,1.2086828E0,4.534072E-1,-5.4504868E-2,-3.161009E-1,3.306763E-1,5.7947103E-2,-2.7086514E-1,-6.116863E-1,6.399138E-1,2.8162113E-1,-3.87728E-1,-1.0424095E-1],"categories":[],"categories_nodes":[],"categories_segments":[],"categories_sizes":[],"default_left":[0,0,0,0,0,0,0,0,0,0,0,0,0,0,0,0,0,0,0,0,0,0,0,0,0],"id":0,"left_children":[1,3,5,7,9,11,13,15,-1,17,19,21,23,-1,-1,-1,-1,-1,-1,-1,-1,-1,-1,-1,-1],"loss_changes":[5.1273694E2,7.456708E1,1.051069E2,1.21539E1,3.6431404E1,5.9888687E1,7.1996155E0,3.1519794E-1,0E0,2.3676925E0,1.5031723E1,2.265982E1,2.6675987E0,0E0,0E0,0E0,0E0,0E0,0E0,0E0,0E0,0E0,0E0,0E0,0E0],"parents":[2147483647,0,0,1,1,2,2,3,3,4,4,5,5,6,6,7,7,9,9,10,10,11,11,12,12],"right_children":[2,4,6,8,10,12,14,16,-1,18,20,22,24,-1,-1,-1,-1,-1,-1,-1,-1,-1,-1,-1,-1],"split_conditions":[2.4510175E-2,-8.8951445E-1,1.2460852E0,-1.3353443E0,-8.1581026E-1,8.563988E-1,5.95157E-1,-2.0381246E0,-9.247413E-1,-1.7101684E0,7.870846E-1,-4.9300092E-1,3.0154735E-1,1.2086828E0,4.534072E-1,-5.4504868E-2,-3.161009E-1,3.306763E-1,5.7947103E-2,-2.7086514E-1,-6.116863E-1,6.399138E-1,2.8162113E-1,-3.87728E-1,-1.0424095E-1],"split_indices":[0,0,0,1,1,1,1,1,0,1,1,1,0,0,0,0,0,0,0,0,0,0,0,0,0],"split_type":[0,0,0,0,0,0,0,0,0,0,0,0,0,0,0,0,0,0,0,0,0,0,0,0,0],"sum_hessian":[2E2,9.9E1,1.01E2,3.2E1,6.7E1,8.3E1,1.8E1,4E0,2.8E1,1.2E1,5.5E1,7E1,1.3E1,1.5E1,3E0,1E0,3E0,4E0,8E0,3.6E1,1.9E1,2.8E1,4.2E1,6E0,7E0],"tree_param":{"num_deleted":"0","num_feature":"5","num_nodes":"25","size_leaf_vector":"1"}},{"base_weights":[1.5044238E-3,-7.4110734E-1,1.8013685E0,-1.7552739E0,-1.5982722E-1,1.3478703E0,2.6851606E0,-2.2875311E0,-1.2542585E0,4.0060276E-1,-8.0777305E-1,1.6586372E0,3.4953964E-1,8.925186E-1,3.8352758E-1,-4.1694734E-1,-7.726263E-1,-1.7081957E-1,-4.7542286E-1,3.2489982E-1,5.4108813E-2,-3.1828535E-1,7.5584403E-3,1.125718E-1,5.0667274E-1,1.4078589E-2,2.6021305E-1],"categories":[],"categories_nodes":[],"categories_segments":[],"categories_sizes":[],"default_left":[0,0,0,0,0,0,0,0,0,0,0,0,0,0,0,0,0,0,0,0,0,0,0,0,0,0,0],"id":1,"left_children":[1,3,5,7,9,11,13,15,17,19,21,23,25,-1,-1,-1,-1,-1,-1,-1,-1,-1,-1,-1,-1,-1,-1],"loss_changes":[2.6999167E2,8.4020096E1,2.0027832E1,1.0997635E1,3.3731396E1,1.2140411E1,3.9450836E0,2.6231918E0,5.661373E0,7.3192205E0,9.094961E0,5.706253E-1,1.6830307E0,0E0,0E0,0E0,0E0,0E0,0E0,0E0,0E0,0E0,0E0,0E0,0E0,0E0,0E0],"parents":[2147483647,0,0,1,1,2,2,3,3,4,4,5,5,6,6,7,7,8,8,9,9,10,10,11,11,12,12],"right_children":[2,4,6,8,10,12,14,16,18,20,22,24,26,-1,-1,-1,-1,-1,-1,-1,-1,-1,-1,-1,-1,-1,-1],"split_conditions":[4.7259748E-1,-5.756378E-1,1.2460852E0,-1.1832585E0,2.088636E-1,3.464482E-1,4.979983E-1,-5.5547714E-1,-1.0703036E-1,-1.1297069E0,7.708652E-1,4.9245125E-1,2.1409374E-1,8.925186E-1,3.8352758E-1,-4.1694734E-1,-7.726263E-1,-1.7081957E-1,-4.7542286E-1,3.2489982E-1,5.4108813E-2,-3.1828535E-1,7.5584403E-3,1.125718E-1,5.0667274E-1,1.4078589E-2,2.6021305E-1],"split_indices":[0,0,0,0,1,1,1,1,1,1,2,0,2,0,0,0,0,0,0,0,0,0,0,0,0,0,0],"split_type":[0,0,0,0,0,0,0,0,0,0,0,0,0,0,0,0,0,0,0,0,0,0,0,0,0,0,0],"sum_hessian":[2E2,1.42E2,5.8E1,5.1E1,9.1E1,4E1,1.8E1,2.3E1,2.8E1,4.9E1,4.2E1,3E1,1E1,1.4E1,4E0,7E0,1.6E1,1E1,1.8E1,1.1E1,3.8E1,3.2E1,1E1,1E0,2.9E1,7E0,3E0],"tree_param":{"num_deleted":"0","num_feature":"5","num_nodes":"27","size_leaf_vector":"1"}},{"base_weights":[3.0533166E-3,-7.7994674E-1,9.207303E-1,-1.1584835E0,-1.9441569E-1,5.075097E-1,1.6566613E0,-5.9341335E-1,-1.4275318E0,2.7218568E-1,-5.945912E-1,9.69921E-1,5.813947E-2,6.6565937E-1,1.125624E0,-2.7658743E-1,-4.5355998E-2,-4.8017314E-1,-8.5263066E-2,-2.7695433E-3,2.1919292E-1,-1.975783E-1,2.1888487E-2,1.2729912E-1,3.3525637E-1,8.71266E-2,-1.445773E-1,3.6596072E-1,-8.561818E-2],"categories":[],"categories_nodes":[],"categories_segments":[],"categories_sizes":[],"default_left":[0,0,0,0,0,0,0,0,0,0,0,0,0,0,0,0,0,0,0,0,0,0,0,0,0,0,0,0,0],"id":2,"left_children":[1,3,5,7,9,11,13,15,17,19,21,23,25,-1,27,-1,-1,-1,-1,-1,-1,-1,-1,-1,-1,-1,-1,-1,-1],"loss_changes":[1.4514488E2,2.3934074E1,2.7440697E1,9.186943E0,8.377627E0,1.2619037E1,7.3545685E0,3.2023096E0,8.250343E0,2.7161217E0,1.0734625E0,1.941679E0,4.154278E0,0E0,2.874792E0,0E0,0E0,0E0,0E0,0E0,0E0,0E0,0E0,0E0,0E0,0E0,0E0,0E0,0E0],"parents":[2147483647,0,0,1,1,2,2,3,3,4,4,5,5,6,6,7,7,8,8,9,9,10,10,11,11,12,12,14,14],"right_children":[2,4,6,8,10,12,14,16,18,20,22,24,26,-1,28,-1,-1,-1,-1,-1,-1,-1,-1,-1,-1,-1,-1,-1,-1],"split_conditions":[1.06430225E-1,-4.6917567E-1,7.9103196E-1,-4.593609E-1,2.2213377E-1,-1.1473644E-1,-5.1604474E-1,-8.28995E-1,9.540018E-1,4.134349E-1,8.406435E-1,-6.6262376E-1,1.1581109E0,6.6565937E-1,1.7976866E0,-2.7658743E-1,-4.5355998E-2,-4.8017314E-1,-8.5263066E-2,-2.7695433E-3,2.1919292E-1,-1.975783E-1,2.1888487E-2,1.2729912E-1,3.3525637E-1,8.71266E-2,-1.445773E-1,3.6596072E-1,-8.561818E-2],"split_indices":[0,0,0,1,1,1,1,0,2,4,2,2,1,0,1,0,0,0,0,0,0,0,0,0,0,0,0,0,0],"split_type":[0,0,0,0,0,0,0,0,0,0,0,0,0,0,0,0,0,0,0,0,0,0,0,0,0,0,0,0,0],"sum_hessian":[2E2,1.08E2,9.2E1,6.5E1,4.3E1,6E1,3.2E1,2.2E1,4.3E1,2E1,2.3E1,2.9E1,3.1E1,1.4E1,1.8E1,1.2E1,1E1,3.7E1,6E0,1.3E1,7E0,2.1E1,2E0,7E0,2.2E1,2.2E1,9E0,1.7E1,1E0],"tree_param":{"num_deleted":"0","num_feature":"5","num_nodes":"29","size_leaf_vector":"1"}},{"base_weights":[4.6470645E-3,-4.0215644E-1,9.2316073E-1,-8.305155E-1,-3.0505214E-2,7.9737425E-1,6.592954E-1,-1.2665054E0,-5.6160426E-1,3.3959198E-1,-3.381932E-1,1.132528E0,5.447725E-1,-4.7636178E-1,-2.9034808E-1,-1.1219951E-1,-3.623812E-1,-1.3048232E-4,1.698892E-1,-1.770489E-1,-4.297418E-2,2.2202022E-1,4.2230454E-1,1.0634873E-1,2.4145995E-1],"categories":[],"categories_nodes":[],"categories_segments":[],"categories_sizes":[],"default_left":[0,0,0,0,0,0,0,0,0,0,0,0,0,0,0,0,0,0,0,0,0,0,0,0,0],"id":3,"left_children":[1,3,5,7,9,11,-1,13,15,17,19,21,23,-1,-1,-1,-1,-1,-1,-1,-1,-1,-1,-1,-1],"loss_changes":[7.547582E1,2.2262688E1,8.187092E0,6.9094963E0,8.769307E0,4.293335E0,0E0,7.668648E-1,4.64098E0,2.6982536E0,1.9785209E0,1.5499077E0,1.4468231E0,0E0,0E0,0E0,0E0,0E0,0E0,0E0,0E0,0E0,0E0,0E0,0E0],"parents":[2147483647,0,0,1,1,2,2,3,3,4,4,5,5,7,7,8,8,9,9,10,10,11,11,12,12],"right_children":[2,4,6,8,10,12,-1,14,16,18,20,22,24,-1,-1,-1,-1,-1,-1,-1,-1,-1,-1,-1,-1],"split_conditions":[4.1278094E-1,-4.7917423E-1,2.1904557E0,-1.1832585E0,-3.9555155E-2,-5.1604474E-1,6.592954E-1,-1.5944277E0,9.1786194E-1,-3.748208E-1,-2.4896415E-1,-1.2578692E-1,9.3128014E-1,-4.7636178E-1,-2.9034808E-1,-1.1219951E-1,-3.623812E-1,-1.3048232E-4,1.698892E-1,-1.770489E-1,-4.297418E-2,2.2202022E-1,4.2230454E-1,1.0634873E-1,2.4145995E-1],"split_indices":[0,0,0,0,1,1,0,0,1,2,2,2,0,0,0,0,0,0,0,0,0,0,0,0,0],"split_type":[0,0,0,0,0,0,0,0,0,0,0,0,0,0,0,0,0,0,0,0,0,0,0,0,0],"sum_hessian":[2E2,1.39E2,6.1E1,6.4E1,7.5E1,5.7E1,4E0,2.3E1,4.1E1,3.4E1,4.1E1,2.3E1,3.4E1,9E0,1.4E1,3.3E1,8E0,1.4E1,2E1,1.7E1,2.4E1,1.1E1,1.2E1,2.1E1,1.3E1],"tree_param":{"num_deleted":"0","num_feature":"5","num_nodes":"25","size_leaf_vector":"1"}},{"base_weights":[5.0433655E-3,-3.8580582E-1,5.216251E-1,-7.9920375E-1,-2.0241404E-1,3.2452098E-1,9.974625E-1,-1.190821E0,-5.4310685E-1,-2.5679693E-2,-6.4697546E-1,4.3451157E-1,-3.0188033E-1,7.8978515E-1,5.0106454E-1,-3.4451082E-2,-3.81275E-1,-2.067046E-1,-5.502045E-2,-5.41318E-2,6.2258925E-2,-2.9255882E-1,-1.3272876E-1,1.9802097E-2,1.7236549E-1,-1.2487679E-1,-4.687618E-2,2.5094846E-1,6.920859E-2],"categories":[],"categories_nodes":[],"categories_segments":[],"categories_sizes":[],"default_left":[0,0,0,0,0,0,0,0,0,0,0,0,0,0,0,0,0,0,0,0,0,0,0,0,0,0,0,0,0],"id":4,"left_children":[1,3,5,7,9,11,13,15,17,19,21,23,25,27,-1,-1,-1,-1,-1,-1,-1,-1,-1,-1,-1,-1,-1,-1,-1],"loss_changes":[4.0784264E1,8.556814E0,7.835989E0,2.8634758E0,6.347496E0,4.47176E0,2.1737804E0,9.744129E-1,1.0807672E0,2.1668394E0,1.1126795E0,2.748767E0,1.01519465E-1,3.5543728E-1,0E0,0E0,0E0,0E0,0E0,0E0,0E0,0E0,0E0,0E0,0E0,0E0,0E0,0E0,0E0],"parents":[2147483647,0,0,1,1,2,2,3,3,4,4,5,5,6,6,7,7,8,8,9,9,10,10,11,11,12,12,13,13],"right_children":[2,4,6,8,10,12,14,16,18,20,22,24,26,28,-1,-1,-1,-1,-1,-1,-1,-1,-1,-1,-1,-1,-1,-1,-1],"split_conditions":[1.5039378E-1,-8.28995E-1,1.0531528E0,-2.1910053E-1,7.870846E-1,1.1581109E0,2.1904557E0,-9.0938747E-1,-1.1832585E0,3.475817E-1,-1.0243876E0,-5.245203E-1,-7.710171E-2,1.1355656E0,5.0106454E-1,-3.4451082E-2,-3.81275E-1,-2.067046E-1,-5.502045E-2,-5.41318E-2,6.2258925E-2,-2.9255882E-1,-1.3272876E-1,1.9802097E-2,1.7236549E-1,-1.2487679E-1,-4.687618E-2,2.5094846E-1,6.920859E-2],"split_indices":[0,0,0,3,1,1,0,1,0,2,3,2,2,1,0,0,0,0,0,0,0,0,0,0,0,0,0,0,0],"split_type":[0,0,0,0,0,0,0,0,0,0,0,0,0,0,0,0,0,0,0,0,0,0,0,0,0,0,0,0,0],"sum_hessian":[2E2,1.14E2,8.6E1,3.4E1,8E1,6.2E1,2.4E1,1.2E1,2.2E1,5.8E1,2.2E1,5.3E1,9E0,2E1,4E0,1E0,1.1E1,1.5E1,7E0,3.5E1,2.3E1,7E0,1.5E1,1.5E1,3.8E1,4E0,5E0,1.8E1,2E0],"tree_param":{"num_deleted":"0","num_feature":"5","num_nodes":"29","size_leaf_vector":"1"}},{"base_weights":[2.2717682E-3,-4.10393E-1,2.72853E-1,-9.5353657E-1,-3.0052155E-1,5.9855664E-1,8.799461E-2,-3.182441E-1,-1.3408794E-1,-1.14617914E-1,-5.465775E-1,4.3460587E-1,1.0508993E0,7.267001E-5,4.0864682E-1,-5.9385754E-2,7.303937E-2,-3.3149868E-1,-1.2390924E-1,1.0436209E-1,2.6042345E-1,3.9702806E-1,2.118325E-1,-2.1977445E-2,8.6324856E-2,2.198543E-2,1.754728E-1],"categories":[],"categories_nodes":[],"categories_segments":[],"categories_sizes":[],"default_left":[0,0,0,0,0,0,0,0,0,0,0,0,0,0,0,0,0,0,0,0,0,0,0,0,0,0,0],"id":5,"left_children":[1,3,5,7,9,11,13,-1,-1,15,17,19,21,23,25,-1,-1,-1,-1,-1,-1,-1,-1,-1,-1,-1,-1],"loss_changes":[2.2555504E1,4.487522E0,7.292835E0,2.3233128E-1,3.0478563E0,2.8063965E0,2.2271671E0,0E0,0E0,1.2418208E0,1.706275E0,9.762831E-1,9.913254E-2,1.3501012E0,9.620347E-1,0E0,0E0,0E0,0E0,0E0,0E0,0E0,0E0,0E0,0E0,0E0,0E0],"parents":[2147483647,0,0,1,1,2,2,3,3,4,4,5,5,6,6,9,9,10,10,11,11,12,12,13,13,14,14],"right_children":[2,4,6,8,10,12,14,-1,-1,16,18,20,22,24,26,-1,-1,-1,-1,-1,-1,-1,-1,-1,-1,-1,-1],"split_conditions":[-2.7505168E-1,-1.0352423E0,-5.1604474E-1,-5.22723E-1,2.3561455E-1,1.0807807E0,8.2718325E-1,-3.182441E-1,-1.3408794E-1,6.324077E-1,-1.5944277E0,8.5765964E-1,-9.8960483E-1,9.82691E-1,-2.5256816E-1,-5.9385754E-2,7.303937E-2,-3.3149868E-1,-1.2390924E-1,1.0436209E-1,2.6042345E-1,3.9702806E-1,2.118325E-1,-2.1977445E-2,8.6324856E-2,2.198543E-2,1.754728E-1],"split_indices":[0,2,1,0,1,0,0,0,0,2,0,2,1,2,4,0,0,0,0,0,0,0,0,0,0,0,0],"split_type":[0,0,0,0,0,0,0,0,0,0,0,0,0,0,0,0,0,0,0,0,0,0,0,0,0,0,0],"sum_hessian":[2E2,7.9E1,1.21E2,1.2E1,6.7E1,4.3E1,7.8E1,9E0,3E0,3.9E1,2.8E1,3.3E1,1E1,6.2E1,1.6E1,3.2E1,7E0,4E0,2.4E1,2.9E1,4E0,4E0,6E0,5E1,1.2E1,6E0,1E1],"tree_param":{"num_deleted":"0","num_feature":"5","num_nodes":"27","size_leaf_vector":"1"}},{"base_weights":[3.2885678E-3,-1.8672605E-1,3.4632483E-1,-1.1900315E-1,-6.980014E-1,9.538237E-1,2.6622766E-1,-5.813434E-1,-6.5030895E-2,-9.052515E-1,-9.954673E-2,6.207297E-2,3.0929014E-1,3.1287098E-1,-1.05214864E-1,-7.382953E-2,-2.154611E-1,8.6564295E-2,-3.9551307E-2,-3.2699746E-1,-1.6183838E-1,5.131299E-2,1.2926425E-1,-7.215531E-2,6.013872E-2],"categories":[],"categories_nodes":[],"categories_segments":[],"categories_sizes":[],"default_left":[0,0,0,0,0,0,0,0,0,0,0,0,0,0,0,0,0,0,0,0,0,0,0,0,0],"id":6,"left_children":[1,3,5,7,9,11,13,15,17,19,-1,-1,-1,21,23,-1,-1,-1,-1,-1,-1,-1,-1,-1,-1],"loss_changes":[1.316623E1,4.4181914E0,3.249508E0,2.8568068E0,8.37976E-1,2.4763823E-1,1.1590643E0,3.7383127E-1,2.5182934E0,2.017641E-2,0E0,0E0,0E0,8.970504E-1,3.7908673E-1,0E0,0E0,0E0,0E0,0E0,0E0,0E0,0E0,0E0,0E0],"parents":[2147483647,0,0,1,1,2,2,3,3,4,4,5,5,6,6,7,7,8,8,9,9,13,13,14,14],"right_children":[2,4,6,8,10,12,14,16,18,20,-1,-1,-1,22,24,-1,-1,-1,-1,-1,-1,-1,-1,-1,-1],"split_conditions":[3.0780178E-1,1.5033983E0,-1.279577E0,-1.5231869E0,-3.3450124E-1,3.1090757E-1,1.4093474E0,-5.9239393E-1,-9.9053633E-1,-1.4237948E-1,-9.954673E-2,6.207297E-2,3.0929014E-1,7.5698864E-1,5.697673E-1,-7.382953E-2,-2.154611E-1,8.6564295E-2,-3.9551307E-2,-3.2699746E-1,-1.6183838E-1,5.131299E-2,1.2926425E-1,-7.215531E-2,6.013872E-2],"split_indices":[0,1,1,0,0,0,1,1,1,2,0,0,0,0,3,0,0,0,0,0,0,0,0,0,0],"split_type":[0,0,0,0,0,0,0,0,0,0,0,0,0,0,0,0,0,0,0,0,0,0,0,0,0],"sum_hessian":[2E2,1.29E2,7.1E1,1.15E2,1.4E1,7E0,6.4E1,1.1E1,1.04E2,8E0,6E0,1E0,6E0,5.7E1,7E0,4E0,7E0,1.6E1,8.8E1,4E0,4E0,2.7E1,3E1,5E0,2E0],"tree_param":{"num_deleted":"0","num_feature":"5","num_nodes":"25","size_leaf_vector":"1"}},{"base_weights":[8.5552357E-4,-2.4336839E-1,1.5129061E-1,-5.8863735E-1,-1.6403818E-1,1.1597224E-1,2.4973287E-1,-6.5230584E-1,-7.99169E-2,-4.831037E-1,-1.0304375E-1,2.1534003E-1,-6.6973336E-2,-2.0585527E-1,-4.702839E-2,-5.7187997E-2,-1.938952E-1,-4.627212E-2,5.2729752E-2,4.710047E-2,1.5693547E-1,-9.806897E-2,-4.7965758E-3],"categories":[],"categories_nodes":[],"categories_segments":[],"categories_sizes":[],"default_left":[0,0,0,0,0,0,0,0,0,0,0,0,0,0,0,0,0,0,0,0,0,0,0],"id":7,"left_children":[1,3,5,7,9,11,-1,13,-1,15,17,19,21,-1,-1,-1,-1,-1,-1,-1,-1,-1,-1],"loss_changes":[7.4215283E0,2.0124912E0,2.910608E0,1.1347103E-1,1.1957372E0,2.19589E0,0E0,7.710314E-2,0E0,3.5415697E-1,8.121865E-1,1.3183839E0,5.646146E-1,0E0,0E0,0E0,0E0,0E0,0E0,0E0,0E0,0E0,0E0],"parents":[2147483647,0,0,1,1,2,2,3,3,4,4,5,5,7,7,9,9,10,10,11,11,12,12],"right_children":[2,4,6,8,10,12,-1,14,-1,16,18,20,22,-1,-1,-1,-1,-1,-1,-1,-1,-1,-1],"split_conditions":[-3.0917212E-1,-1.0080863E0,2.0607479E0,7.7463406E-1,-1.5702248E0,3.4272534E-1,2.4973287E-1,-3.357847E-1,-7.99169E-2,-1.382643E-1,1.0666747E0,1.0571222E0,-9.8572606E-1,-2.0585527E-1,-4.702839E-2,-5.7187997E-2,-1.938952E-1,-4.627212E-2,5.2729752E-2,4.710047E-2,1.5693547E-1,-9.806897E-2,-4.7965758E-3],"split_indices":[0,2,0,4,0,1,0,0,0,1,2,2,2,0,0,0,0,0,0,0,0,0,0],"split_type":[0,0,0,0,0,0,0,0,0,0,0,0,0,0,0,0,0,0,0,0,0,0,0],"sum_hessian":[2E2,7.6E1,1.24E2,1.3E1,6.3E1,1.19E2,5E0,1E1,3E0,9E0,5.4E1,7.7E1,4.2E1,9E0,1E0,4E0,5E0,4.6E1,8E0,6.6E1,1.1E1,6E0,3.6E1],"tree_param":{"num_deleted":"0","num_feature":"5","num_nodes":"23","size_leaf_vector":"1"}},{"base_weights":[-5.281224E-4,-1.0895272E-1,1.9524586E-1,-4.8599027E-2,-4.0302548E-1,6.2009615E-1,1.3995281E-1,-2.1135491E-1,1.8795678E-2,-5.9897643E-1,-2.4826945E-1,8.265484E-2,2.315223E-1,5.4522127E-2,2.6600182E-1,-9.504536E-2,-2.5827253E-2,9.79803E-2,-4.845401E-3,-2.1004435E-1,-8.9242585E-2,-1.04219705E-1,-2.9853439E-2,-2.9134667E-3,1.0761763E-1,8.7896764E-2,1.3297196E-2],"categories":[],"categories_nodes":[],"categories_segments":[],"categories_sizes":[],"default_left":[0,0,0,0,0,0,0,0,0,0,0,0,0,0,0,0,0,0,0,0,0,0,0,0,0,0,0],"id":8,"left_children":[1,3,5,7,9,11,13,15,17,19,21,-1,-1,23,25,-1,-1,-1,-1,-1,-1,-1,-1,-1,-1,-1,-1],"loss_changes":[4.2878423E0,2.2877026E0,1.6045871E0,1.1995811E0,5.184336E-1,2.0540309E-1,6.854464E-1,3.9546776E-1,8.4431136E-1,6.625295E-2,1.7187828E-1,0E0,0E0,7.850877E-1,1.425587E-1,0E0,0E0,0E0,0E0,0E0,0E0,0E0,0E0,0E0,0E0,0E0,0E0],"parents":[2147483647,0,0,1,1,2,2,3,3,4,4,5,5,6,6,7,7,8,8,9,9,10,10,13,13,14,14],"right_children":[2,4,6,8,10,12,14,16,18,20,22,-1,-1,24,26,-1,-1,-1,-1,-1,-1,-1,-1,-1,-1,-1,-1],"split_conditions":[3.0780178E-1,1.126565E0,-1.279577E0,-6.5332925E-1,-5.22723E-1,-5.4294866E-2,1.8334201E-1,-4.8423406E-1,-1.3516846E0,-4.2018682E-1,-2.4896415E-1,8.265484E-2,2.315223E-1,1.8489561E0,8.563988E-1,-9.504536E-2,-2.5827253E-2,9.79803E-2,-4.845401E-3,-2.1004435E-1,-8.9242585E-2,-1.04219705E-1,-2.9853439E-2,-2.9134667E-3,1.0761763E-1,8.7896764E-2,1.3297196E-2],"split_indices":[0,1,1,2,0,2,2,0,1,3,2,0,0,0,1,0,0,0,0,0,0,0,0,0,0,0,0],"split_type":[0,0,0,0,0,0,0,0,0,0,0,0,0,0,0,0,0,0,0,0,0,0,0,0,0,0,0],"sum_hessian":[2E2,1.29E2,7.1E1,1.08E2,2.1E1,7E0,6.4E1,3.1E1,7.7E1,8E0,1.3E1,3E0,4E0,3.9E1,2.5E1,1.6E1,1.5E1,7E0,7E1,5E0,3E0,7E0,6E0,3.3E1,6E0,2.2E1,3E0],"tree_param":{"num_deleted":"0","num_feature":"5","num_nodes":"27","size_leaf_vector":"1"}},{"base_weights":[-7.627374E-5,2.128077E-1,-5.764819E-2,1.7732099E-1,2.554875E-1,-1.7843378E-1,2.56014E-2,2.7327914E-2,2.2966279E-1,-1.3554338E-1,-4.6708497E-1,-2.7752712E-1,4.9155314E-2,-2.825652E-2,1.8315006E-2,-4.2217597E-2,7.400997E-2,-8.274868E-2,-2.1194598E-2,-1.5101314E-1,-3.1956017E-2,-9.7358994E-2,-3.2004002E-2,7.4590687E-3,7.869582E-2],"categories":[],"categories_nodes":[],"categories_segments":[],"categories_sizes":[],"default_left":[0,0,0,0,0,0,0,0,0,0,0,0,0,0,0,0,0,0,0,0,0,0,0,0,0],"id":9,"left_children":[1,3,5,7,-1,9,11,13,15,17,19,21,23,-1,-1,-1,-1,-1,-1,-1,-1,-1,-1,-1,-1],"loss_changes":[2.4757516E0,8.2377887E-1,1.603369E0,3.234619E-1,0E0,7.414136E-1,6.9192886E-1,5.4923628E-2,2.303375E-1,5.085329E-1,5.1065564E-2,2.1591306E-2,4.5433125E-1,0E0,0E0,0E0,0E0,0E0,0E0,0E0,0E0,0E0,0E0,0E0,0E0],"parents":[2147483647,0,0,1,1,2,2,3,3,5,5,6,6,7,7,8,8,9,9,10,10,11,11,12,12],"right_children":[2,4,6,8,-1,10,12,14,16,18,20,22,24,-1,-1,-1,-1,-1,-1,-1,-1,-1,-1,-1,-1],"split_conditions":[-8.604134E-1,2.3146586E0,-3.0917212E-1,-6.0021687E-1,2.554875E-1,1.5295503E0,-1.2511135E0,-7.5373614E-1,-1.6924646E0,-6.5332925E-1,6.7959774E-1,-3.7634704E-2,1.7945578E0,-2.825652E-2,1.8315006E-2,-4.2217597E-2,7.400997E-2,-8.274868E-2,-2.1194598E-2,-1.5101314E-1,-3.1956017E-2,-9.7358994E-2,-3.2004002E-2,7.4590687E-3,7.869582E-2],"split_indices":[1,0,0,2,0,1,2,4,0,2,4,4,0,0,0,0,0,0,0,0,0,0,0,0,0],"split_type":[0,0,0,0,0,0,0,0,0,0,0,0,0,0,0,0,0,0,0,0,0,0,0,0,0],"sum_hessian":[2E2,4.2E1,1.58E2,4.1E1,1E0,6.4E1,9.4E1,1.1E1,3E1,5.7E1,7E0,6E0,8.8E1,2E0,9E0,1E0,2.9E1,1.7E1,4E1,6E0,1E0,4E0,2E0,8E1,8E0],"tree_param":{"num_deleted":"0","num_feature":"5","num_nodes":"25","size_leaf_vector":"1"}}]},"name":"gbtree"},"learner_model_param":{"base_score":"4.4058617E-3","boost_from_average":"1","num_class":"0","num_feature":"5","num_target":"1"},"objective":{"name":"reg:squarederror","reg_loss_param":{"scale_pos_weight":"1"}}},"version":[2,1,4]}